{"learner":{"attributes":{"best_iteration":"10","best_ntree_limit":"11","best_score":"2.334167678734046","scikit_learn":"{\"n_estimators\": 100, \"objective\": \"reg:squarederror\", \"max_depth\": 11, \"max_leaves\": null, \"max_bin\": null, \"grow_policy\": null, \"learning_rate\": null, \"verbosity\": null, \"booster\": null, \"tree_method\": \"gpu_hist\", \"gamma\": 0.9825257075778602, \"min_child_weight\": 1.0, \"max_delta_step\": null, \"subsample\": null, \"sampling_method\": null, \"colsample_bytree\": 0.6124154214665418, \"colsample_bylevel\": null, \"colsample_bynode\": null, \"reg_alpha\": 16.0, \"reg_lambda\": 0.3527267260720486, \"scale_pos_weight\": null, \"base_score\": null, \"missing\": NaN, \"num_parallel_tree\": null, \"random_state\": null, \"n_jobs\": null, \"monotone_constraints\": null, \"interaction_constraints\": null, \"importance_type\": null, \"gpu_id\": null, \"validate_parameters\": null, \"predictor\": null, \"enable_categorical\": false, \"max_cat_to_onehot\": null, \"eval_metric\": \"rmse\", \"early_stopping_rounds\": 100, \"callbacks\": null, \"evals_result_\": {\"validation_0\": {\"rmse\": [6.097389249955374, 4.761715042826681, 3.8596654931318084, 3.1959148922325, 2.777501038928347, 2.5222582026350824, 2.326290195258003, 2.201268769041088, 2.1293506144751126, 2.0836275774317685, 2.020683674391612, 1.9439264761026298, 1.8895051793549713, 1.8718604366503317, 1.8418713203458204, 1.8038484394013174, 1.7663374458110261, 1.7605075801758836, 1.7291627446781421, 1.7265085448822164, 1.7146210600527836, 1.711571047537834, 1.7085236799672414, 1.702875999692708, 1.696918037687412, 1.696918037687412, 1.696918037687412, 1.696918037687412, 1.696918037687412, 1.696918037687412, 1.696918037687412, 1.696918037687412, 1.696918037687412, 1.696918037687412, 1.696918037687412, 1.696918037687412, 1.696918037687412, 1.696918037687412, 1.696918037687412, 1.696918037687412, 1.696918037687412, 1.696918037687412, 1.696918037687412, 1.696918037687412, 1.696918037687412, 1.696918037687412, 1.696918037687412, 1.696918037687412, 1.696918037687412, 1.696918037687412, 1.696918037687412, 1.696918037687412, 1.696918037687412, 1.696918037687412, 1.696918037687412, 1.696918037687412, 1.696918037687412, 1.696918037687412, 1.696918037687412, 1.696918037687412, 1.696918037687412, 1.696918037687412, 1.696918037687412, 1.696918037687412, 1.696918037687412, 1.696918037687412, 1.696918037687412, 1.696918037687412, 1.696918037687412, 1.696918037687412, 1.696918037687412, 1.696918037687412, 1.696918037687412, 1.696918037687412, 1.696918037687412, 1.696918037687412, 1.696918037687412, 1.696918037687412, 1.696918037687412, 1.696918037687412, 1.696918037687412, 1.696918037687412, 1.696918037687412, 1.696918037687412, 1.696918037687412, 1.696918037687412, 1.696918037687412, 1.696918037687412, 1.696918037687412, 1.696918037687412, 1.696918037687412, 1.696918037687412, 1.696918037687412, 1.696918037687412, 1.696918037687412, 1.696918037687412, 1.696918037687412, 1.696918037687412, 1.696918037687412, 1.696918037687412]}, \"validation_1\": {\"rmse\": [5.706222185167943, 4.423689743287, 3.5729922313965026, 3.0032575799739405, 2.6693530801154037, 2.520346103870666, 2.4474117985675554, 2.3856440958228147, 2.3557739346643434, 2.351539326348994, 2.334167678734046, 2.3515244655411496, 2.367992690546243, 2.357676516854936, 2.3682716009272817, 2.366134135903224, 2.3670806059913656, 2.3688095650690406, 2.364950941611931, 2.369980293709375, 2.367621252680938, 2.3658509282050577, 2.3675877426863536, 2.3645567637613554, 2.3736866422720717, 2.3736866422720717, 2.3736866422720717, 2.3736866422720717, 2.3736866422720717, 2.3736866422720717, 2.3736866422720717, 2.3736866422720717, 2.3736866422720717, 2.3736866422720717, 2.3736866422720717, 2.3736866422720717, 2.3736866422720717, 2.3736866422720717, 2.3736866422720717, 2.3736866422720717, 2.3736866422720717, 2.3736866422720717, 2.3736866422720717, 2.3736866422720717, 2.3736866422720717, 2.3736866422720717, 2.3736866422720717, 2.3736866422720717, 2.3736866422720717, 2.3736866422720717, 2.3736866422720717, 2.3736866422720717, 2.3736866422720717, 2.3736866422720717, 2.3736866422720717, 2.3736866422720717, 2.3736866422720717, 2.3736866422720717, 2.3736866422720717, 2.3736866422720717, 2.3736866422720717, 2.3736866422720717, 2.3736866422720717, 2.3736866422720717, 2.3736866422720717, 2.3736866422720717, 2.3736866422720717, 2.3736866422720717, 2.3736866422720717, 2.3736866422720717, 2.3736866422720717, 2.3736866422720717, 2.3736866422720717, 2.3736866422720717, 2.3736866422720717, 2.3736866422720717, 2.3736866422720717, 2.3736866422720717, 2.3736866422720717, 2.3736866422720717, 2.3736866422720717, 2.3736866422720717, 2.3736866422720717, 2.3736866422720717, 2.3736866422720717, 2.3736866422720717, 2.3736866422720717, 2.3736866422720717, 2.3736866422720717, 2.3736866422720717, 2.3736866422720717, 2.3736866422720717, 2.3736866422720717, 2.3736866422720717, 2.3736866422720717, 2.3736866422720717, 2.3736866422720717, 2.3736866422720717, 2.3736866422720717, 2.3736866422720717]}}, \"_estimator_type\": \"regressor\"}"},"feature_names":["SM1_Dzpe","ETA_dEpsilon_C","TopoPSA(NO)","SIC0","SM1_Dzm","ATS6p","BCUTi-1h","IC0","AMID_X","PEOE_VSA6"],"feature_types":["float","float","float","float","float","float","float","float","float","float"],"gradient_booster":{"model":{"gbtree_model_param":{"num_parallel_tree":"1","num_trees":"100","size_leaf_vector":"0"},"tree_info":[0,0,0,0,0,0,0,0,0,0,0,0,0,0,0,0,0,0,0,0,0,0,0,0,0,0,0,0,0,0,0,0,0,0,0,0,0,0,0,0,0,0,0,0,0,0,0,0,0,0,0,0,0,0,0,0,0,0,0,0,0,0,0,0,0,0,0,0,0,0,0,0,0,0,0,0,0,0,0,0,0,0,0,0,0,0,0,0,0,0,0,0,0,0,0,0,0,0,0,0],"trees":[{"base_weights":[6.7989526E0,1.6691262E0,7.6660953E0,3.0048997E0,3.8693E-1,6.1295433E0,9.226094E0,1.0628078E0,-0E0,-0E0,6.56709E-1,6.2058263E0,-0E0,1.1223828E1,7.1326046E0,-0E0,2.1510857E-1,1.8648692E0,-0E0,3.5392206E0,5.781157E0,7.4752603E0,4.6386525E-1,-0E0,6.039397E0,2.2627027E0,-0E0,1.8840896E0,-0E0],"categories":[],"categories_nodes":[],"categories_segments":[],"categories_sizes":[],"default_left":[0,0,0,0,0,1,0,0,0,0,0,1,0,0,1,0,0,0,0,0,0,0,0,0,0,0,0,0,0],"id":0,"left_children":[1,3,5,7,9,11,13,-1,-1,-1,15,17,-1,19,21,-1,-1,-1,-1,-1,23,25,-1,-1,27,-1,-1,-1,-1],"loss_changes":[3.237289E3,1.3946252E2,1.2908711E3,7.337781E1,7.7682333E0,1.2111621E2,1.00111914E3,0E0,0E0,0E0,2.3154945E0,3.7949219E0,0E0,1.8590625E2,1.5661377E2,0E0,0E0,0E0,0E0,0E0,1.9547974E1,3.46709E1,0E0,0E0,1.2057861E1,0E0,0E0,0E0,0E0],"parents":[2147483647,0,0,1,1,2,2,3,3,4,4,5,5,6,6,10,10,11,11,13,13,14,14,20,20,21,21,24,24],"right_children":[2,4,6,8,10,12,14,-1,-1,-1,16,18,-1,20,22,-1,-1,-1,-1,-1,24,26,-1,-1,28,-1,-1,-1,-1],"split_conditions":[1.1433201E0,-1.5015015E-2,3.6588517E-1,1.3526325E0,2.1508968E-1,2.608913E0,1.03459716E-1,1.0628078E0,-0E0,-0E0,8.7398106E-1,-1.5015015E-2,-0E0,-8.11954E-2,1.1236705E0,-0E0,2.1510857E-1,1.8648692E0,-0E0,3.5392206E0,-7.826087E-2,6.420821E1,4.6386525E-1,-0E0,-3.2352943E-2,2.2627027E0,-0E0,1.8840896E0,-0E0],"split_indices":[7,1,3,4,3,4,8,0,0,0,7,1,0,1,8,0,0,0,0,0,1,9,0,0,1,0,0,0,0],"split_type":[0,0,0,0,0,0,0,0,0,0,0,0,0,0,0,0,0,0,0,0,0,0,0,0,0,0,0,0,0],"sum_hessian":[7.62E2,1.13E2,6.49E2,4.9E1,6.4E1,3.33E2,3.16E2,4.1E1,8E0,2.4E1,4E1,3.28E2,5E0,1.57E2,1.59E2,2E0,3.8E1,3.27E2,1E0,1.39E2,1.8E1,1.47E2,1.2E1,1E0,1.7E1,1.45E2,2E0,1.6E1,1E0],"tree_param":{"num_deleted":"0","num_feature":"10","num_nodes":"29","size_leaf_vector":"0"}},{"base_weights":[4.8086443E0,3.0193937E0,6.24682E0,1.9427852E-1,3.629336E0,6.6481338E0,3.098475E0,3.3525687E-1,-0E0,1.0963278E0,-0E0,7.967636E0,5.3903933E0,-0E0,1.0050468E0,1.2542973E-1,-0E0,5.579477E0,9.157344E0,-0E0,5.445288E0,-0E0,1.7108204E0,-0E0,2.762909E0,-0E0,1.6562699E0],"categories":[],"categories_nodes":[],"categories_segments":[],"categories_sizes":[],"default_left":[0,0,0,0,1,0,0,0,0,0,0,0,0,0,0,0,0,0,0,0,0,0,0,0,0,0,0],"id":1,"left_children":[1,3,5,7,9,11,13,15,-1,-1,-1,17,19,-1,-1,-1,-1,21,23,-1,25,-1,-1,-1,-1,-1,-1],"loss_changes":[1.8068184E3,5.3367065E2,3.6410254E2,2.2559001E0,2.4341064E1,3.77458E2,2.8850616E1,1.5943794E0,0E0,0E0,0E0,2.3303809E2,5.630371E1,0E0,0E0,0E0,0E0,2.1666504E1,2.0329102E1,0E0,3.757129E1,0E0,0E0,0E0,0E0,0E0,0E0],"parents":[2147483647,0,0,1,1,2,2,3,3,4,4,5,5,6,6,7,7,11,11,12,12,17,17,18,18,20,20],"right_children":[2,4,6,8,10,12,14,16,-1,-1,-1,18,20,-1,-1,-1,-1,22,24,-1,26,-1,-1,-1,-1,-1,-1],"split_conditions":[3.260874E-1,1.04204E0,8.110042E-1,1.7351976E1,3.3987284E0,5.1557126E0,4.1491538E-1,1.3526325E0,-0E0,1.0963278E0,-0E0,4.0201637E-1,5.1566634E0,-0E0,1.0050468E0,1.2542973E-1,-0E0,1.1589385E0,1.4250018E-1,-0E0,1.0647948E0,-0E0,1.7108204E0,-0E0,2.762909E0,-0E0,1.6562699E0],"split_indices":[3,7,8,5,4,9,3,4,0,0,0,3,9,0,0,0,0,7,4,0,7,0,0,0,0,0,0],"split_type":[0,0,0,0,0,0,0,0,0,0,0,0,0,0,0,0,0,0,0,0,0,0,0,0,0,0,0],"sum_hessian":[7.62E2,3.45E2,4.17E2,6.6E1,2.79E2,3.65E2,5.2E1,4.2E1,2.4E1,2.77E2,2E0,1.71E2,1.94E2,5E0,4.7E1,3.6E1,6E0,6.2E1,1.09E2,2E0,1.92E2,2E0,6E1,1E0,1.08E2,4E0,1.88E2],"tree_param":{"num_deleted":"0","num_feature":"10","num_nodes":"27","size_leaf_vector":"0"}},{"base_weights":[3.4079049E0,1.7010219E0,4.3369913E0,6.385918E-1,2.3835428E0,5.8278003E0,3.298164E0,1.1565118E0,-0E0,7.973178E-1,-0E0,5.007681E0,7.981237E0,3.5970337E0,1.7620392E0,3.7852502E-1,-0E0,1.5200248E0,-0E0,2.4475563E0,-0E0,9.230911E-1,1.5211103E0,-0E0,2.007509E0,-0E0,6.2547964E-1],"categories":[],"categories_nodes":[],"categories_segments":[],"categories_sizes":[],"default_left":[0,0,0,0,0,0,0,0,0,0,0,0,0,0,0,0,0,0,0,0,0,0,0,0,0,0,0],"id":2,"left_children":[1,3,5,7,9,11,13,15,-1,-1,-1,17,19,21,23,-1,-1,-1,-1,-1,-1,-1,-1,-1,25,-1,-1],"loss_changes":[1.1097607E3,1.507757E2,6.0196484E2,2.0828892E1,1.0586371E2,1.19555176E2,4.7156982E1,8.292885E0,0E0,0E0,0E0,1.0075928E1,2.368164E0,4.6005615E1,1.2768143E1,0E0,0E0,0E0,0E0,0E0,0E0,0E0,0E0,0E0,6.309784E0,0E0,0E0],"parents":[2147483647,0,0,1,1,2,2,3,3,4,4,5,5,6,6,7,7,11,11,12,12,13,13,14,14,24,24],"right_children":[2,4,6,8,10,12,14,16,-1,-1,-1,18,20,22,24,-1,-1,-1,-1,-1,-1,-1,-1,-1,26,-1,-1],"split_conditions":[1.579E1,2.8500035E-1,2.6676774E0,1.3347087E1,1.2936046E0,4.086E1,5.244374E1,1.314E1,-0E0,7.973178E-1,-0E0,1.3572521E0,1.4169488E0,4.086E1,2.868E1,3.7852502E-1,-0E0,1.5200248E0,-0E0,2.4475563E0,-0E0,9.230911E-1,1.5211103E0,-0E0,0E0,-0E0,6.2547964E-1],"split_indices":[2,4,5,9,0,2,5,2,0,0,0,0,0,2,2,0,0,0,0,0,0,0,0,0,0,0,0],"split_type":[0,0,0,0,0,0,0,0,0,0,0,0,0,0,0,0,0,0,0,0,0,0,0,0,0,0,0],"sum_hessian":[7.62E2,2.75E2,4.87E2,1.17E2,1.58E2,1.93E2,2.94E2,5.1E1,6.6E1,1.42E2,1.6E1,1.46E2,4.7E1,2.37E2,5.7E1,4.8E1,3E0,1.43E2,3E0,4.5E1,2E0,1.84E2,5.3E1,1E1,4.7E1,2E0,4.5E1],"tree_param":{"num_deleted":"0","num_feature":"10","num_nodes":"27","size_leaf_vector":"0"}},{"base_weights":[2.440497E0,1.719572E0,3.8743598E0,2.582482E-1,1.962889E0,4.5028E0,9.967184E-1,-0E0,1.359604E-1,2.1914766E0,1.0160803E0,1.119174E0,4.896194E0,-0E0,1.6220455E0,1.7344416E0,3.495195E0,-0E0,3.3155143E-1,-0E0,2.1375327E0,5.194789E0,1.7753674E0,-0E0,5.877624E-1,1.0818311E0,2.2909753E0,-0E0,3.7049882E0,7.2910327E-1,-0E0,-0E0,5.241648E0,-0E0,2.1104176E0,3.5646117E-1,-0E0,7.1631956E-1,-0E0,3.8216922E0,-0E0,4.2836E0,6.5459976E0,6.579554E-1,-0E0,-0E0,3.87434E0,1.3019589E0,-0E0,2.096611E0,4.6495266E-2,1.1819927E0,-0E0],"categories":[],"categories_nodes":[],"categories_segments":[],"categories_sizes":[],"default_left":[0,0,1,0,0,0,0,0,0,0,0,0,1,0,0,0,0,0,0,0,0,0,0,0,0,0,0,0,0,0,0,0,0,0,0,0,0,0,0,0,0,0,0,0,0,0,0,0,0,0,0,0,0],"id":3,"left_children":[1,3,5,7,9,11,13,-1,-1,15,17,19,21,-1,23,25,27,-1,-1,-1,29,31,33,-1,-1,35,37,-1,39,-1,-1,-1,41,-1,43,-1,-1,-1,-1,45,-1,47,49,-1,-1,-1,51,-1,-1,-1,-1,-1,-1],"loss_changes":[6.9619727E2,1.4752441E2,3.5774365E2,4.7830467E0,4.1467285E1,1.6584814E2,2.5567577E1,0E0,0E0,1.1340979E2,1.00373535E1,2.4684603E1,4.6765137E1,0E0,1.1203926E1,3.8631287E1,4.821045E1,0E0,0E0,0E0,1.0615528E1,2.0046875E1,1.3136307E1,0E0,0E0,2.3488205E1,1.1136536E1,0E0,4.894879E1,0E0,0E0,0E0,5.970703E0,0E0,1.3709106E0,0E0,0E0,0E0,0E0,1.39001465E1,0E0,8.5946045E0,4.4759766E1,0E0,0E0,0E0,5.036743E0,0E0,0E0,0E0,0E0,0E0,0E0],"parents":[2147483647,0,0,1,1,2,2,3,3,4,4,5,5,6,6,9,9,10,10,11,11,12,12,14,14,15,15,16,16,20,20,21,21,22,22,25,25,26,26,28,28,32,32,34,34,39,39,41,41,42,42,46,46],"right_children":[2,4,6,8,10,12,14,-1,-1,16,18,20,22,-1,24,26,28,-1,-1,-1,30,32,34,-1,-1,36,38,-1,40,-1,-1,-1,42,-1,44,-1,-1,-1,-1,46,-1,48,50,-1,-1,-1,52,-1,-1,-1,-1,-1,-1],"split_conditions":[1.3645156E1,1.3851352E-1,1.0965558E0,2.314252E-1,1.3642532E1,2.884934E-1,1.846E1,-0E0,1.359604E-1,1.363665E1,1.3642534E1,1.7281212E-1,1.4608219E1,-0E0,1.3653626E1,7.125009E-1,1.579E1,-0E0,3.3155143E-1,-0E0,8.7166405E-1,4.36E0,3.315515E-1,-0E0,5.877624E-1,1.3631578E1,4.823907E1,-0E0,7.5E-1,7.2910327E-1,-0E0,-0E0,4.5459017E-1,-0E0,4.309E1,3.5646117E-1,-0E0,7.1631956E-1,-0E0,2.314252E-1,-0E0,4.5369995E-1,1.249937E1,6.579554E-1,-0E0,-0E0,1.3642531E1,1.3019589E0,-0E0,2.096611E0,4.6495266E-2,1.1819927E0,-0E0],"split_indices":[6,0,0,3,6,3,2,0,0,6,6,0,6,0,6,4,2,0,0,0,0,2,0,0,0,6,9,0,3,0,0,0,3,0,2,0,0,0,0,3,0,3,9,0,0,0,6,0,0,0,0,0,0],"split_type":[0,0,0,0,0,0,0,0,0,0,0,0,0,0,0,0,0,0,0,0,0,0,0,0,0,0,0,0,0,0,0,0,0,0,0,0,0,0,0,0,0,0,0,0,0,0,0,0,0,0,0,0,0],"sum_hessian":[7.62E2,5.15E2,2.47E2,8.3E1,4.32E2,1.98E2,4.9E1,3.3E1,5E1,3.34E2,9.8E1,2.5E1,1.73E2,2.1E1,2.8E1,2.57E2,7.7E1,7E0,9.1E1,1.3E1,1.2E1,1.53E2,2E1,6E0,2.2E1,1.32E2,1.25E2,5E0,7.2E1,1.1E1,1E0,2E0,1.51E2,3E0,1.7E1,1.26E2,6E0,1.17E2,8E0,7.1E1,1E0,9.5E1,5.6E1,1.6E1,1E0,1E0,7E1,9.3E1,2E0,5E1,6E0,6.8E1,2E0],"tree_param":{"num_deleted":"0","num_feature":"10","num_nodes":"53","size_leaf_vector":"0"}},{"base_weights":[1.7797292E0,1.2452569E0,2.852049E0,1.4609618E0,9.860301E-2,-0E0,3.174038E0,1.6332858E0,7.465355E-1,-0E0,6.684087E-2,3.6281385E0,8.897138E-1,1.1465111E0,2.184131E0,1.5921268E-1,1.5457144E0,3.7058403E0,-0E0,-0E0,1.0669124E0,3.5396242E-1,-0E0,-0E0,2.2572374E0,-0E0,5.477209E-1,-0E0,1.6235074E0,3.737231E0,-0E0,1.2398223E0,-0E0,-0E0,2.3247423E0,1.840607E-1,-0E0,5.0415766E-1,-0E0,3.9591107E0,1.2581252E0,-0E0,1.4366827E0,7.0850754E-1,-0E0,1.2003953E0,-0E0,-0E0,1.5037528E0,5.302172E-1,-0E0,4.745715E-1,-0E0],"categories":[],"categories_nodes":[],"categories_segments":[],"categories_sizes":[],"default_left":[0,0,0,0,0,0,1,0,0,0,0,1,0,0,0,0,0,0,0,0,0,0,0,0,0,0,0,0,0,1,0,0,0,0,0,0,0,0,0,1,0,0,0,0,0,0,0,0,0,0,0,0,0],"id":4,"left_children":[1,3,5,7,9,-1,11,13,15,-1,-1,17,19,21,23,25,27,29,-1,-1,31,-1,-1,-1,33,-1,35,-1,37,39,-1,41,-1,-1,43,-1,-1,-1,-1,45,47,-1,49,-1,-1,-1,-1,-1,51,-1,-1,-1,-1],"loss_changes":[3.7011426E2,1.0345227E2,2.102478E2,1.3859131E1,2.5750396E0,0E0,1.5203857E2,3.2797546E1,2.0206898E1,0E0,0E0,4.499414E1,8.992668E0,3.4824371E0,1.8797241E1,6.42242E0,5.0940247E0,1.21015625E1,0E0,0E0,8.7497635E0,0E0,0E0,0E0,1.3605957E1,0E0,1.7140818E0,0E0,2.8939896E0,7.921875E0,0E0,7.2531967E0,0E0,0E0,5.1466675E0,0E0,0E0,0E0,0E0,2.1484375E0,7.0233383E0,0E0,1.9298592E0,0E0,0E0,0E0,0E0,0E0,1.6821976E0,0E0,0E0,0E0,0E0],"parents":[2147483647,0,0,1,1,2,2,3,3,4,4,6,6,7,7,8,8,11,11,12,12,13,13,14,14,15,15,16,16,17,17,20,20,24,24,26,26,28,28,29,29,31,31,34,34,39,39,40,40,42,42,48,48],"right_children":[2,4,6,8,10,-1,12,14,16,-1,-1,18,20,22,24,26,28,30,-1,-1,32,-1,-1,-1,34,-1,36,-1,38,40,-1,42,-1,-1,44,-1,-1,-1,-1,46,48,-1,50,-1,-1,-1,-1,-1,52,-1,-1,-1,-1],"split_conditions":[1.3645892E1,-3.399576E-2,1.2210478E0,1.3642532E1,1.1497777E1,-0E0,1.0965558E0,1.3627441E1,1.4195563E0,-0E0,6.684087E-2,-3.7590463E-2,-8.698052E-1,1.3627403E1,-6.031746E-1,1.3642838E1,1.3642533E1,5.4597305E1,-0E0,-0E0,1.7431215E1,3.5396242E-1,-0E0,-0E0,1.1488348E0,-0E0,1.3645153E1,-0E0,-1.2783884E-1,1.4608219E1,-0E0,1.3653626E1,-0E0,-0E0,-4.9242426E-2,1.840607E-1,-0E0,5.0415766E-1,-0E0,-4.5238096E-2,3.315515E-1,-0E0,1.7678E2,7.0850754E-1,-0E0,1.2003953E0,-0E0,-0E0,-9.6491225E-2,5.302172E-1,-0E0,4.745715E-1,-0E0],"split_indices":[6,1,7,6,6,0,0,6,7,0,0,1,1,6,1,6,6,9,0,0,6,0,0,0,7,0,6,0,1,6,0,6,0,0,1,0,0,0,0,1,0,0,2,0,0,0,0,0,1,0,0,0,0],"split_type":[0,0,0,0,0,0,0,0,0,0,0,0,0,0,0,0,0,0,0,0,0,0,0,0,0,0,0,0,0,0,0,0,0,0,0,0,0,0,0,0,0,0,0,0,0,0,0,0,0,0,0,0,0],"sum_hessian":[7.62E2,5.19E2,2.43E2,4.25E2,9.4E1,2.6E1,2.17E2,3.24E2,1.01E2,2.4E1,7E1,1.75E2,4.2E1,1.88E2,1.36E2,7E1,3.1E1,1.71E2,4E0,5E0,3.7E1,1.8E2,8E0,5E0,1.31E2,4.3E1,2.7E1,1E0,3E1,1.69E2,2E0,3.3E1,4E0,5E0,1.26E2,2.6E1,1E0,2.9E1,1E0,1.49E2,2E1,5E0,2.8E1,1.23E2,3E0,1.46E2,3E0,3E0,1.7E1,1.9E1,9E0,1.6E1,1E0],"tree_param":{"num_deleted":"0","num_feature":"10","num_nodes":"53","size_leaf_vector":"0"}},{"base_weights":[1.2971841E0,7.013987E-1,1.795312E0,8.9931154E-1,6.372354E-2,1.1424425E0,2.3774905E0,9.412952E-1,-0E0,-0E0,2.0864703E-1,-0E0,1.1962956E0,2.5329707E0,-0E0,2.9457733E-1,-0E0,8.753818E-2,-0E0,1.2320559E0,-0E0,2.9518998E0,1.1832002E0,-0E0,1.3171357E0,3.1175318E0,-0E0,1.3798136E0,-0E0,4.0534836E-1,-0E0,3.2768383E0,-0E0,-0E0,1.4866806E0,3.5401843E0,1.0510168E-1,-0E0,1.5611119E0,1.0901724E0,-0E0,-0E0,1.9774437E0,6.141758E-1,-0E0],"categories":[],"categories_nodes":[],"categories_segments":[],"categories_sizes":[],"default_left":[0,0,0,0,0,0,1,0,0,0,0,0,0,0,0,0,0,0,0,0,0,0,1,0,0,1,0,0,0,0,0,1,0,0,0,0,0,0,0,0,0,0,0,0,0],"id":5,"left_children":[1,3,5,7,9,11,13,15,-1,-1,17,-1,19,21,-1,-1,-1,-1,-1,23,-1,25,27,-1,29,31,-1,33,-1,-1,-1,35,-1,-1,37,39,-1,-1,41,-1,-1,-1,43,-1,-1],"loss_changes":[1.8585742E2,3.0301636E1,9.489172E1,1.2798737E1,1.4594948E0,1.6899292E1,3.5951294E1,1.080658E1,0E0,0E0,1.4633377E0,0E0,1.4015015E1,3.458838E1,0E0,0E0,0E0,0E0,0E0,1.4394592E1,0E0,2.2122803E1,1.3054512E1,0E0,7.064453E0,2.2904053E1,0E0,9.472641E0,0E0,0E0,0E0,2.0819702E1,0E0,0E0,4.9604797E0,1.0619751E1,0E0,0E0,6.1774063E0,0E0,0E0,0E0,3.4937668E0,0E0,0E0],"parents":[2147483647,0,0,1,1,2,2,3,3,4,4,5,5,6,6,7,7,10,10,12,12,13,13,19,19,21,21,22,22,24,24,25,25,27,27,31,31,34,34,35,35,38,38,42,42],"right_children":[2,4,6,8,10,12,14,16,-1,-1,18,-1,20,22,-1,-1,-1,-1,-1,24,-1,26,28,-1,30,32,-1,34,-1,-1,-1,36,-1,-1,38,40,-1,-1,42,-1,-1,-1,44,-1,-1],"split_conditions":[1.3485879E0,-3.399576E-2,1.3644804E1,1.4750246E1,2.5615215E-1,2.9380247E-1,1.7428366E1,1.3346791E0,-0E0,-0E0,1.2886498E0,-0E0,8.277294E-1,1.2016621E1,-0E0,2.9457733E-1,-0E0,8.753818E-2,-0E0,1.18609915E1,-0E0,1.9591479E0,1.4547742E1,-0E0,-8.235294E-2,-8.11954E-2,-0E0,2.3493831E-1,-0E0,4.0534836E-1,-0E0,1.4608219E1,-0E0,-0E0,1.3527242E0,1.8730976E1,1.0510168E-1,-0E0,-2.2521009E-1,1.0901724E0,-0E0,-0E0,1.6395857E0,6.141758E-1,-0E0],"split_indices":[7,1,6,6,3,3,6,7,0,0,7,0,3,5,0,0,0,0,0,6,0,7,6,0,1,1,0,3,0,0,0,6,0,0,7,9,0,0,1,0,0,0,7,0,0],"split_type":[0,0,0,0,0,0,0,0,0,0,0,0,0,0,0,0,0,0,0,0,0,0,0,0,0,0,0,0,0,0,0,0,0,0,0,0,0,0,0,0,0,0,0,0,0],"sum_hessian":[7.62E2,3.62E2,4E2,2.57E2,1.05E2,2.02E2,1.98E2,2.49E2,8E0,6.2E1,4.3E1,6E0,1.96E2,1.8E2,1.8E1,2.4E2,9E0,3.9E1,4E0,1.94E2,2E0,1.28E2,5.2E1,1.6E1,1.78E2,1.17E2,1.1E1,4.5E1,7E0,1.73E2,5E0,1.08E2,9E0,2E0,4.3E1,9.4E1,1.4E1,2E0,4.1E1,9E1,4E0,1.4E1,2.7E1,2.6E1,1E0],"tree_param":{"num_deleted":"0","num_feature":"10","num_nodes":"45","size_leaf_vector":"0"}},{"base_weights":[9.564057E-1,1.8158808E0,7.114825E-1,4.857307E-1,2.2982464E0,6.469152E-3,8.690583E-1,-0E0,6.199869E-1,2.5067992E0,-0E0,-0E0,9.132588E-1,1.9374636E-1,-0E0,2.7572136E0,-0E0,3.4157798E-1,1.0968425E0,2.5444785E-1,3.1353266E0,5.0055695E-1,-0E0,7.119607E-2,1.2039287E0,1.4298068E-1,-0E0,9.5471275E-1,-0E0,5.404552E-1,-0E0,-0E0,3.5412273E-1,1.2479384E0,-0E0,-0E0,6.74298E-1,-0E0,2.3409504E-1,8.460692E-1,1.7976993E0,2.1438272E-1,-0E0,-0E0,1.0194463E0,1.8576765E0,-0E0,1.6323394E-1,1.3667674E0,1.9507886E0,-0E0,2.928101E-1,-0E0,1.5669942E0,-0E0,6.02071E-1,-0E0,1.5053546E-1,-0E0,4.779023E-1,-0E0],"categories":[],"categories_nodes":[],"categories_segments":[],"categories_sizes":[],"default_left":[1,0,0,0,0,0,0,0,0,0,0,0,0,0,0,1,0,0,0,1,0,0,0,0,0,0,0,0,0,0,0,0,0,0,0,0,0,0,0,0,0,0,0,0,0,0,0,0,0,0,0,0,0,0,0,0,0,0,0,0,0],"id":6,"left_children":[1,3,5,7,9,-1,11,-1,13,15,-1,-1,17,-1,-1,19,-1,21,23,25,27,29,-1,31,33,-1,-1,-1,-1,35,-1,-1,37,39,-1,-1,41,-1,-1,43,45,-1,-1,-1,47,49,-1,51,53,55,-1,57,-1,59,-1,-1,-1,-1,-1,-1,-1],"loss_changes":[1.19585754E2,5.4098236E1,5.1880188E1,5.1685314E0,2.9164001E1,0E0,2.3347992E1,0E0,1.0333042E0,2.2908875E1,0E0,0E0,2.5062805E1,0E0,0E0,2.0575989E1,0E0,1.2341239E1,1.5411896E1,1.9743316E0,8.703552E0,3.4566212E0,0E0,3.2002237E0,6.99942E0,0E0,0E0,0E0,0E0,5.177742E0,0E0,0E0,5.9180756E0,1.6009033E1,0E0,0E0,1.4348145E0,0E0,0E0,2.7361588E1,1.4003113E1,0E0,0E0,0E0,1.8368988E1,1.4076324E1,0E0,1.7276479E0,1.0744354E1,7.538788E0,0E0,3.6845512E0,0E0,3.4098816E0,0E0,0E0,0E0,0E0,0E0,0E0,0E0],"parents":[2147483647,0,0,1,1,2,2,3,3,4,4,6,6,8,8,9,9,12,12,15,15,17,17,18,18,19,19,20,20,21,21,23,23,24,24,29,29,32,32,33,33,36,36,39,39,40,40,44,44,45,45,47,47,48,48,49,49,51,51,53,53],"right_children":[2,4,6,8,10,-1,12,-1,14,16,-1,-1,18,-1,-1,20,-1,22,24,26,28,30,-1,32,34,-1,-1,-1,-1,36,-1,-1,38,40,-1,-1,42,-1,-1,44,46,-1,-1,-1,48,50,-1,52,54,56,-1,58,-1,60,-1,-1,-1,-1,-1,-1,-1],"split_conditions":[-2.1488096E-1,4.36E0,1.1736099E0,-9.8571426E-1,2.0867456E1,6.469152E-3,-2E-1,-0E0,1.3338387E0,1.921928E0,-0E0,-0E0,1.579E1,1.9374636E-1,-0E0,-6.031746E-1,-0E0,3.0834831E1,2.6403806E-1,-6.353535E-1,4.823907E1,1.314E1,-0E0,-8.6419754E-2,-4.5238096E-2,1.4298068E-1,-0E0,9.5471275E-1,-0E0,1.2406706E0,-0E0,-0E0,2.868E1,-9.7222224E-2,-0E0,-0E0,-3.6225434E-2,-0E0,2.3409504E-1,2.194E1,4.7108383E1,2.1438272E-1,-0E0,-0E0,1.3795588E0,4.1244692E-1,-0E0,2.1038149E1,-1.2063492E-1,5.232E1,-0E0,1.2999758E1,-0E0,8.628E1,-0E0,6.02071E-1,-0E0,1.5053546E-1,-0E0,4.779023E-1,-0E0],"split_indices":[1,2,7,1,5,0,1,0,5,7,0,0,2,0,0,1,0,9,3,1,9,2,0,1,1,0,0,0,0,7,0,0,2,1,0,0,1,0,0,2,5,0,0,0,7,3,0,5,1,2,0,9,0,2,0,0,0,0,0,0,0],"split_type":[0,0,0,0,0,0,0,0,0,0,0,0,0,0,0,0,0,0,0,0,0,0,0,0,0,0,0,0,0,0,0,0,0,0,0,0,0,0,0,0,0,0,0,0,0,0,0,0,0,0,0,0,0,0,0,0,0,0,0,0,0],"sum_hessian":[7.62E2,1.54E2,6.08E2,5E1,1.04E2,1.32E2,4.76E2,6E0,4.4E1,9.2E1,1.2E1,1.7E1,4.59E2,4.3E1,1E0,7.9E1,1.3E1,1.33E2,3.26E2,1.6E1,6.3E1,1.11E2,2.2E1,4.5E1,2.81E2,1.3E1,3E0,6.2E1,1E0,1.07E2,4E0,1.8E1,2.7E1,2.66E2,1.5E1,2.7E1,8E1,1.2E1,1.5E1,1.71E2,9.5E1,7.4E1,6E0,2.7E1,1.44E2,9.3E1,2E0,5.5E1,8.9E1,8.8E1,5E0,3.7E1,1.8E1,7.2E1,1.7E1,8.5E1,3E0,2.7E1,1E1,7.1E1,1E0],"tree_param":{"num_deleted":"0","num_feature":"10","num_nodes":"61","size_leaf_vector":"0"}},{"base_weights":[7.218905E-1,4.520981E-1,1.2308751E0,5.381673E-1,-0E0,-0E0,1.3798801E0,3.47265E-1,1.1855799E0,-1.2136893E-3,9.80096E-2,1.507468E0,-0E0,5.577659E-3,6.084668E-1,-0E0,1.3052775E0,1.5551003E0,-0E0,1.8346815E-1,-3.7158106E-2,7.788521E-1,-0E0,-0E0,4.1579732E-1,1.5634171E0,-0E0,-0E0,9.25261E-2,-1.4796051E-1,-0E0,-0E0,8.551544E-1,2.6304834E0,1.2143039E0,-6.637986E-2,-0E0,8.793482E-1,-0E0,9.4519526E-1,-0E0,3.7441003E-1,-0E0,2.681161E-1,-0E0],"categories":[],"categories_nodes":[],"categories_segments":[],"categories_sizes":[],"default_left":[0,0,0,0,0,0,1,0,0,0,0,0,0,0,0,0,0,1,0,0,0,0,0,0,0,0,0,0,0,0,0,0,0,0,1,0,0,0,0,0,0,0,0,0,0],"id":7,"left_children":[1,3,5,7,9,-1,11,13,15,-1,-1,17,-1,19,21,-1,23,25,-1,27,29,31,-1,-1,-1,33,-1,-1,-1,35,-1,-1,37,39,41,-1,-1,43,-1,-1,-1,-1,-1,-1,-1],"loss_changes":[7.756253E1,1.4144249E1,5.087442E1,2.6663765E1,3.7744026E0,0E0,1.9819458E1,2.055035E1,1.3947639E1,0E0,0E0,4.0223694E0,0E0,3.6688445E0,1.7484276E1,0E0,5.6772766E0,2.3112183E0,0E0,4.9196167E0,1.204992E0,3.0889664E0,0E0,0E0,0E0,5.288025E0,0E0,0E0,0E0,1.5575066E0,0E0,0E0,2.3950348E0,2.088411E1,4.616333E0,0E0,0E0,1.1891098E0,0E0,0E0,0E0,0E0,0E0,0E0,0E0],"parents":[2147483647,0,0,1,1,2,2,3,3,4,4,6,6,7,7,8,8,11,11,13,13,14,14,16,16,17,17,19,19,20,20,21,21,25,25,29,29,32,32,33,33,34,34,37,37],"right_children":[2,4,6,8,10,-1,12,14,16,-1,-1,18,-1,20,22,-1,24,26,-1,28,30,32,-1,-1,-1,34,-1,-1,-1,36,-1,-1,38,40,42,-1,-1,44,-1,-1,-1,-1,-1,-1,-1],"split_conditions":[1.3645892E1,1.3642531E1,1.1981174E0,1.363665E1,7.6785886E-1,-0E0,1.810708E0,5.3426594E-1,-4.4646466E-1,-1.2136893E-3,9.80096E-2,1.9591479E0,-0E0,1.362589E1,2.9800041E1,-0E0,1.1488348E0,1.7431215E1,-0E0,1.1497777E1,-4.6969697E-2,4.1353382E-2,-0E0,-0E0,4.1579732E-1,-2.809524E-1,-0E0,-0E0,9.25261E-2,1.4406455E0,-0E0,-0E0,1.3632684E1,1.8879185E0,1.2709274E0,-6.637986E-2,-0E0,1.842371E0,-0E0,9.4519526E-1,-0E0,3.7441003E-1,-0E0,2.681161E-1,-0E0],"split_indices":[6,6,7,6,4,0,4,4,1,0,0,7,0,6,9,0,7,6,0,6,1,0,0,0,0,1,0,0,0,7,0,0,6,7,0,0,0,7,0,0,0,0,0,0,0],"split_type":[0,0,0,0,0,0,0,0,0,0,0,0,0,0,0,0,0,0,0,0,0,0,0,0,0,0,0,0,0,0,0,0,0,0,0,0,0,0,0,0,0,0,0,0,0],"sum_hessian":[7.62E2,5.19E2,2.43E2,4.15E2,1.04E2,2.3E1,2.2E2,3.4E2,7.5E1,6.9E1,3.5E1,1.93E2,2.7E1,1.74E2,1.66E2,5E0,7E1,1.83E2,1E1,1.06E2,6.8E1,1.3E2,3.6E1,5E0,6.5E1,1.82E2,1E0,1.7E1,8.9E1,5.9E1,9E0,1.8E1,1.12E2,3.3E1,1.49E2,5.8E1,1E0,1.09E2,3E0,2.5E1,8E0,1.44E2,5E0,1.07E2,2E0],"tree_param":{"num_deleted":"0","num_feature":"10","num_nodes":"45","size_leaf_vector":"0"}},{"base_weights":[5.369479E-1,3.2993332E-1,9.122229E-1,3.8242579E-1,-0E0,-0E0,1.0279676E0,9.078704E-2,5.3207284E-1,-3.5347052E-2,3.382425E-2,1.0647174E0,-0E0,2.8516674E-1,-0E0,-0E0,6.679426E-1,-0E0,1.1016184E0,-0E0,1.151587E-1,7.005941E-1,-0E0,3.3605266E-1,-0E0,7.240545E-1,-0E0,7.794992E-1,-0E0,1.1868926E0,3.7230685E-1,-0E0,1.2295767E0,-0E0,4.8263422E-1,-0E0,3.7821832E-1,-0E0,6.1708826E-1,2.1939556E-1,-0E0],"categories":[],"categories_nodes":[],"categories_segments":[],"categories_sizes":[],"default_left":[0,0,0,0,0,0,1,0,0,0,0,0,0,0,0,0,0,0,1,0,0,0,0,0,0,0,0,0,0,0,0,0,0,0,0,0,0,0,0,0,0],"id":8,"left_children":[1,3,5,7,9,-1,11,13,15,-1,-1,17,-1,19,-1,-1,21,-1,23,-1,-1,25,-1,-1,-1,27,-1,29,-1,31,33,-1,35,-1,37,-1,-1,-1,39,-1,-1],"loss_changes":[3.9244537E1,8.012951E0,3.0344421E1,9.279114E0,1.0325165E0,0E0,1.127832E1,3.697196E0,1.5757629E1,0E0,0E0,9.933868E0,0E0,1.0075169E0,0E0,0E0,7.837021E0,0E0,4.8672333E0,0E0,0E0,2.8594437E0,0E0,0E0,0E0,2.3342285E0,0E0,2.492775E0,0E0,1.9989319E0,8.583901E0,0E0,1.503006E0,0E0,7.307482E0,0E0,0E0,0E0,5.8046894E0,0E0,0E0],"parents":[2147483647,0,0,1,1,2,2,3,3,4,4,6,6,7,7,8,8,11,11,13,13,16,16,18,18,21,21,25,25,27,27,29,29,30,30,32,32,34,34,38,38],"right_children":[2,4,6,8,10,-1,12,14,16,-1,-1,18,-1,20,-1,-1,22,-1,24,-1,-1,26,-1,-1,-1,28,-1,30,-1,32,34,-1,36,-1,38,-1,-1,-1,40,-1,-1],"split_conditions":[1.3645892E1,1.364265E1,1.1981174E0,1.2532976E0,1.3642788E1,-0E0,1.7431215E1,3.355E0,1.29766E1,-3.5347052E-2,3.382425E-2,2.5386205E-1,-0E0,1.1523609E1,-0E0,-0E0,7.5E-1,-0E0,2.7935255E0,-0E0,1.151587E-1,6.149883E1,-0E0,3.3605266E-1,-0E0,1.3642531E1,-0E0,3.586342E-1,-0E0,2.632319E-1,3.6588517E-1,-0E0,1.36232E1,-0E0,2.7702704E-1,-0E0,3.7821832E-1,-0E0,4.4962997E0,2.1939556E-1,-0E0],"split_indices":[6,6,7,7,6,0,6,5,6,0,0,3,0,6,0,0,3,0,4,0,0,5,0,0,0,6,0,3,0,3,3,0,6,0,0,0,0,0,5,0,0],"split_type":[0,0,0,0,0,0,0,0,0,0,0,0,0,0,0,0,0,0,0,0,0,0,0,0,0,0,0,0,0,0,0,0,0,0,0,0,0,0,0,0,0],"sum_hessian":[7.62E2,5.19E2,2.43E2,4.41E2,7.8E1,2.3E1,2.2E2,1.86E2,2.55E2,2.7E1,5.1E1,2.15E2,5E0,6.4E1,1.22E2,5.8E1,1.97E2,6E0,2.09E2,2.2E1,4.2E1,1.95E2,2E0,2.06E2,3E0,1.88E2,7E0,1.66E2,2.2E1,6.3E1,1.03E2,3E0,6E1,5E0,9.8E1,2E0,5.8E1,1.9E1,7.9E1,6.7E1,1.2E1],"tree_param":{"num_deleted":"0","num_feature":"10","num_nodes":"41","size_leaf_vector":"0"}},{"base_weights":[3.9072898E-1,8.83247E-1,2.4134931E-1,1.3425982E0,2.2490029E-1,-0E0,2.7221796E-1,1.4726132E0,-0E0,-0E0,5.485155E-1,-0E0,3.3364788E-1,1.5221498E0,-0E0,2.0338003E-1,-0E0,3.544288E-1,-0E0,4.8915023E-1,-0E0,1.1118161E-1,-0E0],"categories":[],"categories_nodes":[],"categories_segments":[],"categories_sizes":[],"default_left":[0,0,0,0,0,0,0,0,0,0,0,0,1,0,0,0,0,1,0,0,0,0,0],"id":9,"left_children":[1,3,5,7,9,-1,11,13,-1,-1,15,-1,17,19,-1,-1,-1,21,-1,-1,-1,-1,-1],"loss_changes":[3.8019226E1,2.0886864E1,8.268055E0,1.2400436E1,8.830121E0,0E0,7.3147736E0,7.823227E0,0E0,0E0,3.0456638E0,0E0,4.307064E0,7.055969E0,0E0,0E0,0E0,2.8415108E0,0E0,0E0,0E0,0E0,0E0],"parents":[2147483647,0,0,1,1,2,2,3,3,4,4,6,6,7,7,10,10,12,12,13,13,17,17],"right_children":[2,4,6,8,10,-1,12,14,-1,-1,16,-1,18,20,-1,-1,-1,22,-1,-1,-1,-1,-1],"split_conditions":[-2.1488096E-1,1.4648697E0,-1.9904763E-1,1E0,1.5849625E0,-0E0,1.1736099E0,1.3933421E1,-0E0,-0E0,6.5545875E-1,-0E0,1.6582471E0,1.1649125E1,-0E0,2.0338003E-1,-0E0,-2.8333334E-2,-0E0,4.8915023E-1,-0E0,1.1118161E-1,-0E0],"split_indices":[1,4,1,3,7,0,7,5,0,0,3,0,4,9,0,0,0,1,0,0,0,0,0],"split_type":[0,0,0,0,0,0,0,0,0,0,0,0,0,0,0,0,0,0,0,0,0,0,0],"sum_hessian":[7.62E2,1.52E2,6.1E2,7.5E1,7.7E1,1.9E1,5.91E2,6.8E1,7E0,3.5E1,4.2E1,1.32E2,4.59E2,6.7E1,1E0,3.4E1,8E0,4.41E2,1.8E1,6.1E1,6E0,4.24E2,1.7E1],"tree_param":{"num_deleted":"0","num_feature":"10","num_nodes":"23","size_leaf_vector":"0"}},{"base_weights":[2.806827E-1,1.402839E-1,7.4947226E-1,-0E0,2.9630065E-1,2.3567888E-1,-0E0,-1.5334698E-2,5.728867E-1,3.6983764E-1,-0E0,-0E0,-1.7956569E0,3.3476454E-1,-0E0,7.111873E-2,6.618744E-1,5.9713874E-2,-7.71381E-2,-0E0,-8.4542644E-1,-0E0,4.6123236E-2,6.8788105E-1,-0E0,-1.4328709E-2,6.09287E-1,-3.5334703E-1,1.1241147E-3,7.8677464E-1,-0E0,-0E0,-1.9569752E-1,-0E0,7.61427E-1,-0E0,-4.9053156E-1,-0E0,2.4146478E-1,-3.294705E-1,-0E0,-0E0,8.217677E-1,-0E0,-5.617885E-1,-0E0,-1.0947171E-1,2.6433867E-1,-0E0,-0E0,-1.8670863E-1],"categories":[],"categories_nodes":[],"categories_segments":[],"categories_sizes":[],"default_left":[0,1,0,1,0,0,0,1,0,0,0,0,0,0,0,0,0,0,0,0,0,0,0,0,0,0,0,0,0,0,0,0,0,0,0,0,0,0,0,0,0,0,0,0,0,0,0,0,0,0,0],"id":10,"left_children":[1,3,5,7,9,-1,-1,11,13,15,-1,17,19,-1,-1,21,23,25,27,-1,-1,-1,-1,29,-1,31,33,35,-1,37,-1,-1,39,-1,41,-1,43,-1,-1,45,-1,-1,47,-1,49,-1,-1,-1,-1,-1,-1],"loss_changes":[3.590297E1,1.0786907E1,2.7275696E0,8.069994E0,8.650194E0,0E0,0E0,1.7181797E1,1.4860125E1,8.350763E0,0E0,1.4161888E0,1.7308458E1,0E0,0E0,1.3025595E0,2.66333E0,1.8326199E1,8.014796E0,0E0,0E0,0E0,0E0,1.7425766E0,0E0,2.8518734E0,8.390032E0,1.7726126E0,0E0,1.3798447E0,0E0,0E0,3.665514E0,0E0,1.1471462E0,0E0,1.9883833E0,0E0,0E0,1.3518448E0,0E0,0E0,1.1757145E0,0E0,2.0480309E0,0E0,0E0,0E0,0E0,0E0,0E0],"parents":[2147483647,0,0,1,1,2,2,3,3,4,4,7,7,8,8,9,9,11,11,12,12,15,15,16,16,17,17,18,18,23,23,25,25,26,26,27,27,29,29,32,32,34,34,36,36,39,39,42,42,44,44],"right_children":[2,4,6,8,10,-1,-1,12,14,16,-1,18,20,-1,-1,22,24,26,28,-1,-1,-1,-1,30,-1,32,34,36,-1,38,-1,-1,40,-1,42,-1,44,-1,-1,46,-1,-1,48,-1,50,-1,-1,-1,-1,-1,-1],"split_conditions":[4.046E1,5.3426594E-1,1.7678E2,1.4563203E1,1.0965558E0,2.3567888E-1,-0E0,1.4556983E1,1.4594723E1,1.3631578E1,-0E0,1.3640268E1,1.7281212E-1,3.3476454E-1,-0E0,3.110799E-1,3.944E1,1.36346445E1,1.4540215E1,-0E0,-8.4542644E-1,-0E0,4.6123236E-2,1.4088902E0,-0E0,1.1488348E0,1.579E1,1.3642654E1,1.1241147E-3,9.54434E-1,-0E0,-0E0,2.031E1,-0E0,1.1488348E0,-0E0,1.1238562E0,-0E0,2.4146478E-1,1.3623186E1,-0E0,-0E0,1.4315603E0,-0E0,1.236E1,-0E0,-1.0947171E-1,2.6433867E-1,-0E0,-0E0,-1.8670863E-1],"split_indices":[2,4,2,6,0,0,0,6,6,6,0,6,0,0,0,8,2,6,6,0,0,0,0,4,0,7,2,6,0,7,0,0,2,0,7,0,7,0,0,6,0,0,7,0,2,0,0,0,0,0,0],"split_type":[0,0,0,0,0,0,0,0,0,0,0,0,0,0,0,0,0,0,0,0,0,0,0,0,0,0,0,0,0,0,0,0,0,0,0,0,0,0,0,0,0,0,0,0,0,0,0,0,0,0,0],"sum_hessian":[7.62E2,6.13E2,1.49E2,3.53E2,2.6E2,1.4E2,9E0,3.29E2,2.4E1,2.3E2,3E1,3.24E2,5E0,1.8E1,6E0,1.41E2,8.9E1,2.16E2,1.08E2,1E0,4E0,5.6E1,8.5E1,8.8E1,1E0,1.65E2,5.1E1,6.9E1,3.9E1,7E1,1.8E1,9E1,7.5E1,4E0,4.7E1,2.6E1,4.3E1,1E0,6.9E1,6E1,1.5E1,5E0,4.2E1,4E0,3.9E1,1E0,5.9E1,3.8E1,4E0,2E0,3.7E1],"tree_param":{"num_deleted":"0","num_feature":"10","num_nodes":"51","size_leaf_vector":"0"}},{"base_weights":[2.1123683E-1,5.268948E-1,1.0472431E-1,7.5840807E-1,-0E0,1.830243E-1,-0E0,8.9153874E-1,-0E0,2.659657E-2,3.456014E-1,-2.0903164E-1,4.3282726E-1,1.0780138E0,-0E0,-4.3541747E-3,1.14214346E-1,-0E0,4.2129484E-1,-0E0,-2.1936023E0,5.7545996E-1,-0E0,1.2997297E0,-0E0,-0E0,3.4052077E-1,5.14248E-1,-0E0,-2.4656336E-1,2.6945603E-1,-7.7266026E-1,-0E0,-0E0,6.613643E-1,-0E0,1.3460586E0,4.9486583E-1,-0E0,6.8121874E-1,-0E0,-0E0,-4.8060304E-1,-0E0,5.024332E-1,7.25087E-1,-0E0,-0E0,4.1227937E-1,-0E0,6.463731E-1,-0E0,8.5050195E-1,-1.5612584E-1,-0E0,2.454921E-1,-0E0,2.3592998E-1,-0E0,7.126649E-1,-0E0,-0E0,1.1714633E0,2.4003667E-1,-0E0,-0E0,1.3104405E0,1.4032581E0,-0E0,-0E0,4.7818938E-1],"categories":[],"categories_nodes":[],"categories_segments":[],"categories_sizes":[],"default_left":[1,0,0,0,0,0,0,0,0,0,0,0,0,0,0,0,0,0,0,0,0,0,0,0,0,0,0,0,0,0,0,0,0,0,0,0,0,0,0,0,0,0,0,0,0,0,0,0,0,0,0,0,0,0,0,0,0,0,0,0,0,0,0,0,0,0,0,0,0,0,0],"id":11,"left_children":[1,3,5,7,-1,9,11,13,-1,15,17,19,21,23,-1,-1,25,-1,27,29,31,33,-1,35,-1,-1,37,39,-1,41,43,-1,-1,-1,45,-1,47,49,-1,51,-1,-1,53,-1,55,57,-1,-1,-1,-1,59,-1,61,-1,-1,-1,-1,-1,-1,63,-1,-1,65,-1,-1,-1,67,69,-1,-1,-1],"loss_changes":[1.5506092E1,2.4072968E1,7.710498E0,1.2840401E1,0E0,4.960704E0,1.2930341E1,1.5938751E1,0E0,2.5660026E0,3.2736816E0,3.388503E1,2.43501E0,1.8075539E1,0E0,0E0,6.5732183E0,0E0,5.16992E0,8.811117E0,8.580994E0,2.4687853E0,0E0,4.632118E0,0E0,0E0,5.2177677E0,6.9078674E0,0E0,2.4297147E0,6.3542023E0,0E0,0E0,0E0,1.8024702E0,0E0,3.1258392E0,4.413268E0,0E0,3.3654785E0,0E0,0E0,1.1382227E0,0E0,5.538686E0,1.7323809E0,0E0,0E0,0E0,0E0,2.0544014E0,0E0,9.273613E0,0E0,0E0,0E0,0E0,0E0,0E0,1.6299686E0,0E0,0E0,4.9802094E0,0E0,0E0,0E0,5.676075E0,4.074112E0,0E0,0E0,0E0],"parents":[2147483647,0,0,1,1,2,2,3,3,5,5,6,6,7,7,9,9,10,10,11,11,12,12,13,13,16,16,18,18,19,19,20,20,21,21,23,23,26,26,27,27,29,29,30,30,34,34,36,36,37,37,39,39,42,42,44,44,45,45,50,50,52,52,59,59,62,62,66,66,67,67],"right_children":[2,4,6,8,-1,10,12,14,-1,16,18,20,22,24,-1,-1,26,-1,28,30,32,34,-1,36,-1,-1,38,40,-1,42,44,-1,-1,-1,46,-1,48,50,-1,52,-1,-1,54,-1,56,58,-1,-1,-1,-1,60,-1,62,-1,-1,-1,-1,-1,-1,64,-1,-1,66,-1,-1,-1,68,70,-1,-1,-1],"split_conditions":[-2.1488096E-1,1.4750246E1,3.6960253E-1,9.2584074E-1,-0E0,3.0195045E-1,1.4563203E1,6.562658E-1,-0E0,-8.6419754E-2,-1.4102565E-1,1.45496435E1,1.03459716E-1,1.3933421E1,-0E0,-4.3541747E-3,1.3629333E1,-0E0,3.525E1,4.6091637E-1,-1.1730769E-1,-2.1041666E-1,-0E0,1.2976336E1,-0E0,-0E0,1.4538976E1,-5.5555556E-2,-0E0,4.1244692E-1,-1.9904763E-1,-7.7266026E-1,-0E0,-0E0,9.76286E0,-0E0,-8.698052E-1,2.202188E-1,-0E0,3.2483414E-1,-0E0,-0E0,6.6583476E0,-0E0,-1.2783884E-1,1.482531E1,-0E0,-0E0,4.1227937E-1,-0E0,-2.6666667E-2,-0E0,1.289E1,-1.5612584E-1,-0E0,2.454921E-1,-0E0,2.3592998E-1,-0E0,2.9873002E-1,-0E0,-0E0,1.3636652E1,2.4003667E-1,-0E0,-0E0,1.4563231E1,3.260874E-1,-0E0,-0E0,4.7818938E-1],"split_indices":[1,6,3,8,0,3,6,3,0,1,1,6,8,5,0,0,6,0,2,3,1,1,0,6,0,0,6,1,0,3,1,0,0,0,5,0,1,3,0,3,0,0,5,0,1,6,0,0,0,0,1,0,2,0,0,0,0,0,0,3,0,0,6,0,0,0,6,3,0,0,0],"split_type":[0,0,0,0,0,0,0,0,0,0,0,0,0,0,0,0,0,0,0,0,0,0,0,0,0,0,0,0,0,0,0,0,0,0,0,0,0,0,0,0,0,0,0,0,0,0,0,0,0,0,0,0,0,0,0,0,0,0,0,0,0,0,0,0,0,0,0,0,0,0,0],"sum_hessian":[7.62E2,1.54E2,6.08E2,1.16E2,3.8E1,4.29E2,1.79E2,1E2,1.6E1,2.69E2,1.6E2,1.44E2,3.5E1,8.2E1,1.8E1,5.9E1,2.1E2,3.4E1,1.26E2,1.36E2,8E0,2.7E1,8E0,6.7E1,1.5E1,1.3E2,8E1,1.04E2,2.2E1,9.4E1,4.2E1,7E0,1E0,1E0,2.6E1,2E0,6.5E1,5.9E1,2.1E1,7.4E1,3E1,5.9E1,3.5E1,5E0,3.7E1,2.5E1,1E0,1E0,6.4E1,1.4E1,4.5E1,2.2E1,5.2E1,3.4E1,1E0,2.2E1,1.5E1,2.4E1,1E0,4.1E1,4E0,1.8E1,3.4E1,3.5E1,6E0,4E0,3E1,2.9E1,1E0,5E0,2.4E1],"tree_param":{"num_deleted":"0","num_feature":"10","num_nodes":"71","size_leaf_vector":"0"}},{"base_weights":[1.504342E-1,4.251541E-1,8.146172E-2,6.768716E-1,-0E0,1.2638178E-1,-0E0,-0E0,1.5289443E0,3.4210537E-2,3.1597692E-1,-4.5259786E-1,1.5122122E-1,-0E0,1.6360138E-1,1.9677852E0,-0E0,-9.470295E-2,1.1626923E-1,5.521369E-1,-0E0,-6.0454977E-1,-0E0,-0E0,4.2367235E-1,3.359628E-1,-0E0,2.3110292E0,-0E0,-0E0,-2.2455615E-1,-0E0,2.713324E-1,-0E0,7.011347E-1,-0E0,-7.671233E-1,2.1305515E-1,-0E0,5.153127E-1,-0E0,2.4871254E0,-0E0,-0E0,-1.0292756E-1,4.200931E-1,-0E0,7.404568E-1,-0E0,-0E0,-8.402043E-1,6.4599013E-1,-0E0,-0E0,8.00861E-1,4.9007738E-1,-0E0,2.3443109E-1,-0E0,-0E0,-2.6589715E-1,2.1979901E-1,-0E0,1.8772186E-1,-0E0],"categories":[],"categories_nodes":[],"categories_segments":[],"categories_sizes":[],"default_left":[1,0,0,0,0,0,0,0,0,0,0,0,0,0,0,0,0,0,0,0,0,0,0,0,0,0,0,0,0,0,0,0,0,0,0,0,0,0,0,0,0,0,0,0,0,0,0,0,0,0,0,0,0,0,0,0,0,0,0,0,0,0,0,0,0],"id":12,"left_children":[1,3,5,7,-1,9,11,13,15,17,19,21,23,-1,25,27,-1,29,31,33,-1,35,-1,-1,37,39,-1,41,-1,-1,43,-1,45,-1,47,-1,49,-1,-1,51,-1,53,-1,-1,-1,55,-1,57,-1,-1,59,61,-1,-1,-1,63,-1,-1,-1,-1,-1,-1,-1,-1,-1],"loss_changes":[6.327074E0,1.3466728E1,4.0515285E0,1.956269E1,0E0,3.5913172E0,1.2879897E1,1.0265266E0,1.1067371E1,4.700428E0,9.3207035E0,6.1726217E0,3.702238E0,0E0,2.7380295E0,7.9943047E0,0E0,2.3876352E0,3.2572527E0,3.4236164E0,0E0,5.2632465E0,0E0,0E0,6.834304E0,3.233336E0,0E0,5.096428E0,0E0,0E0,3.371516E0,0E0,2.791881E0,0E0,1.7010803E0,0E0,2.3872757E0,0E0,0E0,3.581884E0,0E0,4.4929504E0,0E0,0E0,0E0,3.3002768E0,0E0,1.7319775E0,0E0,0E0,1.2438793E0,2.4926605E0,0E0,0E0,0E0,3.591569E0,0E0,0E0,0E0,0E0,0E0,0E0,0E0,0E0,0E0],"parents":[2147483647,0,0,1,1,2,2,3,3,5,5,6,6,7,7,8,8,9,9,10,10,11,11,12,12,14,14,15,15,17,17,18,18,19,19,21,21,24,24,25,25,27,27,30,30,32,32,34,34,36,36,39,39,41,41,45,45,47,47,50,50,51,51,55,55],"right_children":[2,4,6,8,-1,10,12,14,16,18,20,22,24,-1,26,28,-1,30,32,34,-1,36,-1,-1,38,40,-1,42,-1,-1,44,-1,46,-1,48,-1,50,-1,-1,52,-1,54,-1,-1,-1,56,-1,58,-1,-1,60,62,-1,-1,-1,64,-1,-1,-1,-1,-1,-1,-1,-1,-1],"split_conditions":[-2.809524E-1,1.4750246E1,4.1269726E-1,-3.3887446E-1,-0E0,1.4287947E0,4.6091637E-1,1.29921665E1,1.842371E0,-1.04444444E-1,3.763102E-1,2.9381428E0,-1.625E-1,-0E0,8.277294E-1,-2.815476E-1,-0E0,1.3629333E1,1.2532976E0,-1.8451087E-1,-0E0,1.3527242E0,-0E0,-0E0,1.7174044E1,2.3733673E1,-0E0,1.151629E1,-0E0,-0E0,4.446129E-1,-0E0,-6.6778146E-2,-0E0,1.6395857E0,-0E0,1.297483E1,2.1305515E-1,-0E0,3.5569031E0,-0E0,1.298268E1,-0E0,-0E0,-1.0292756E-1,6.471113E1,-0E0,-5.982906E-2,-0E0,-0E0,1.3787835E0,-3.4010026E-1,-0E0,-0E0,8.00861E-1,3.5809118E-1,-0E0,2.3443109E-1,-0E0,-0E0,-2.6589715E-1,2.1979901E-1,-0E0,1.8772186E-1,-0E0],"split_indices":[1,6,3,1,0,7,3,6,7,1,3,5,1,0,3,1,0,6,7,1,0,7,0,0,9,9,0,5,0,0,5,0,1,0,7,0,6,0,0,5,0,6,0,0,0,9,0,1,0,0,7,1,0,0,0,3,0,0,0,0,0,0,0,0,0],"split_type":[0,0,0,0,0,0,0,0,0,0,0,0,0,0,0,0,0,0,0,0,0,0,0,0,0,0,0,0,0,0,0,0,0,0,0,0,0,0,0,0,0,0,0,0,0,0,0,0,0,0,0,0,0,0,0,0,0,0,0,0,0,0,0,0,0],"sum_hessian":[7.62E2,1.06E2,6.56E2,7.1E1,3.5E1,5.26E2,1.3E2,4.9E1,2.2E1,4.11E2,1.15E2,5.4E1,7.6E1,1.1E1,3.8E1,1.6E1,6E0,8.4E1,3.27E2,6.8E1,4.7E1,4.7E1,7E0,4.6E1,3E1,3.3E1,5E0,1.3E1,3E0,2.2E1,6.2E1,2.23E2,1.04E2,1.9E1,4.9E1,9E0,3.8E1,2.4E1,6E0,2.6E1,7E0,1.2E1,1E0,7E0,5.5E1,5.9E1,4.5E1,4.7E1,2E0,3E0,3.5E1,2.5E1,1E0,1E0,1.1E1,5.7E1,2E0,4.5E1,2E0,2E0,3.3E1,2.4E1,1E0,4.4E1,1.3E1],"tree_param":{"num_deleted":"0","num_feature":"10","num_nodes":"65","size_leaf_vector":"0"}},{"base_weights":[1.1951473E-1,1.7249018E-2,2.0709412E-1,1.0479348E-1,-2.4228143E-2,2.935548E-1,-0E0,1.7665231E-1,-0E0,-1.5614104E-1,-0E0,3.8266936E-1,-0E0,-0E0,6.2723555E-2,-0E0,-2.5476265E-1,5.6195766E-1,-0E0,-4.9546164E-2,2.5675666E-1,-0E0,-9.799528E-2,5.9537035E-1,-0E0,-0E0,4.1859367E-1,-0E0,1.832639E-1,4.9020937E-1,-0E0,-0E0,6.029537E-1,2.0987716E-1,-0E0],"categories":[],"categories_nodes":[],"categories_segments":[],"categories_sizes":[],"default_left":[0,0,1,0,0,1,0,0,0,0,0,0,0,0,0,0,0,0,0,0,0,0,0,0,0,0,0,0,0,0,0,0,0,0,0],"id":13,"left_children":[1,3,5,7,9,11,-1,13,-1,15,-1,17,19,-1,-1,-1,21,23,-1,-1,25,-1,-1,27,-1,-1,29,-1,-1,31,-1,-1,33,-1,-1],"loss_changes":[3.2371607E0,2.8743794E0,3.9580698E0,2.5066168E0,2.3210506E0,1.7193775E0,0E0,1.4688368E0,0E0,3.4420319E0,0E0,1.075379E1,4.0609894E0,0E0,0E0,0E0,1.6424403E0,1.5991116E0,0E0,0E0,4.4954343E0,0E0,0E0,1.3171577E0,0E0,0E0,1.2696261E0,0E0,0E0,1.8184671E0,0E0,0E0,1.8629045E0,0E0,0E0],"parents":[2147483647,0,0,1,1,2,2,3,3,4,4,5,5,7,7,9,9,11,11,12,12,16,16,17,17,20,20,23,23,26,26,29,29,32,32],"right_children":[2,4,6,8,10,12,-1,14,-1,16,-1,18,20,-1,-1,-1,22,24,-1,-1,26,-1,-1,28,-1,-1,30,-1,-1,32,-1,-1,34,-1,-1],"split_conditions":[7.125009E-1,3.315515E-1,1.4648697E0,8.003033E0,-1.0340136E-1,-1.2238095E-1,-0E0,9.612366E-1,-0E0,-2.809524E-1,-0E0,1.3933421E1,-1.0340136E-1,-0E0,6.2723555E-2,-0E0,1.3346791E0,1.9591479E0,-0E0,-4.9546164E-2,8.496821E-1,-0E0,-9.799528E-2,4.1353382E-2,-0E0,-0E0,1.2984679E2,-0E0,1.832639E-1,-8.7820515E-2,-0E0,-0E0,-2.8333334E-2,2.0987716E-1,-0E0],"split_indices":[4,0,4,5,1,1,0,7,0,1,0,5,1,0,0,0,7,7,0,0,4,0,0,0,0,0,5,0,0,1,0,0,1,0,0],"split_type":[0,0,0,0,0,0,0,0,0,0,0,0,0,0,0,0,0,0,0,0,0,0,0,0,0,0,0,0,0,0,0,0,0,0,0],"sum_hessian":[7.62E2,4.36E2,3.26E2,2.64E2,1.72E2,2.08E2,1.18E2,1.73E2,9.1E1,9.9E1,7.3E1,1.34E2,7.4E1,1.6E1,1.57E2,9E0,9E1,9.6E1,3.8E1,2.2E1,5.2E1,2E1,7E1,9E1,6E0,7E0,4.5E1,1E0,8.9E1,3.8E1,7E0,8E0,3E1,2.6E1,4E0],"tree_param":{"num_deleted":"0","num_feature":"10","num_nodes":"35","size_leaf_vector":"0"}},{"base_weights":[8.847242E-2,4.5549922E-4,3.4259707E-1,1.0273763E-1,-0E0,5.9011185E-1,-0E0,-0E0,2.7459317E-1,1.4006125E-2,-9.496116E-2,1.8980762E-1,-0E0,3.4538957E-1,-0E0,1.2204728E-1,-0E0,-3.959639E-1,-0E0,1.20235614E-1,-0E0,-0E0,2.4200584E-1,-4.9290117E-2,-0E0,-5.6309634E-1,-0E0,1.646084E-1,-0E0,3.085273E-1,-0E0,-6.456172E-1,-0E0,3.4434974E-1,-0E0,3.4495166E-1,-0E0,-0E0,-1.0058098E0,1.4199059E-1,-0E0,-0E0,2.603285E-1,-0E0,-3.1781378E-1],"categories":[],"categories_nodes":[],"categories_segments":[],"categories_sizes":[],"default_left":[0,0,0,0,0,0,0,0,0,0,1,0,0,0,0,0,0,1,0,0,0,0,0,0,0,0,0,0,0,0,0,0,0,0,0,0,0,0,0,0,0,0,0,0,0],"id":14,"left_children":[1,3,5,7,9,11,-1,-1,13,15,17,-1,-1,19,-1,21,23,25,27,-1,-1,-1,29,-1,-1,31,-1,33,-1,35,-1,37,-1,39,-1,41,-1,-1,43,-1,-1,-1,-1,-1,-1],"loss_changes":[1.1562852E1,1.5551838E0,9.058521E0,3.749384E0,1.82367E0,3.5751762E0,0E0,0E0,2.4914904E0,2.0226986E0,1.1454811E1,0E0,0E0,1.7375784E0,0E0,3.040238E0,1.8991449E0,6.5452013E0,2.2043276E0,0E0,0E0,0E0,2.2471638E0,0E0,0E0,5.3856697E0,0E0,4.240642E0,0E0,1.7222009E0,0E0,8.585081E0,0E0,3.7147088E0,0E0,2.4754238E0,0E0,0E0,1.4452782E0,0E0,0E0,0E0,0E0,0E0,0E0],"parents":[2147483647,0,0,1,1,2,2,3,3,4,4,5,5,8,8,9,9,10,10,13,13,15,15,16,16,17,17,18,18,22,22,25,25,27,27,29,29,31,31,33,33,35,35,38,38],"right_children":[2,4,6,8,10,12,-1,-1,14,16,18,-1,-1,20,-1,22,24,26,28,-1,-1,-1,30,-1,-1,32,-1,34,-1,36,-1,38,-1,40,-1,42,-1,-1,44,-1,-1,-1,-1,-1,-1],"split_conditions":[4.046E1,1.9303797E-1,1.3933421E1,3.090498E-1,3.6960253E-1,8.277294E-1,-0E0,-0E0,9.103591E-1,4.8355263E-1,4.517589E-1,1.8980762E-1,-0E0,2.406E1,-0E0,1.253E1,2.868E1,5.5614877E-1,4.446129E-1,1.20235614E-1,-0E0,-0E0,4.347862E1,-4.9290117E-2,-0E0,8.011081E0,-0E0,9.2584074E-1,-0E0,3.229E1,-0E0,2.7034885E-1,-0E0,3.64E1,-0E0,3.6778897E-1,-0E0,-0E0,3.763102E-1,1.4199059E-1,-0E0,-0E0,2.603285E-1,-0E0,-3.1781378E-1],"split_indices":[2,0,5,3,3,3,0,0,4,0,0,0,0,2,0,2,2,8,5,0,0,0,5,0,0,5,0,8,0,2,0,0,0,2,0,4,0,0,3,0,0,0,0,0,0],"split_type":[0,0,0,0,0,0,0,0,0,0,0,0,0,0,0,0,0,0,0,0,0,0,0,0,0,0,0,0,0,0,0,0,0,0,0,0,0,0,0,0,0,0,0,0,0],"sum_hessian":[7.62E2,6.13E2,1.49E2,1.47E2,4.66E2,7.6E1,7.3E1,7.7E1,7E1,2.7E2,1.96E2,7.5E1,1E0,6.5E1,5E0,1.39E2,1.31E2,8.4E1,1.12E2,5.9E1,6E0,5.2E1,8.7E1,7E1,6.1E1,6.2E1,2.2E1,8.1E1,3.1E1,7.7E1,1E1,6E1,2E0,5.4E1,2.7E1,7.6E1,1E0,2.7E1,3.3E1,4.5E1,9E0,6.1E1,1.5E1,2E0,3.1E1],"tree_param":{"num_deleted":"0","num_feature":"10","num_nodes":"45","size_leaf_vector":"0"}},{"base_weights":[6.443965E-2,-0E0,2.1649025E-1,3.8700547E-2,-5.142417E-2,-0E0,2.5073355E-1,-0E0,3.1838447E-1,-0E0,-1.7800893E-1,2.8014252E-1,-0E0,3.346458E-2,-2.7815878E-1,3.8878858E-1,-0E0,-0E0,1.7862484E-1,-3.2506946E-1,-0E0,3.1706998E-1,-0E0,1.1187338E-1,-3.1130733E-3,-5.118328E-1,-0E0,1.6671497E-1,-0E0,-0E0,-2.7543318E-1,-0E0,2.912509E-1,-0E0,-9.0242743E-1,9.533524E-1,1.122984E-1,3.619658E-1,-0E0,-2.0782475E-1,-0E0,-3.9811546E-1,-0E0,-0E0,4.388749E-1,-0E0,-3.326797E-1,-0E0,3.1128073E-1,-0E0,4.0073124E-1,-0E0,1.256108E-1,-0E0,-1.8173435E-1,1.8169864E-1,-0E0,4.7073033E-1,-0E0,4.9870655E-1,-0E0,1.5903656E-1,-0E0],"categories":[],"categories_nodes":[],"categories_segments":[],"categories_sizes":[],"default_left":[0,0,0,0,0,0,1,0,0,0,1,0,0,0,0,0,0,0,0,0,0,0,0,0,0,0,0,0,0,0,0,0,0,0,0,0,0,0,0,0,0,0,0,0,0,0,0,0,0,0,0,0,0,0,0,0,0,0,0,1,0,0,0],"id":15,"left_children":[1,3,5,7,9,-1,11,13,15,17,19,21,-1,23,25,27,-1,29,31,33,-1,35,-1,37,-1,39,-1,-1,-1,-1,41,-1,43,-1,45,47,49,51,-1,-1,-1,53,-1,-1,55,-1,-1,-1,-1,-1,57,-1,-1,-1,-1,-1,-1,59,-1,61,-1,-1,-1],"loss_changes":[7.021249E0,1.0596817E0,2.471611E0,3.589731E0,2.6843584E0,0E0,2.594264E0,2.720756E0,1.4044518E0,1.1918073E0,3.556893E0,2.6776314E0,0E0,2.5296435E0,5.525755E0,1.716855E0,0E0,2.9095695E0,1.6374075E0,7.3314686E0,0E0,6.1498566E0,0E0,3.3836818E0,0E0,4.21522E0,0E0,0E0,0E0,0E0,2.8521898E0,0E0,2.6318376E0,0E0,3.5183592E0,3.008257E0,8.066414E0,1.7467551E0,0E0,0E0,0E0,2.8080087E0,0E0,0E0,2.371696E0,0E0,0E0,0E0,0E0,0E0,3.1388512E0,0E0,0E0,0E0,0E0,0E0,0E0,1.3610058E0,0E0,1.0429306E0,0E0,0E0,0E0],"parents":[2147483647,0,0,1,1,2,2,3,3,4,4,6,6,7,7,8,8,9,9,10,10,11,11,13,13,14,14,15,15,17,17,18,18,19,19,21,21,23,23,25,25,30,30,32,32,34,34,35,35,36,36,37,37,41,41,44,44,50,50,57,57,59,59],"right_children":[2,4,6,8,10,-1,12,14,16,18,20,22,-1,24,26,28,-1,30,32,34,-1,36,-1,38,-1,40,-1,-1,-1,-1,42,-1,44,-1,46,48,50,52,-1,-1,-1,54,-1,-1,56,-1,-1,-1,-1,-1,58,-1,-1,-1,-1,-1,-1,60,-1,62,-1,-1,-1],"split_conditions":[3.302E1,4.1990513E-1,2.3767239E-1,1.4547742E1,1.364265E1,-0E0,1.4750246E1,1.3636706E1,1.4594723E1,2.031E1,1.4563203E1,1.8879185E0,-0E0,1.4315603E0,1.5954618E0,1.470143E0,-0E0,-2.0476191E-1,-1.989234E-1,3.763102E-1,-0E0,-2.7738094E-1,-0E0,-6.679738E-2,-3.1130733E-3,-2.2463769E-2,-0E0,1.6671497E-1,-0E0,-0E0,6.5642476E-1,-0E0,1.3627023E1,-0E0,2.126E1,-8.698052E-1,-1.3238381E-1,1.1378216E1,-0E0,-2.0782475E-1,-0E0,4.8355263E-1,-0E0,-0E0,5.290698E-1,-0E0,-3.326797E-1,-0E0,3.1128073E-1,-0E0,3.8625345E-1,-0E0,1.256108E-1,-0E0,-1.8173435E-1,1.8169864E-1,-0E0,1.6395857E0,-0E0,-5.3872053E-2,-0E0,1.5903656E-1,-0E0],"split_indices":[2,0,3,6,6,0,6,6,6,2,6,7,0,7,7,7,0,1,1,3,0,1,0,1,0,1,0,0,0,0,0,0,6,0,2,1,1,6,0,0,0,0,0,0,0,0,0,0,0,0,3,0,0,0,0,0,0,7,0,1,0,0,0],"split_type":[0,0,0,0,0,0,0,0,0,0,0,0,0,0,0,0,0,0,0,0,0,0,0,0,0,0,0,0,0,0,0,0,0,0,0,0,0,0,0,0,0,0,0,0,0,0,0,0,0,0,0,0,0,0,0,0,0,0,0,0,0,0,0],"sum_hessian":[7.62E2,5.45E2,2.17E2,3.34E2,2.11E2,1.6E1,2.01E2,2.94E2,4E1,1.09E2,1.02E2,1.94E2,7E0,2.63E2,3.1E1,3.6E1,4E0,7.2E1,3.7E1,6.4E1,3.8E1,1.78E2,1.6E1,2.25E2,3.8E1,3E1,1E0,2.3E1,1.3E1,3.4E1,3.8E1,4E0,3.3E1,4.7E1,1.7E1,2.4E1,1.54E2,4.7E1,1.78E2,2.5E1,5E0,3.6E1,2E0,5E0,2.8E1,3E0,1.4E1,1E0,2.3E1,9.2E1,6.2E1,2E0,4.5E1,1.3E1,2.3E1,2.1E1,7E0,5.9E1,3E0,5.8E1,1E0,5.5E1,3E0],"tree_param":{"num_deleted":"0","num_feature":"10","num_nodes":"63","size_leaf_vector":"0"}},{"base_weights":[4.4687975E-2,-0E0,2.2759727E-1,6.20711E-2,-7.049398E-2,2.2095992E-1,-0E0,-0E0,3.0120903E-1,-0E0,-5.85364E-1,7.357465E-2,-9.160501E-2,1.461584E-1,-0E0,-8.3696425E-2,1.9200288E-1,-0E0,-9.0675426E-1,1.1694471E-1,-0E0,-0E0,-2.0087464E-1,-1.5623717E-1,-0E0,4.380756E-1,-0E0,-1.1171798E0,-0E0,-0E0,2.5667804E-1,-2.9432693E-1,-0E0,-2.0846102E-1,-0E0,-0E0,9.998492E-1,-0E0,-3.8325328E-1,8.605536E-2,-0E0,-5.07469E-1,-0E0,-0E0,-3.2176864E-1,1.157077E0,-0E0,-0E0,-6.51111E-1,-3.4316203E-1,-0E0,-0E0,4.0486917E-1,-0E0,-2.2171654E-1,-1.2848227E-1,-0E0],"categories":[],"categories_nodes":[],"categories_segments":[],"categories_sizes":[],"default_left":[1,0,0,0,0,0,0,0,0,0,1,0,0,0,0,0,0,0,0,0,0,0,0,0,0,0,0,0,0,0,0,0,0,0,0,0,0,0,0,0,0,0,0,0,0,0,0,0,0,0,0,0,0,0,0,0,0],"id":16,"left_children":[1,3,5,7,9,-1,-1,11,13,15,17,19,21,-1,-1,23,25,-1,27,29,-1,-1,31,33,-1,35,-1,37,-1,-1,39,41,-1,43,-1,-1,45,-1,-1,-1,-1,47,-1,-1,49,51,-1,-1,53,55,-1,-1,-1,-1,-1,-1,-1],"loss_changes":[3.6240926E0,2.8076463E0,1.4031658E1,4.3272285E0,5.1736813E0,0E0,0E0,2.38735E0,2.1339393E0,2.7723637E0,6.334482E0,2.0221822E0,2.5787182E0,0E0,0E0,2.5816424E0,3.4222898E0,0E0,2.794261E0,2.7017193E0,0E0,0E0,3.0088716E0,2.2498615E0,0E0,1.0290739E1,0E0,3.110713E0,0E0,0E0,1.1031666E0,1.2022696E0,0E0,3.1788054E0,0E0,0E0,3.8677235E0,0E0,0E0,0E0,0E0,2.5076509E0,0E0,0E0,1.1390676E0,3.2824802E0,0E0,0E0,2.4310856E0,1.3334093E0,0E0,0E0,0E0,0E0,0E0,0E0,0E0],"parents":[2147483647,0,0,1,1,2,2,3,3,4,4,7,7,8,8,9,9,10,10,11,11,12,12,15,15,16,16,18,18,19,19,22,22,23,23,25,25,27,27,30,30,31,31,33,33,36,36,41,41,44,44,45,45,48,48,49,49],"right_children":[2,4,6,8,10,-1,-1,12,14,16,18,20,22,-1,-1,24,26,-1,28,30,-1,-1,32,34,-1,36,-1,38,-1,-1,40,42,-1,44,-1,-1,46,-1,-1,-1,-1,48,-1,-1,50,52,-1,-1,54,56,-1,-1,-1,-1,-1,-1,-1],"split_conditions":[1.4563203E1,3.6960253E-1,1.4594723E1,1.4287947E0,1.45478325E1,2.2095992E-1,-0E0,1.3640268E1,1.4854753E0,1.3644804E1,1.7281212E-1,3.5989356E-1,1.2363864E0,1.461584E-1,-0E0,2.746311E0,1.6691804E0,-0E0,1.7273967E0,2.8500035E-1,-0E0,-0E0,1.4543316E1,1.8322629E0,-0E0,1.4969275E0,-0E0,1.470143E0,-0E0,-0E0,7.877907E-1,1.3249693E0,-0E0,7.125009E-1,-0E0,-0E0,1.03459716E-1,-0E0,-3.8325328E-1,8.605536E-2,-0E0,1.364265E1,-0E0,-0E0,7.877907E-1,1.3647174E1,-0E0,-0E0,2.1371359E-1,6.724874E-1,-0E0,-0E0,4.0486917E-1,-0E0,-2.2171654E-1,-1.2848227E-1,-0E0],"split_indices":[6,3,6,7,6,0,0,6,7,6,0,3,7,0,0,4,7,0,7,4,0,0,6,7,0,7,0,7,0,0,0,7,0,4,0,0,8,0,0,0,0,6,0,0,0,6,0,0,3,8,0,0,0,0,0,0,0],"split_type":[0,0,0,0,0,0,0,0,0,0,0,0,0,0,0,0,0,0,0,0,0,0,0,0,0,0,0,0,0,0,0,0,0,0,0,0,0,0,0,0,0,0,0,0,0,0,0,0,0,0,0,0,0,0,0,0,0],"sum_hessian":[7.62E2,6.63E2,9.9E1,4.39E2,2.24E2,3.5E1,6.4E1,3.73E2,6.6E1,2.06E2,1.8E1,2.51E2,1.22E2,3.4E1,3.2E1,1.62E2,4.4E1,3E0,1.5E1,2.47E2,4E0,3.3E1,8.9E1,1.52E2,1E1,2.6E1,1.8E1,1.2E1,3E0,1.55E2,9.2E1,7.6E1,1.3E1,1.37E2,1.5E1,1.1E1,1.5E1,1E0,1.1E1,8.7E1,5E0,3E1,4.6E1,4.9E1,8.8E1,1.4E1,1E0,6E0,2.4E1,8.7E1,1E0,2E0,1.2E1,1E0,2.3E1,6.3E1,2.4E1],"tree_param":{"num_deleted":"0","num_feature":"10","num_nodes":"57","size_leaf_vector":"0"}},{"base_weights":[3.4668233E-2,-0E0,2.4620749E-1,-0E0,2.9881018E-1,-0E0,3.3139172E-1,4.6010855E-1,-0E0,5.1106316E-1,-0E0,-0E0,2.782564E-1],"categories":[],"categories_nodes":[],"categories_segments":[],"categories_sizes":[],"default_left":[0,0,0,0,1,0,0,0,0,0,0,0,0],"id":17,"left_children":[1,-1,3,-1,5,-1,7,9,-1,11,-1,-1,-1],"loss_changes":[4.560752E0,0E0,1.4296212E0,0E0,1.2588167E0,0E0,1.0123158E0,1.1005974E0,0E0,2.9295216E0,0E0,0E0,0E0],"parents":[2147483647,0,0,2,2,4,4,6,6,7,7,9,9],"right_children":[2,-1,4,-1,6,-1,8,10,-1,12,-1,-1,-1],"split_conditions":[4.969E1,-0E0,2.3767239E-1,-0E0,1.3626531E1,-0E0,1.6395857E0,1.3366104E0,-0E0,1.3645892E1,-0E0,-0E0,2.782564E-1],"split_indices":[2,0,3,0,6,0,7,0,0,6,0,0,0],"split_type":[0,0,0,0,0,0,0,0,0,0,0,0,0],"sum_hessian":[7.62E2,6.72E2,9E1,1.3E1,7.7E1,3E0,7.4E1,4.3E1,3.1E1,3.9E1,4E0,2.4E1,1.5E1],"tree_param":{"num_deleted":"0","num_feature":"10","num_nodes":"13","size_leaf_vector":"0"}},{"base_weights":[2.9193284E-2,-0E0,2.6814213E-1,-4.9497564E-3,2.4274853E-1,-0E0,4.7451988E-1,-5.5474002E-2,7.639798E-2,3.240551E-1,-0E0,5.675874E-1,-0E0,-0E0,-4.9815738E-1,2.9619387E-1,-0E0,1.1532389E-1,-0E0,8.3277303E-1,-0E0,6.3287005E-2,-3.9148588E-2,-0E0,-5.455885E-1,6.4813495E-1,-0E0,2.8927776E-1,-0E0,-0E0,3.263808E-1,-1.1306454E-1,-0E0,-6.007199E-1,-0E0,7.660457E-1,-0E0,4.1766745E-1,-0E0,-3.8413492E-1,-0E0,-1.89467E-1,-0E0,-0E0,3.3233973E-1,5.044757E-1,-0E0,-0E0,-1.2359538E-1,1.6915582E-1,-0E0],"categories":[],"categories_nodes":[],"categories_segments":[],"categories_sizes":[],"default_left":[0,0,0,0,0,0,0,0,0,0,0,0,0,0,0,0,0,0,0,0,0,0,1,0,0,0,0,0,0,0,0,0,0,0,0,0,0,0,0,0,0,0,0,0,0,0,0,0,0,0,0],"id":18,"left_children":[1,3,5,7,9,-1,11,13,15,17,-1,19,-1,21,23,25,-1,-1,-1,27,-1,29,31,-1,33,35,-1,-1,-1,-1,37,39,-1,41,-1,43,-1,45,-1,47,-1,-1,-1,-1,-1,49,-1,-1,-1,-1,-1],"loss_changes":[3.8334599E0,2.1584282E0,4.603014E0,2.397223E0,1.3602753E0,0E0,3.591506E0,1.557546E1,3.3759596E0,9.828961E-1,0E0,3.5176783E0,0E0,1.2688351E0,2.5403748E0,9.016325E0,0E0,0E0,0E0,2.728506E0,0E0,4.3506722E0,1.7899156E0,0E0,2.0281525E0,2.8806744E0,0E0,0E0,0E0,0E0,2.1309972E0,6.4583545E0,0E0,1.0967712E0,0E0,2.7898598E0,0E0,2.626834E0,0E0,1.1240463E0,0E0,0E0,0E0,0E0,0E0,1.8604479E0,0E0,0E0,0E0,0E0,0E0],"parents":[2147483647,0,0,1,1,2,2,3,3,4,4,6,6,7,7,8,8,9,9,11,11,13,13,14,14,15,15,19,19,21,21,22,22,24,24,25,25,30,30,31,31,33,33,35,35,37,37,39,39,45,45],"right_children":[2,4,6,8,10,-1,12,14,16,18,-1,20,-1,22,24,26,-1,-1,-1,28,-1,30,32,-1,34,36,-1,-1,-1,-1,38,40,-1,42,-1,44,-1,46,-1,48,-1,-1,-1,-1,-1,50,-1,-1,-1,-1,-1],"split_conditions":[4.2483875E1,6.572E1,1.9841638E-1,4.8245245E-1,1.5929944E1,-0E0,8.378691E1,4.1269726E-1,8.6632013E-1,5.0737864E-1,-0E0,-3.3766232E-2,-0E0,6.9396586E0,2.4926558E-1,2.926E1,-0E0,1.1532389E-1,-0E0,3.5551894E0,-0E0,2.603E1,-5.5555556E-2,-0E0,4.7290325E-1,1.249937E1,-0E0,2.8927776E-1,-0E0,-0E0,1.2999758E1,2.8899065E-1,-0E0,6.6583476E0,-0E0,5.174055E-1,-0E0,5.753E1,-0E0,7.1138062E0,-0E0,-1.89467E-1,-0E0,-0E0,3.3233973E-1,6.6583476E0,-0E0,-0E0,-1.2359538E-1,1.6915582E-1,-0E0],"split_indices":[9,2,3,3,9,0,9,3,4,3,0,1,0,5,4,2,0,0,0,4,0,2,1,0,3,9,0,0,0,0,9,3,0,5,0,3,0,2,0,5,0,0,0,0,0,5,0,0,0,0,0],"split_type":[0,0,0,0,0,0,0,0,0,0,0,0,0,0,0,0,0,0,0,0,0,0,0,0,0,0,0,0,0,0,0,0,0,0,0,0,0,0,0,0,0,0,0,0,0,0,0,0,0,0,0],"sum_hessian":[7.62E2,7E2,6.2E1,6.64E2,3.6E1,2.2E1,4E1,5.31E2,1.33E2,3.3E1,3E0,3.9E1,1E0,4.62E2,6.9E1,4.7E1,8.6E1,3E1,3E0,2.3E1,1.6E1,2.26E2,2.36E2,3E0,6.6E1,3.1E1,1.6E1,2E1,3E0,1.77E2,4.9E1,1.68E2,6.8E1,6E1,6E0,2.7E1,4E0,4.2E1,7E0,5.8E1,1.1E2,5.7E1,3E0,1.2E1,1.5E1,3.9E1,3E0,1E0,5.7E1,3.7E1,2E0],"tree_param":{"num_deleted":"0","num_feature":"10","num_nodes":"51","size_leaf_vector":"0"}},{"base_weights":[2.5724316E-2,-0E0,1.5764575E-1,3.0238628E-1,-0E0,-0E0,1.3016066E-1],"categories":[],"categories_nodes":[],"categories_segments":[],"categories_sizes":[],"default_left":[0,0,0,1,0,0,0],"id":19,"left_children":[1,-1,3,5,-1,-1,-1],"loss_changes":[1.7409828E0,0E0,1.2614138E0,2.0185444E0,0E0,0E0,0E0],"parents":[2147483647,0,0,2,2,3,3],"right_children":[2,-1,4,6,-1,-1,-1],"split_conditions":[4.969E1,-0E0,1.3933421E1,1.3642788E1,-0E0,-0E0,1.3016066E-1],"split_indices":[2,0,5,6,0,0,0],"split_type":[0,0,0,0,0,0,0],"sum_hessian":[7.62E2,6.72E2,9E1,3.8E1,5.2E1,9E0,2.9E1],"tree_param":{"num_deleted":"0","num_feature":"10","num_nodes":"7","size_leaf_vector":"0"}},{"base_weights":[2.0772984E-2,-0E0,7.37104E-2,-5.120061E-2,2.5573753E-2,-0E0,1.7139849E-1,-0E0,-1.0683824E-1,2.4570364E-1,-0E0,-1.7092997E-1,-0E0,1.743973E-2,2.9478484E-1,-0E0,-2.1667215E-1,6.859389E-2,-0E0,-2.5069594E-1,-0E0,-2.7745453E-1,-0E0,-9.184408E-2,-0E0],"categories":[],"categories_nodes":[],"categories_segments":[],"categories_sizes":[],"default_left":[0,0,0,0,0,0,0,0,1,0,0,0,0,0,0,0,1,0,0,0,0,1,0,0,0],"id":20,"left_children":[1,3,5,7,-1,-1,9,-1,11,13,-1,15,-1,17,-1,-1,19,-1,-1,21,-1,23,-1,-1,-1],"loss_changes":[1.6832407E0,1.3237739E0,3.256716E0,2.3366618E0,0E0,0E0,2.1175437E0,0E0,3.1503458E0,4.574079E0,0E0,2.4452085E0,0E0,2.4942753E0,0E0,0E0,2.2878819E0,0E0,0E0,2.4153347E0,0E0,2.467637E0,0E0,0E0,0E0],"parents":[2147483647,0,0,1,1,2,2,3,3,6,6,8,8,9,9,11,11,13,13,16,16,19,19,21,21],"right_children":[2,4,6,8,-1,-1,10,-1,12,14,-1,16,-1,18,-1,-1,20,-1,-1,22,-1,24,-1,-1,-1],"split_conditions":[1.2132734E1,4.969E1,1.3627023E1,1.3624347E1,2.5573753E-2,-0E0,3.64E1,-0E0,1.4563229E1,2.868E1,-0E0,-2.2521009E-1,-0E0,1.364265E1,2.9478484E-1,-0E0,-4.5238096E-2,6.859389E-2,-0E0,5.904363E-1,-0E0,1.5716351E0,-0E0,-9.184408E-2,-0E0],"split_indices":[9,2,6,6,0,0,2,0,6,2,0,1,0,6,0,0,1,0,0,3,0,4,0,0,0],"split_type":[0,0,0,0,0,0,0,0,0,0,0,0,0,0,0,0,0,0,0,0,0,0,0,0,0],"sum_hessian":[7.62E2,3.92E2,3.7E2,3.29E2,6.3E1,1.91E2,1.79E2,4.9E1,2.8E2,1.22E2,5.7E1,2.17E2,6.3E1,1.1E2,1.2E1,3E1,1.87E2,4.8E1,6.2E1,1.76E2,1.1E1,1.75E2,1E0,1.7E2,5E0],"tree_param":{"num_deleted":"0","num_feature":"10","num_nodes":"25","size_leaf_vector":"0"}},{"base_weights":[3.0181207E-2,-0E0,6.0774997E-2,-0E0,1.2184892E-1,2.4254812E-1,-0E0,3.103251E-1,-0E0,1.0962579E-1,-0E0],"categories":[],"categories_nodes":[],"categories_segments":[],"categories_sizes":[],"default_left":[0,0,0,0,1,0,0,0,0,0,0],"id":21,"left_children":[1,-1,3,-1,5,7,-1,9,-1,-1,-1],"loss_changes":[1.1056551E0,0E0,1.1894299E0,0E0,1.8552616E0,2.12291E0,0E0,1.7589426E0,0E0,0E0,0E0],"parents":[2147483647,0,0,2,2,4,4,5,5,7,7],"right_children":[2,-1,4,-1,6,8,-1,10,-1,-1,-1],"split_conditions":[1.579E1,-0E0,1.2132734E1,-0E0,5.1744187E-1,4.347862E1,-0E0,1.03459716E-1,-0E0,1.0962579E-1,-0E0],"split_indices":[2,0,9,0,0,5,0,8,0,0,0],"split_type":[0,0,0,0,0,0,0,0,0,0,0],"sum_hessian":[7.62E2,2.75E2,4.87E2,2.86E2,2.01E2,8.2E1,1.19E2,7.2E1,1E1,6.5E1,7E0],"tree_param":{"num_deleted":"0","num_feature":"10","num_nodes":"11","size_leaf_vector":"0"}},{"base_weights":[2.083425E-2,-0E0,7.4426234E-2,-0E0,1.1954876E-1,1.7929512E-1,-0E0,-0E0,2.416815E-1,8.227253E-2,-0E0],"categories":[],"categories_nodes":[],"categories_segments":[],"categories_sizes":[],"default_left":[1,0,0,0,0,0,0,0,0,0,0],"id":22,"left_children":[1,-1,3,-1,5,7,-1,-1,9,-1,-1],"loss_changes":[1.4657639E0,0E0,1.8099264E0,0E0,1.7089496E0,3.6417737E0,0E0,0E0,1.4479818E0,0E0,0E0],"parents":[2147483647,0,0,2,2,4,4,5,5,8,8],"right_children":[2,-1,4,-1,6,8,-1,-1,10,-1,-1],"split_conditions":[7.125009E-1,-0E0,-3.3887446E-1,-0E0,-1.2063492E-1,2.884934E-1,-0E0,-0E0,1.4563242E1,8.227253E-2,-0E0],"split_indices":[4,0,1,0,1,3,0,0,6,0,0],"split_type":[0,0,0,0,0,0,0,0,0,0,0],"sum_hessian":[7.62E2,4.38E2,3.24E2,7.2E1,2.52E2,1.65E2,8.7E1,1.2E1,1.53E2,1.38E2,1.5E1],"tree_param":{"num_deleted":"0","num_feature":"10","num_nodes":"11","size_leaf_vector":"0"}},{"base_weights":[5.9414054E-3,-0E0,1.4951575E-1,3.448209E-1,-0E0,-0E0,6.8552023E-1,8.142144E-1,-0E0,2.7678752E-1,-0E0],"categories":[],"categories_nodes":[],"categories_segments":[],"categories_sizes":[],"default_left":[0,0,0,0,0,0,0,0,0,0,0],"id":23,"left_children":[1,-1,3,5,-1,-1,7,9,-1,-1,-1],"loss_changes":[1.3669815E0,0E0,2.8095975E0,3.0113392E0,0E0,0E0,2.3002415E0,1.851264E0,0E0,0E0,0E0],"parents":[2147483647,0,0,2,2,3,3,6,6,7,7],"right_children":[2,-1,4,6,-1,-1,8,10,-1,-1,-1],"split_conditions":[4.2483875E1,-0E0,6.513466E1,2.7034885E-1,-0E0,-0E0,1.3978452E2,1.0465117E0,-0E0,2.7678752E-1,-0E0],"split_indices":[9,0,9,0,0,0,5,0,0,0,0],"split_type":[0,0,0,0,0,0,0,0,0,0,0],"sum_hessian":[7.62E2,7E2,6.2E1,3.5E1,2.7E1,2E1,1.5E1,1.4E1,1E0,1.3E1,1E0],"tree_param":{"num_deleted":"0","num_feature":"10","num_nodes":"11","size_leaf_vector":"0"}},{"base_weights":[1.2214892E-3,-0E0,1.0674314E-1,5.329496E-1,-0E0,6.930139E-1,-0E0,7.8124446E-1,-0E0,2.6070437E-1,-0E0],"categories":[],"categories_nodes":[],"categories_segments":[],"categories_sizes":[],"default_left":[1,0,0,0,0,0,0,0,0,0,0],"id":24,"left_children":[1,-1,3,5,-1,7,-1,9,-1,-1,-1],"loss_changes":[1.0739267E0,0E0,7.546181E0,1.6337929E0,0E0,2.1671047E0,0E0,1.4375849E0,0E0,0E0,0E0],"parents":[2147483647,0,0,2,2,3,3,5,5,7,7],"right_children":[2,-1,4,6,-1,8,-1,10,-1,-1,-1],"split_conditions":[1.456323E1,-0E0,1.4594723E1,-8.7820515E-2,-0E0,1.1533501E1,-0E0,5.54226E-1,-0E0,2.6070437E-1,-0E0],"split_indices":[6,0,6,1,0,5,0,8,0,0,0],"split_type":[0,0,0,0,0,0,0,0,0,0,0],"sum_hessian":[7.62E2,6.68E2,9.4E1,3E1,6.4E1,2.1E1,9E0,2E1,1E0,1.8E1,2E0],"tree_param":{"num_deleted":"0","num_feature":"10","num_nodes":"11","size_leaf_vector":"0"}},{"base_weights":[-0E0],"categories":[],"categories_nodes":[],"categories_segments":[],"categories_sizes":[],"default_left":[0],"id":25,"left_children":[-1],"loss_changes":[0E0],"parents":[2147483647],"right_children":[-1],"split_conditions":[-0E0],"split_indices":[0],"split_type":[0],"sum_hessian":[7.62E2],"tree_param":{"num_deleted":"0","num_feature":"10","num_nodes":"1","size_leaf_vector":"0"}},{"base_weights":[-0E0],"categories":[],"categories_nodes":[],"categories_segments":[],"categories_sizes":[],"default_left":[0],"id":26,"left_children":[-1],"loss_changes":[0E0],"parents":[2147483647],"right_children":[-1],"split_conditions":[-0E0],"split_indices":[0],"split_type":[0],"sum_hessian":[7.62E2],"tree_param":{"num_deleted":"0","num_feature":"10","num_nodes":"1","size_leaf_vector":"0"}},{"base_weights":[-0E0],"categories":[],"categories_nodes":[],"categories_segments":[],"categories_sizes":[],"default_left":[0],"id":27,"left_children":[-1],"loss_changes":[0E0],"parents":[2147483647],"right_children":[-1],"split_conditions":[-0E0],"split_indices":[0],"split_type":[0],"sum_hessian":[7.62E2],"tree_param":{"num_deleted":"0","num_feature":"10","num_nodes":"1","size_leaf_vector":"0"}},{"base_weights":[-0E0],"categories":[],"categories_nodes":[],"categories_segments":[],"categories_sizes":[],"default_left":[0],"id":28,"left_children":[-1],"loss_changes":[0E0],"parents":[2147483647],"right_children":[-1],"split_conditions":[-0E0],"split_indices":[0],"split_type":[0],"sum_hessian":[7.62E2],"tree_param":{"num_deleted":"0","num_feature":"10","num_nodes":"1","size_leaf_vector":"0"}},{"base_weights":[-0E0],"categories":[],"categories_nodes":[],"categories_segments":[],"categories_sizes":[],"default_left":[0],"id":29,"left_children":[-1],"loss_changes":[0E0],"parents":[2147483647],"right_children":[-1],"split_conditions":[-0E0],"split_indices":[0],"split_type":[0],"sum_hessian":[7.62E2],"tree_param":{"num_deleted":"0","num_feature":"10","num_nodes":"1","size_leaf_vector":"0"}},{"base_weights":[-0E0],"categories":[],"categories_nodes":[],"categories_segments":[],"categories_sizes":[],"default_left":[0],"id":30,"left_children":[-1],"loss_changes":[0E0],"parents":[2147483647],"right_children":[-1],"split_conditions":[-0E0],"split_indices":[0],"split_type":[0],"sum_hessian":[7.62E2],"tree_param":{"num_deleted":"0","num_feature":"10","num_nodes":"1","size_leaf_vector":"0"}},{"base_weights":[-0E0],"categories":[],"categories_nodes":[],"categories_segments":[],"categories_sizes":[],"default_left":[0],"id":31,"left_children":[-1],"loss_changes":[0E0],"parents":[2147483647],"right_children":[-1],"split_conditions":[-0E0],"split_indices":[0],"split_type":[0],"sum_hessian":[7.62E2],"tree_param":{"num_deleted":"0","num_feature":"10","num_nodes":"1","size_leaf_vector":"0"}},{"base_weights":[-0E0],"categories":[],"categories_nodes":[],"categories_segments":[],"categories_sizes":[],"default_left":[0],"id":32,"left_children":[-1],"loss_changes":[0E0],"parents":[2147483647],"right_children":[-1],"split_conditions":[-0E0],"split_indices":[0],"split_type":[0],"sum_hessian":[7.62E2],"tree_param":{"num_deleted":"0","num_feature":"10","num_nodes":"1","size_leaf_vector":"0"}},{"base_weights":[-0E0],"categories":[],"categories_nodes":[],"categories_segments":[],"categories_sizes":[],"default_left":[0],"id":33,"left_children":[-1],"loss_changes":[0E0],"parents":[2147483647],"right_children":[-1],"split_conditions":[-0E0],"split_indices":[0],"split_type":[0],"sum_hessian":[7.62E2],"tree_param":{"num_deleted":"0","num_feature":"10","num_nodes":"1","size_leaf_vector":"0"}},{"base_weights":[-0E0],"categories":[],"categories_nodes":[],"categories_segments":[],"categories_sizes":[],"default_left":[0],"id":34,"left_children":[-1],"loss_changes":[0E0],"parents":[2147483647],"right_children":[-1],"split_conditions":[-0E0],"split_indices":[0],"split_type":[0],"sum_hessian":[7.62E2],"tree_param":{"num_deleted":"0","num_feature":"10","num_nodes":"1","size_leaf_vector":"0"}},{"base_weights":[-0E0],"categories":[],"categories_nodes":[],"categories_segments":[],"categories_sizes":[],"default_left":[0],"id":35,"left_children":[-1],"loss_changes":[0E0],"parents":[2147483647],"right_children":[-1],"split_conditions":[-0E0],"split_indices":[0],"split_type":[0],"sum_hessian":[7.62E2],"tree_param":{"num_deleted":"0","num_feature":"10","num_nodes":"1","size_leaf_vector":"0"}},{"base_weights":[-0E0],"categories":[],"categories_nodes":[],"categories_segments":[],"categories_sizes":[],"default_left":[0],"id":36,"left_children":[-1],"loss_changes":[0E0],"parents":[2147483647],"right_children":[-1],"split_conditions":[-0E0],"split_indices":[0],"split_type":[0],"sum_hessian":[7.62E2],"tree_param":{"num_deleted":"0","num_feature":"10","num_nodes":"1","size_leaf_vector":"0"}},{"base_weights":[-0E0],"categories":[],"categories_nodes":[],"categories_segments":[],"categories_sizes":[],"default_left":[0],"id":37,"left_children":[-1],"loss_changes":[0E0],"parents":[2147483647],"right_children":[-1],"split_conditions":[-0E0],"split_indices":[0],"split_type":[0],"sum_hessian":[7.62E2],"tree_param":{"num_deleted":"0","num_feature":"10","num_nodes":"1","size_leaf_vector":"0"}},{"base_weights":[-0E0],"categories":[],"categories_nodes":[],"categories_segments":[],"categories_sizes":[],"default_left":[0],"id":38,"left_children":[-1],"loss_changes":[0E0],"parents":[2147483647],"right_children":[-1],"split_conditions":[-0E0],"split_indices":[0],"split_type":[0],"sum_hessian":[7.62E2],"tree_param":{"num_deleted":"0","num_feature":"10","num_nodes":"1","size_leaf_vector":"0"}},{"base_weights":[-0E0],"categories":[],"categories_nodes":[],"categories_segments":[],"categories_sizes":[],"default_left":[0],"id":39,"left_children":[-1],"loss_changes":[0E0],"parents":[2147483647],"right_children":[-1],"split_conditions":[-0E0],"split_indices":[0],"split_type":[0],"sum_hessian":[7.62E2],"tree_param":{"num_deleted":"0","num_feature":"10","num_nodes":"1","size_leaf_vector":"0"}},{"base_weights":[-0E0],"categories":[],"categories_nodes":[],"categories_segments":[],"categories_sizes":[],"default_left":[0],"id":40,"left_children":[-1],"loss_changes":[0E0],"parents":[2147483647],"right_children":[-1],"split_conditions":[-0E0],"split_indices":[0],"split_type":[0],"sum_hessian":[7.62E2],"tree_param":{"num_deleted":"0","num_feature":"10","num_nodes":"1","size_leaf_vector":"0"}},{"base_weights":[-0E0],"categories":[],"categories_nodes":[],"categories_segments":[],"categories_sizes":[],"default_left":[0],"id":41,"left_children":[-1],"loss_changes":[0E0],"parents":[2147483647],"right_children":[-1],"split_conditions":[-0E0],"split_indices":[0],"split_type":[0],"sum_hessian":[7.62E2],"tree_param":{"num_deleted":"0","num_feature":"10","num_nodes":"1","size_leaf_vector":"0"}},{"base_weights":[-0E0],"categories":[],"categories_nodes":[],"categories_segments":[],"categories_sizes":[],"default_left":[0],"id":42,"left_children":[-1],"loss_changes":[0E0],"parents":[2147483647],"right_children":[-1],"split_conditions":[-0E0],"split_indices":[0],"split_type":[0],"sum_hessian":[7.62E2],"tree_param":{"num_deleted":"0","num_feature":"10","num_nodes":"1","size_leaf_vector":"0"}},{"base_weights":[-0E0],"categories":[],"categories_nodes":[],"categories_segments":[],"categories_sizes":[],"default_left":[0],"id":43,"left_children":[-1],"loss_changes":[0E0],"parents":[2147483647],"right_children":[-1],"split_conditions":[-0E0],"split_indices":[0],"split_type":[0],"sum_hessian":[7.62E2],"tree_param":{"num_deleted":"0","num_feature":"10","num_nodes":"1","size_leaf_vector":"0"}},{"base_weights":[-0E0],"categories":[],"categories_nodes":[],"categories_segments":[],"categories_sizes":[],"default_left":[0],"id":44,"left_children":[-1],"loss_changes":[0E0],"parents":[2147483647],"right_children":[-1],"split_conditions":[-0E0],"split_indices":[0],"split_type":[0],"sum_hessian":[7.62E2],"tree_param":{"num_deleted":"0","num_feature":"10","num_nodes":"1","size_leaf_vector":"0"}},{"base_weights":[-0E0],"categories":[],"categories_nodes":[],"categories_segments":[],"categories_sizes":[],"default_left":[0],"id":45,"left_children":[-1],"loss_changes":[0E0],"parents":[2147483647],"right_children":[-1],"split_conditions":[-0E0],"split_indices":[0],"split_type":[0],"sum_hessian":[7.62E2],"tree_param":{"num_deleted":"0","num_feature":"10","num_nodes":"1","size_leaf_vector":"0"}},{"base_weights":[-0E0],"categories":[],"categories_nodes":[],"categories_segments":[],"categories_sizes":[],"default_left":[0],"id":46,"left_children":[-1],"loss_changes":[0E0],"parents":[2147483647],"right_children":[-1],"split_conditions":[-0E0],"split_indices":[0],"split_type":[0],"sum_hessian":[7.62E2],"tree_param":{"num_deleted":"0","num_feature":"10","num_nodes":"1","size_leaf_vector":"0"}},{"base_weights":[-0E0],"categories":[],"categories_nodes":[],"categories_segments":[],"categories_sizes":[],"default_left":[0],"id":47,"left_children":[-1],"loss_changes":[0E0],"parents":[2147483647],"right_children":[-1],"split_conditions":[-0E0],"split_indices":[0],"split_type":[0],"sum_hessian":[7.62E2],"tree_param":{"num_deleted":"0","num_feature":"10","num_nodes":"1","size_leaf_vector":"0"}},{"base_weights":[-0E0],"categories":[],"categories_nodes":[],"categories_segments":[],"categories_sizes":[],"default_left":[0],"id":48,"left_children":[-1],"loss_changes":[0E0],"parents":[2147483647],"right_children":[-1],"split_conditions":[-0E0],"split_indices":[0],"split_type":[0],"sum_hessian":[7.62E2],"tree_param":{"num_deleted":"0","num_feature":"10","num_nodes":"1","size_leaf_vector":"0"}},{"base_weights":[-0E0],"categories":[],"categories_nodes":[],"categories_segments":[],"categories_sizes":[],"default_left":[0],"id":49,"left_children":[-1],"loss_changes":[0E0],"parents":[2147483647],"right_children":[-1],"split_conditions":[-0E0],"split_indices":[0],"split_type":[0],"sum_hessian":[7.62E2],"tree_param":{"num_deleted":"0","num_feature":"10","num_nodes":"1","size_leaf_vector":"0"}},{"base_weights":[-0E0],"categories":[],"categories_nodes":[],"categories_segments":[],"categories_sizes":[],"default_left":[0],"id":50,"left_children":[-1],"loss_changes":[0E0],"parents":[2147483647],"right_children":[-1],"split_conditions":[-0E0],"split_indices":[0],"split_type":[0],"sum_hessian":[7.62E2],"tree_param":{"num_deleted":"0","num_feature":"10","num_nodes":"1","size_leaf_vector":"0"}},{"base_weights":[-0E0],"categories":[],"categories_nodes":[],"categories_segments":[],"categories_sizes":[],"default_left":[0],"id":51,"left_children":[-1],"loss_changes":[0E0],"parents":[2147483647],"right_children":[-1],"split_conditions":[-0E0],"split_indices":[0],"split_type":[0],"sum_hessian":[7.62E2],"tree_param":{"num_deleted":"0","num_feature":"10","num_nodes":"1","size_leaf_vector":"0"}},{"base_weights":[-0E0],"categories":[],"categories_nodes":[],"categories_segments":[],"categories_sizes":[],"default_left":[0],"id":52,"left_children":[-1],"loss_changes":[0E0],"parents":[2147483647],"right_children":[-1],"split_conditions":[-0E0],"split_indices":[0],"split_type":[0],"sum_hessian":[7.62E2],"tree_param":{"num_deleted":"0","num_feature":"10","num_nodes":"1","size_leaf_vector":"0"}},{"base_weights":[-0E0],"categories":[],"categories_nodes":[],"categories_segments":[],"categories_sizes":[],"default_left":[0],"id":53,"left_children":[-1],"loss_changes":[0E0],"parents":[2147483647],"right_children":[-1],"split_conditions":[-0E0],"split_indices":[0],"split_type":[0],"sum_hessian":[7.62E2],"tree_param":{"num_deleted":"0","num_feature":"10","num_nodes":"1","size_leaf_vector":"0"}},{"base_weights":[-0E0],"categories":[],"categories_nodes":[],"categories_segments":[],"categories_sizes":[],"default_left":[0],"id":54,"left_children":[-1],"loss_changes":[0E0],"parents":[2147483647],"right_children":[-1],"split_conditions":[-0E0],"split_indices":[0],"split_type":[0],"sum_hessian":[7.62E2],"tree_param":{"num_deleted":"0","num_feature":"10","num_nodes":"1","size_leaf_vector":"0"}},{"base_weights":[-0E0],"categories":[],"categories_nodes":[],"categories_segments":[],"categories_sizes":[],"default_left":[0],"id":55,"left_children":[-1],"loss_changes":[0E0],"parents":[2147483647],"right_children":[-1],"split_conditions":[-0E0],"split_indices":[0],"split_type":[0],"sum_hessian":[7.62E2],"tree_param":{"num_deleted":"0","num_feature":"10","num_nodes":"1","size_leaf_vector":"0"}},{"base_weights":[-0E0],"categories":[],"categories_nodes":[],"categories_segments":[],"categories_sizes":[],"default_left":[0],"id":56,"left_children":[-1],"loss_changes":[0E0],"parents":[2147483647],"right_children":[-1],"split_conditions":[-0E0],"split_indices":[0],"split_type":[0],"sum_hessian":[7.62E2],"tree_param":{"num_deleted":"0","num_feature":"10","num_nodes":"1","size_leaf_vector":"0"}},{"base_weights":[-0E0],"categories":[],"categories_nodes":[],"categories_segments":[],"categories_sizes":[],"default_left":[0],"id":57,"left_children":[-1],"loss_changes":[0E0],"parents":[2147483647],"right_children":[-1],"split_conditions":[-0E0],"split_indices":[0],"split_type":[0],"sum_hessian":[7.62E2],"tree_param":{"num_deleted":"0","num_feature":"10","num_nodes":"1","size_leaf_vector":"0"}},{"base_weights":[-0E0],"categories":[],"categories_nodes":[],"categories_segments":[],"categories_sizes":[],"default_left":[0],"id":58,"left_children":[-1],"loss_changes":[0E0],"parents":[2147483647],"right_children":[-1],"split_conditions":[-0E0],"split_indices":[0],"split_type":[0],"sum_hessian":[7.62E2],"tree_param":{"num_deleted":"0","num_feature":"10","num_nodes":"1","size_leaf_vector":"0"}},{"base_weights":[-0E0],"categories":[],"categories_nodes":[],"categories_segments":[],"categories_sizes":[],"default_left":[0],"id":59,"left_children":[-1],"loss_changes":[0E0],"parents":[2147483647],"right_children":[-1],"split_conditions":[-0E0],"split_indices":[0],"split_type":[0],"sum_hessian":[7.62E2],"tree_param":{"num_deleted":"0","num_feature":"10","num_nodes":"1","size_leaf_vector":"0"}},{"base_weights":[-0E0],"categories":[],"categories_nodes":[],"categories_segments":[],"categories_sizes":[],"default_left":[0],"id":60,"left_children":[-1],"loss_changes":[0E0],"parents":[2147483647],"right_children":[-1],"split_conditions":[-0E0],"split_indices":[0],"split_type":[0],"sum_hessian":[7.62E2],"tree_param":{"num_deleted":"0","num_feature":"10","num_nodes":"1","size_leaf_vector":"0"}},{"base_weights":[-0E0],"categories":[],"categories_nodes":[],"categories_segments":[],"categories_sizes":[],"default_left":[0],"id":61,"left_children":[-1],"loss_changes":[0E0],"parents":[2147483647],"right_children":[-1],"split_conditions":[-0E0],"split_indices":[0],"split_type":[0],"sum_hessian":[7.62E2],"tree_param":{"num_deleted":"0","num_feature":"10","num_nodes":"1","size_leaf_vector":"0"}},{"base_weights":[-0E0],"categories":[],"categories_nodes":[],"categories_segments":[],"categories_sizes":[],"default_left":[0],"id":62,"left_children":[-1],"loss_changes":[0E0],"parents":[2147483647],"right_children":[-1],"split_conditions":[-0E0],"split_indices":[0],"split_type":[0],"sum_hessian":[7.62E2],"tree_param":{"num_deleted":"0","num_feature":"10","num_nodes":"1","size_leaf_vector":"0"}},{"base_weights":[-0E0],"categories":[],"categories_nodes":[],"categories_segments":[],"categories_sizes":[],"default_left":[0],"id":63,"left_children":[-1],"loss_changes":[0E0],"parents":[2147483647],"right_children":[-1],"split_conditions":[-0E0],"split_indices":[0],"split_type":[0],"sum_hessian":[7.62E2],"tree_param":{"num_deleted":"0","num_feature":"10","num_nodes":"1","size_leaf_vector":"0"}},{"base_weights":[-0E0],"categories":[],"categories_nodes":[],"categories_segments":[],"categories_sizes":[],"default_left":[0],"id":64,"left_children":[-1],"loss_changes":[0E0],"parents":[2147483647],"right_children":[-1],"split_conditions":[-0E0],"split_indices":[0],"split_type":[0],"sum_hessian":[7.62E2],"tree_param":{"num_deleted":"0","num_feature":"10","num_nodes":"1","size_leaf_vector":"0"}},{"base_weights":[-0E0],"categories":[],"categories_nodes":[],"categories_segments":[],"categories_sizes":[],"default_left":[0],"id":65,"left_children":[-1],"loss_changes":[0E0],"parents":[2147483647],"right_children":[-1],"split_conditions":[-0E0],"split_indices":[0],"split_type":[0],"sum_hessian":[7.62E2],"tree_param":{"num_deleted":"0","num_feature":"10","num_nodes":"1","size_leaf_vector":"0"}},{"base_weights":[-0E0],"categories":[],"categories_nodes":[],"categories_segments":[],"categories_sizes":[],"default_left":[0],"id":66,"left_children":[-1],"loss_changes":[0E0],"parents":[2147483647],"right_children":[-1],"split_conditions":[-0E0],"split_indices":[0],"split_type":[0],"sum_hessian":[7.62E2],"tree_param":{"num_deleted":"0","num_feature":"10","num_nodes":"1","size_leaf_vector":"0"}},{"base_weights":[-0E0],"categories":[],"categories_nodes":[],"categories_segments":[],"categories_sizes":[],"default_left":[0],"id":67,"left_children":[-1],"loss_changes":[0E0],"parents":[2147483647],"right_children":[-1],"split_conditions":[-0E0],"split_indices":[0],"split_type":[0],"sum_hessian":[7.62E2],"tree_param":{"num_deleted":"0","num_feature":"10","num_nodes":"1","size_leaf_vector":"0"}},{"base_weights":[-0E0],"categories":[],"categories_nodes":[],"categories_segments":[],"categories_sizes":[],"default_left":[0],"id":68,"left_children":[-1],"loss_changes":[0E0],"parents":[2147483647],"right_children":[-1],"split_conditions":[-0E0],"split_indices":[0],"split_type":[0],"sum_hessian":[7.62E2],"tree_param":{"num_deleted":"0","num_feature":"10","num_nodes":"1","size_leaf_vector":"0"}},{"base_weights":[-0E0],"categories":[],"categories_nodes":[],"categories_segments":[],"categories_sizes":[],"default_left":[0],"id":69,"left_children":[-1],"loss_changes":[0E0],"parents":[2147483647],"right_children":[-1],"split_conditions":[-0E0],"split_indices":[0],"split_type":[0],"sum_hessian":[7.62E2],"tree_param":{"num_deleted":"0","num_feature":"10","num_nodes":"1","size_leaf_vector":"0"}},{"base_weights":[-0E0],"categories":[],"categories_nodes":[],"categories_segments":[],"categories_sizes":[],"default_left":[0],"id":70,"left_children":[-1],"loss_changes":[0E0],"parents":[2147483647],"right_children":[-1],"split_conditions":[-0E0],"split_indices":[0],"split_type":[0],"sum_hessian":[7.62E2],"tree_param":{"num_deleted":"0","num_feature":"10","num_nodes":"1","size_leaf_vector":"0"}},{"base_weights":[-0E0],"categories":[],"categories_nodes":[],"categories_segments":[],"categories_sizes":[],"default_left":[0],"id":71,"left_children":[-1],"loss_changes":[0E0],"parents":[2147483647],"right_children":[-1],"split_conditions":[-0E0],"split_indices":[0],"split_type":[0],"sum_hessian":[7.62E2],"tree_param":{"num_deleted":"0","num_feature":"10","num_nodes":"1","size_leaf_vector":"0"}},{"base_weights":[-0E0],"categories":[],"categories_nodes":[],"categories_segments":[],"categories_sizes":[],"default_left":[0],"id":72,"left_children":[-1],"loss_changes":[0E0],"parents":[2147483647],"right_children":[-1],"split_conditions":[-0E0],"split_indices":[0],"split_type":[0],"sum_hessian":[7.62E2],"tree_param":{"num_deleted":"0","num_feature":"10","num_nodes":"1","size_leaf_vector":"0"}},{"base_weights":[-0E0],"categories":[],"categories_nodes":[],"categories_segments":[],"categories_sizes":[],"default_left":[0],"id":73,"left_children":[-1],"loss_changes":[0E0],"parents":[2147483647],"right_children":[-1],"split_conditions":[-0E0],"split_indices":[0],"split_type":[0],"sum_hessian":[7.62E2],"tree_param":{"num_deleted":"0","num_feature":"10","num_nodes":"1","size_leaf_vector":"0"}},{"base_weights":[-0E0],"categories":[],"categories_nodes":[],"categories_segments":[],"categories_sizes":[],"default_left":[0],"id":74,"left_children":[-1],"loss_changes":[0E0],"parents":[2147483647],"right_children":[-1],"split_conditions":[-0E0],"split_indices":[0],"split_type":[0],"sum_hessian":[7.62E2],"tree_param":{"num_deleted":"0","num_feature":"10","num_nodes":"1","size_leaf_vector":"0"}},{"base_weights":[-0E0],"categories":[],"categories_nodes":[],"categories_segments":[],"categories_sizes":[],"default_left":[0],"id":75,"left_children":[-1],"loss_changes":[0E0],"parents":[2147483647],"right_children":[-1],"split_conditions":[-0E0],"split_indices":[0],"split_type":[0],"sum_hessian":[7.62E2],"tree_param":{"num_deleted":"0","num_feature":"10","num_nodes":"1","size_leaf_vector":"0"}},{"base_weights":[-0E0],"categories":[],"categories_nodes":[],"categories_segments":[],"categories_sizes":[],"default_left":[0],"id":76,"left_children":[-1],"loss_changes":[0E0],"parents":[2147483647],"right_children":[-1],"split_conditions":[-0E0],"split_indices":[0],"split_type":[0],"sum_hessian":[7.62E2],"tree_param":{"num_deleted":"0","num_feature":"10","num_nodes":"1","size_leaf_vector":"0"}},{"base_weights":[-0E0],"categories":[],"categories_nodes":[],"categories_segments":[],"categories_sizes":[],"default_left":[0],"id":77,"left_children":[-1],"loss_changes":[0E0],"parents":[2147483647],"right_children":[-1],"split_conditions":[-0E0],"split_indices":[0],"split_type":[0],"sum_hessian":[7.62E2],"tree_param":{"num_deleted":"0","num_feature":"10","num_nodes":"1","size_leaf_vector":"0"}},{"base_weights":[-0E0],"categories":[],"categories_nodes":[],"categories_segments":[],"categories_sizes":[],"default_left":[0],"id":78,"left_children":[-1],"loss_changes":[0E0],"parents":[2147483647],"right_children":[-1],"split_conditions":[-0E0],"split_indices":[0],"split_type":[0],"sum_hessian":[7.62E2],"tree_param":{"num_deleted":"0","num_feature":"10","num_nodes":"1","size_leaf_vector":"0"}},{"base_weights":[-0E0],"categories":[],"categories_nodes":[],"categories_segments":[],"categories_sizes":[],"default_left":[0],"id":79,"left_children":[-1],"loss_changes":[0E0],"parents":[2147483647],"right_children":[-1],"split_conditions":[-0E0],"split_indices":[0],"split_type":[0],"sum_hessian":[7.62E2],"tree_param":{"num_deleted":"0","num_feature":"10","num_nodes":"1","size_leaf_vector":"0"}},{"base_weights":[-0E0],"categories":[],"categories_nodes":[],"categories_segments":[],"categories_sizes":[],"default_left":[0],"id":80,"left_children":[-1],"loss_changes":[0E0],"parents":[2147483647],"right_children":[-1],"split_conditions":[-0E0],"split_indices":[0],"split_type":[0],"sum_hessian":[7.62E2],"tree_param":{"num_deleted":"0","num_feature":"10","num_nodes":"1","size_leaf_vector":"0"}},{"base_weights":[-0E0],"categories":[],"categories_nodes":[],"categories_segments":[],"categories_sizes":[],"default_left":[0],"id":81,"left_children":[-1],"loss_changes":[0E0],"parents":[2147483647],"right_children":[-1],"split_conditions":[-0E0],"split_indices":[0],"split_type":[0],"sum_hessian":[7.62E2],"tree_param":{"num_deleted":"0","num_feature":"10","num_nodes":"1","size_leaf_vector":"0"}},{"base_weights":[-0E0],"categories":[],"categories_nodes":[],"categories_segments":[],"categories_sizes":[],"default_left":[0],"id":82,"left_children":[-1],"loss_changes":[0E0],"parents":[2147483647],"right_children":[-1],"split_conditions":[-0E0],"split_indices":[0],"split_type":[0],"sum_hessian":[7.62E2],"tree_param":{"num_deleted":"0","num_feature":"10","num_nodes":"1","size_leaf_vector":"0"}},{"base_weights":[-0E0],"categories":[],"categories_nodes":[],"categories_segments":[],"categories_sizes":[],"default_left":[0],"id":83,"left_children":[-1],"loss_changes":[0E0],"parents":[2147483647],"right_children":[-1],"split_conditions":[-0E0],"split_indices":[0],"split_type":[0],"sum_hessian":[7.62E2],"tree_param":{"num_deleted":"0","num_feature":"10","num_nodes":"1","size_leaf_vector":"0"}},{"base_weights":[-0E0],"categories":[],"categories_nodes":[],"categories_segments":[],"categories_sizes":[],"default_left":[0],"id":84,"left_children":[-1],"loss_changes":[0E0],"parents":[2147483647],"right_children":[-1],"split_conditions":[-0E0],"split_indices":[0],"split_type":[0],"sum_hessian":[7.62E2],"tree_param":{"num_deleted":"0","num_feature":"10","num_nodes":"1","size_leaf_vector":"0"}},{"base_weights":[-0E0],"categories":[],"categories_nodes":[],"categories_segments":[],"categories_sizes":[],"default_left":[0],"id":85,"left_children":[-1],"loss_changes":[0E0],"parents":[2147483647],"right_children":[-1],"split_conditions":[-0E0],"split_indices":[0],"split_type":[0],"sum_hessian":[7.62E2],"tree_param":{"num_deleted":"0","num_feature":"10","num_nodes":"1","size_leaf_vector":"0"}},{"base_weights":[-0E0],"categories":[],"categories_nodes":[],"categories_segments":[],"categories_sizes":[],"default_left":[0],"id":86,"left_children":[-1],"loss_changes":[0E0],"parents":[2147483647],"right_children":[-1],"split_conditions":[-0E0],"split_indices":[0],"split_type":[0],"sum_hessian":[7.62E2],"tree_param":{"num_deleted":"0","num_feature":"10","num_nodes":"1","size_leaf_vector":"0"}},{"base_weights":[-0E0],"categories":[],"categories_nodes":[],"categories_segments":[],"categories_sizes":[],"default_left":[0],"id":87,"left_children":[-1],"loss_changes":[0E0],"parents":[2147483647],"right_children":[-1],"split_conditions":[-0E0],"split_indices":[0],"split_type":[0],"sum_hessian":[7.62E2],"tree_param":{"num_deleted":"0","num_feature":"10","num_nodes":"1","size_leaf_vector":"0"}},{"base_weights":[-0E0],"categories":[],"categories_nodes":[],"categories_segments":[],"categories_sizes":[],"default_left":[0],"id":88,"left_children":[-1],"loss_changes":[0E0],"parents":[2147483647],"right_children":[-1],"split_conditions":[-0E0],"split_indices":[0],"split_type":[0],"sum_hessian":[7.62E2],"tree_param":{"num_deleted":"0","num_feature":"10","num_nodes":"1","size_leaf_vector":"0"}},{"base_weights":[-0E0],"categories":[],"categories_nodes":[],"categories_segments":[],"categories_sizes":[],"default_left":[0],"id":89,"left_children":[-1],"loss_changes":[0E0],"parents":[2147483647],"right_children":[-1],"split_conditions":[-0E0],"split_indices":[0],"split_type":[0],"sum_hessian":[7.62E2],"tree_param":{"num_deleted":"0","num_feature":"10","num_nodes":"1","size_leaf_vector":"0"}},{"base_weights":[-0E0],"categories":[],"categories_nodes":[],"categories_segments":[],"categories_sizes":[],"default_left":[0],"id":90,"left_children":[-1],"loss_changes":[0E0],"parents":[2147483647],"right_children":[-1],"split_conditions":[-0E0],"split_indices":[0],"split_type":[0],"sum_hessian":[7.62E2],"tree_param":{"num_deleted":"0","num_feature":"10","num_nodes":"1","size_leaf_vector":"0"}},{"base_weights":[-0E0],"categories":[],"categories_nodes":[],"categories_segments":[],"categories_sizes":[],"default_left":[0],"id":91,"left_children":[-1],"loss_changes":[0E0],"parents":[2147483647],"right_children":[-1],"split_conditions":[-0E0],"split_indices":[0],"split_type":[0],"sum_hessian":[7.62E2],"tree_param":{"num_deleted":"0","num_feature":"10","num_nodes":"1","size_leaf_vector":"0"}},{"base_weights":[-0E0],"categories":[],"categories_nodes":[],"categories_segments":[],"categories_sizes":[],"default_left":[0],"id":92,"left_children":[-1],"loss_changes":[0E0],"parents":[2147483647],"right_children":[-1],"split_conditions":[-0E0],"split_indices":[0],"split_type":[0],"sum_hessian":[7.62E2],"tree_param":{"num_deleted":"0","num_feature":"10","num_nodes":"1","size_leaf_vector":"0"}},{"base_weights":[-0E0],"categories":[],"categories_nodes":[],"categories_segments":[],"categories_sizes":[],"default_left":[0],"id":93,"left_children":[-1],"loss_changes":[0E0],"parents":[2147483647],"right_children":[-1],"split_conditions":[-0E0],"split_indices":[0],"split_type":[0],"sum_hessian":[7.62E2],"tree_param":{"num_deleted":"0","num_feature":"10","num_nodes":"1","size_leaf_vector":"0"}},{"base_weights":[-0E0],"categories":[],"categories_nodes":[],"categories_segments":[],"categories_sizes":[],"default_left":[0],"id":94,"left_children":[-1],"loss_changes":[0E0],"parents":[2147483647],"right_children":[-1],"split_conditions":[-0E0],"split_indices":[0],"split_type":[0],"sum_hessian":[7.62E2],"tree_param":{"num_deleted":"0","num_feature":"10","num_nodes":"1","size_leaf_vector":"0"}},{"base_weights":[-0E0],"categories":[],"categories_nodes":[],"categories_segments":[],"categories_sizes":[],"default_left":[0],"id":95,"left_children":[-1],"loss_changes":[0E0],"parents":[2147483647],"right_children":[-1],"split_conditions":[-0E0],"split_indices":[0],"split_type":[0],"sum_hessian":[7.62E2],"tree_param":{"num_deleted":"0","num_feature":"10","num_nodes":"1","size_leaf_vector":"0"}},{"base_weights":[-0E0],"categories":[],"categories_nodes":[],"categories_segments":[],"categories_sizes":[],"default_left":[0],"id":96,"left_children":[-1],"loss_changes":[0E0],"parents":[2147483647],"right_children":[-1],"split_conditions":[-0E0],"split_indices":[0],"split_type":[0],"sum_hessian":[7.62E2],"tree_param":{"num_deleted":"0","num_feature":"10","num_nodes":"1","size_leaf_vector":"0"}},{"base_weights":[-0E0],"categories":[],"categories_nodes":[],"categories_segments":[],"categories_sizes":[],"default_left":[0],"id":97,"left_children":[-1],"loss_changes":[0E0],"parents":[2147483647],"right_children":[-1],"split_conditions":[-0E0],"split_indices":[0],"split_type":[0],"sum_hessian":[7.62E2],"tree_param":{"num_deleted":"0","num_feature":"10","num_nodes":"1","size_leaf_vector":"0"}},{"base_weights":[-0E0],"categories":[],"categories_nodes":[],"categories_segments":[],"categories_sizes":[],"default_left":[0],"id":98,"left_children":[-1],"loss_changes":[0E0],"parents":[2147483647],"right_children":[-1],"split_conditions":[-0E0],"split_indices":[0],"split_type":[0],"sum_hessian":[7.62E2],"tree_param":{"num_deleted":"0","num_feature":"10","num_nodes":"1","size_leaf_vector":"0"}},{"base_weights":[-0E0],"categories":[],"categories_nodes":[],"categories_segments":[],"categories_sizes":[],"default_left":[0],"id":99,"left_children":[-1],"loss_changes":[0E0],"parents":[2147483647],"right_children":[-1],"split_conditions":[-0E0],"split_indices":[0],"split_type":[0],"sum_hessian":[7.62E2],"tree_param":{"num_deleted":"0","num_feature":"10","num_nodes":"1","size_leaf_vector":"0"}}]},"name":"gbtree"},"learner_model_param":{"base_score":"5E-1","num_class":"0","num_feature":"10","num_target":"1"},"objective":{"name":"reg:squarederror","reg_loss_param":{"scale_pos_weight":"1"}}},"version":[1,6,1]}