{"learner":{"attributes":{"best_iteration":"45","best_ntree_limit":"46","best_score":"0.869919585747559","scikit_learn":"{\"n_estimators\": 100, \"objective\": \"reg:squarederror\", \"max_depth\": 12, \"max_leaves\": null, \"max_bin\": null, \"grow_policy\": null, \"learning_rate\": null, \"verbosity\": null, \"booster\": null, \"tree_method\": \"gpu_hist\", \"gamma\": 2.1388390360664453, \"min_child_weight\": 1.0, \"max_delta_step\": null, \"subsample\": null, \"sampling_method\": null, \"colsample_bytree\": 0.9162163038587121, \"colsample_bylevel\": null, \"colsample_bynode\": null, \"reg_alpha\": 0.0, \"reg_lambda\": 0.2525050551547466, \"scale_pos_weight\": null, \"base_score\": null, \"missing\": NaN, \"num_parallel_tree\": null, \"random_state\": null, \"n_jobs\": null, \"monotone_constraints\": null, \"interaction_constraints\": null, \"importance_type\": null, \"gpu_id\": null, \"validate_parameters\": null, \"predictor\": null, \"enable_categorical\": false, \"max_cat_to_onehot\": null, \"eval_metric\": \"rmse\", \"early_stopping_rounds\": 100, \"callbacks\": null, \"evals_result_\": {\"validation_0\": {\"rmse\": [11.635629200811811, 8.17613538726821, 5.75716445091267, 4.070190674689416, 2.8940719546835076, 2.0777018144950654, 1.520211607018479, 1.1432589297389455, 0.9051383149667687, 0.7522750086747512, 0.6651612391707301, 0.6216898901032879, 0.5992325782345544, 0.5879121638159955, 0.5822830515274948, 0.5795040821128619, 0.5781370438653621, 0.5774657914725241, 0.5771366189329324, 0.5769751630912463, 0.5768960841076113, 0.5768573496016979, 0.576838395462868, 0.5768290733594754, 0.5768244415849915, 0.57682220310346, 0.5768211036405282, 0.5768206258192219, 0.5768204213471114, 0.576820291992286, 0.5768201688878184, 0.5768200787640079, 0.5768200631067909, 0.5768201158284015, 0.5768201711476078, 0.576820168889958, 0.5768201682783571, 0.5768201678293301, 0.5768201084203277, 0.5768201658861838, 0.5768201662677546, 0.5768201678367958, 0.57682016785157, 0.5768201086907115, 0.5768201677824087, 0.5768202272701302, 0.5768202272701302, 0.5768202272701302, 0.5768202272701302, 0.5768202272701302, 0.5768202272701302, 0.5768202272701302, 0.5768202272701302, 0.5768202272701302, 0.5768202272701302, 0.5768202272701302, 0.5768202272701302, 0.5768202272701302, 0.5768202272701302, 0.5768202272701302, 0.5768202272701302, 0.5768202272701302, 0.5768202272701302, 0.5768202272701302, 0.5768202272701302, 0.5768202272701302, 0.5768202272701302, 0.5768202272701302, 0.5768202272701302, 0.5768202272701302, 0.5768202272701302, 0.5768202272701302, 0.5768202272701302, 0.5768202272701302, 0.5768202272701302, 0.5768202272701302, 0.5768202272701302, 0.5768202272701302, 0.5768202272701302, 0.5768202272701302, 0.5768202272701302, 0.5768202272701302, 0.5768202272701302, 0.5768202272701302, 0.5768202272701302, 0.5768202272701302, 0.5768202272701302, 0.5768202272701302, 0.5768202272701302, 0.5768202272701302, 0.5768202272701302, 0.5768202272701302, 0.5768202272701302, 0.5768202272701302, 0.5768202272701302, 0.5768202272701302, 0.5768202272701302, 0.5768202272701302, 0.5768202272701302, 0.5768202272701302]}, \"validation_1\": {\"rmse\": [11.736285138844112, 8.265100473903892, 5.821845988635764, 4.1300935050733, 2.9650967589230217, 2.185274628008822, 1.6577242868497162, 1.3237638222943657, 1.1195820917949597, 1.0033258726006653, 0.9423956875575152, 0.9086701720301146, 0.8909102751480018, 0.8815341320493386, 0.8765211091724349, 0.8737861666734963, 0.8722550547112565, 0.8713722165468388, 0.8708470181190199, 0.8705250017032434, 0.8703219118071093, 0.8701906867866179, 0.8701041967008366, 0.8700463382007587, 0.8700071878688322, 0.8699803596665568, 0.8699618811887513, 0.8699490401164902, 0.8699401092342808, 0.8699339422225392, 0.8699296985369632, 0.8699267700837294, 0.8699246773817885, 0.869923145254542, 0.8699220469118643, 0.8699213246180283, 0.8699208299022709, 0.8699204668982606, 0.8699202793443901, 0.869920039296898, 0.8699198965091971, 0.869919823849405, 0.8699197522673731, 0.86991977655146, 0.8699196835071802, 0.869919585747559, 0.869919585747559, 0.869919585747559, 0.869919585747559, 0.869919585747559, 0.869919585747559, 0.869919585747559, 0.869919585747559, 0.869919585747559, 0.869919585747559, 0.869919585747559, 0.869919585747559, 0.869919585747559, 0.869919585747559, 0.869919585747559, 0.869919585747559, 0.869919585747559, 0.869919585747559, 0.869919585747559, 0.869919585747559, 0.869919585747559, 0.869919585747559, 0.869919585747559, 0.869919585747559, 0.869919585747559, 0.869919585747559, 0.869919585747559, 0.869919585747559, 0.869919585747559, 0.869919585747559, 0.869919585747559, 0.869919585747559, 0.869919585747559, 0.869919585747559, 0.869919585747559, 0.869919585747559, 0.869919585747559, 0.869919585747559, 0.869919585747559, 0.869919585747559, 0.869919585747559, 0.869919585747559, 0.869919585747559, 0.869919585747559, 0.869919585747559, 0.869919585747559, 0.869919585747559, 0.869919585747559, 0.869919585747559, 0.869919585747559, 0.869919585747559, 0.869919585747559, 0.869919585747559, 0.869919585747559, 0.869919585747559]}}, \"_estimator_type\": \"regressor\"}"},"feature_names":["fMF","GATS1v","AATS2p","AATS1d","ETA_psi_1","SMR_VSA5","nHetero","ABCGG","SM1_DzZ","VSA_EState8"],"feature_types":["float","float","float","float","float","float","int","float","float","float"],"gradient_booster":{"model":{"gbtree_model_param":{"num_parallel_tree":"1","num_trees":"100","size_leaf_vector":"0"},"tree_info":[0,0,0,0,0,0,0,0,0,0,0,0,0,0,0,0,0,0,0,0,0,0,0,0,0,0,0,0,0,0,0,0,0,0,0,0,0,0,0,0,0,0,0,0,0,0,0,0,0,0,0,0,0,0,0,0,0,0,0,0,0,0,0,0,0,0,0,0,0,0,0,0,0,0,0,0,0,0,0,0,0,0,0,0,0,0,0,0,0,0,0,0,0,0,0,0,0,0,0,0],"trees":[{"base_weights":[1.6470657E1,1.5553375E1,1.790027E1,1.5626873E1,3.5698595E0,4.963888E0,1.8589722E1,4.55495E0,4.948877E0,4.0564327E0,5.603501E0],"categories":[],"categories_nodes":[],"categories_segments":[],"categories_sizes":[],"default_left":[0,0,0,0,0,0,0,0,0,0,0],"id":0,"left_children":[1,3,5,7,-1,-1,9,-1,-1,-1,-1],"loss_changes":[9.2928125E2,7.825781E1,1.9888281E2,1.1275781E2,0E0,0E0,2.346875E1,0E0,0E0,0E0,0E0],"parents":[2147483647,0,0,1,1,2,2,3,3,6,6],"right_children":[2,4,6,8,-1,-1,10,-1,-1,-1,-1],"split_conditions":[1.3825032E0,4.8333335E0,3.047619E0,2.6666667E0,3.5698595E0,4.963888E0,3.6649215E-1,4.55495E0,4.948877E0,4.0564327E0,5.603501E0],"split_indices":[2,3,3,3,0,0,4,0,0,0,0],"split_type":[0,0,0,0,0,0,0,0,0,0,0],"sum_hessian":[7.62E2,4.66E2,2.96E2,4.56E2,1E1,1.02E2,1.94E2,3.05E2,1.51E2,4E0,1.9E2],"tree_param":{"num_deleted":"0","num_feature":"10","num_nodes":"11","size_leaf_vector":"0"}},{"base_weights":[1.1538635E1,1.0830676E1,1.2934117E1,1.0585455E1,1.1441091E1,1.2341524E1,4.0751405E0,3.184304E0,1.9637562E0,3.4553921E0,2.178377E0,3.720385E0,2.2189004E0],"categories":[],"categories_nodes":[],"categories_segments":[],"categories_sizes":[],"default_left":[0,0,0,1,0,0,0,0,0,0,0,0,0],"id":1,"left_children":[1,3,5,7,9,11,-1,-1,-1,-1,-1,-1,-1],"loss_changes":[7.176953E2,4.5347656E1,5.5941406E1,2.5085938E1,2.459375E1,1.7103516E1,0E0,0E0,0E0,0E0,0E0,0E0,0E0],"parents":[2147483647,0,0,1,1,2,2,3,3,4,4,5,5],"right_children":[2,4,6,8,10,12,-1,-1,-1,-1,-1,-1,-1],"split_conditions":[2.5E-1,1.3263241E0,1.5530833E0,3.235294E0,9.79602E0,4.28E0,4.0751405E0,3.184304E0,1.9637562E0,3.4553921E0,2.178377E0,3.720385E0,2.2189004E0],"split_indices":[0,2,2,8,9,3,0,0,0,0,0,0,0],"split_type":[0,0,0,0,0,0,0,0,0,0,0,0,0],"sum_hessian":[7.62E2,5.07E2,2.55E2,3.65E2,1.42E2,1.36E2,1.19E2,3.62E2,3E0,1.39E2,3E0,1.34E2,2E0],"tree_param":{"num_deleted":"0","num_feature":"10","num_nodes":"13","size_leaf_vector":"0"}},{"base_weights":[8.083934E0,7.565944E0,9.030715E0,1.9241034E0,7.650233E0,2.9021285E0,8.6340065E0,8.377465E0,7.4572835E0,1.6278516E0,2.5993066E0,2.0833833E0,2.5695567E0,9.726299E-1,7.466608E0,2.1404657E0,7.626229E0,2.2939086E0,1.3871847E0],"categories":[],"categories_nodes":[],"categories_segments":[],"categories_sizes":[],"default_left":[0,0,0,0,0,0,0,0,0,0,0,0,0,0,0,0,1,0,0],"id":2,"left_children":[1,3,5,-1,7,-1,9,11,13,-1,-1,-1,-1,-1,15,-1,17,-1,-1],"loss_changes":[3.5657812E2,3.561328E1,4.7341797E1,0E0,4.8666016E1,0E0,4.5078125E0,1.033252E1,8.246094E0,0E0,0E0,0E0,0E0,0E0,5.546875E0,0E0,5.7148438E0,0E0,0E0],"parents":[2147483647,0,0,1,1,2,2,4,4,6,6,7,7,8,8,14,14,16,16],"right_children":[2,4,6,-1,8,-1,10,12,14,-1,-1,-1,-1,-1,16,-1,18,-1,-1],"split_conditions":[2.0689656E-1,3.7276265E-1,9.0933365E-1,1.9241034E0,1.875E-1,2.9021285E0,2.5454545E-1,2E0,7.340487E-1,1.6278516E0,2.5993066E0,2.0833833E0,2.5695567E0,9.726299E-1,3.9285713E-1,2.1404657E0,2.627451E0,2.2939086E0,1.3871847E0],"split_indices":[0,4,1,0,9,0,4,6,2,0,0,0,0,0,8,0,8,0,0],"split_type":[0,0,0,0,0,0,0,0,0,0,0,0,0,0,0,0,0,0,0],"sum_hessian":[7.62E2,4.94E2,2.68E2,3.5E1,4.59E2,1E2,1.68E2,9.4E1,3.65E2,2E0,1.66E2,1.2E1,8.2E1,1E0,3.64E2,1.22E2,2.42E2,2.4E2,2E0],"tree_param":{"num_deleted":"0","num_feature":"10","num_nodes":"19","size_leaf_vector":"0"}},{"base_weights":[5.6655445E0,5.339303E0,6.422884E0,5.0625157E0,5.565845E0,5.9678016E0,1.9988942E0,5.120244E0,1.1605899E0,5.517229E0,2.183249E0,1.6393119E0,1.8902513E0,5.1453648E0,8.879474E-1,1.4048545E0,5.579297E0,1.3620949E0,1.5703925E0,5.736662E0,1.5500733E0,1.6224679E0,1.7745737E0],"categories":[],"categories_nodes":[],"categories_segments":[],"categories_sizes":[],"default_left":[0,0,0,0,1,0,0,0,0,0,0,0,0,0,0,0,0,0,0,0,0,0,0],"id":3,"left_children":[1,3,5,7,9,11,-1,13,-1,15,-1,-1,-1,17,-1,-1,19,-1,-1,21,-1,-1,-1],"loss_changes":[1.7967383E2,2.6385742E1,1.4899414E1,1.1763672E1,1.409668E1,4.929199E0,0E0,8.70459E0,0E0,8.124023E0,0E0,0E0,0E0,6.3286133E0,0E0,0E0,9.599609E0,0E0,0E0,2.9638672E0,0E0,0E0,0E0],"parents":[2147483647,0,0,1,1,2,2,3,3,4,4,5,5,7,7,9,9,13,13,16,16,19,19],"right_children":[2,4,6,8,10,12,-1,14,-1,16,-1,-1,-1,18,-1,-1,20,-1,-1,22,-1,-1,-1],"split_conditions":[2.777778E-1,1.1631578E0,2E0,6.418919E-1,4.111747E0,1.4741976E0,1.9988942E0,1.0466998E1,1.1605899E0,4.0782124E-1,2.183249E0,1.6393119E0,1.8902513E0,8.784355E-1,8.879474E-1,1.4048545E0,4.829352E0,1.3620949E0,1.5703925E0,2E0,1.5500733E0,1.6224679E0,1.7745737E0],"split_indices":[0,2,6,4,2,2,0,7,0,4,0,0,0,2,0,0,9,0,0,6,0,0,0],"split_type":[0,0,0,0,0,0,0,0,0,0,0,0,0,0,0,0,0,0,0,0,0,0,0],"sum_hessian":[7.62E2,5.34E2,2.28E2,2.43E2,2.91E2,8.1E1,1.47E2,2.31E2,1.2E1,2.84E2,7E0,3.4E1,4.7E1,2.28E2,3E0,2.1E1,2.63E2,3.1E1,1.97E2,1.88E2,7.5E1,6.9E1,1.19E2],"tree_param":{"num_deleted":"0","num_feature":"10","num_nodes":"23","size_leaf_vector":"0"}},{"base_weights":[3.9721897E0,3.7174492E0,4.462815E0,3.9432206E0,3.5761595E0,1.4234288E0,4.1419864E0,7.438766E-1,4.012062E0,3.6330767E0,9.1051435E-1,4.2773504E0,1.0721687E0,3.9634347E0,1.9141685E0,1.1273955E0,3.4215858E0,5.250565E-1,1.2896374E0,4.134167E-1,3.9759865E0,1.0564766E0,8.545102E-1,4.047338E0,3.4007986E0,1.158706E0,4.390293E0,3.6571607E-1,1.0479981E0,1.778818E0,1.2704693E0],"categories":[],"categories_nodes":[],"categories_segments":[],"categories_sizes":[],"default_left":[0,1,0,0,0,0,0,0,1,0,0,0,0,0,0,0,0,0,0,0,0,0,0,0,0,0,0,0,0,0,0],"id":4,"left_children":[1,3,5,7,9,-1,11,-1,13,15,-1,17,-1,19,-1,-1,21,-1,-1,-1,23,-1,-1,25,27,-1,29,-1,-1,-1,-1],"loss_changes":[9.1078125E1,1.2492676E1,1.848877E1,1.67583E1,6.8327637E0,0E0,5.618164E0,0E0,1.4605225E1,4.1831055E0,0E0,3.4240723E0,0E0,4.4335938E0,0E0,0E0,3.6152344E0,0E0,0E0,0E0,3.840088E0,0E0,0E0,5.694824E0,3.2149963E0,0E0,6.395874E0,0E0,0E0,0E0,0E0],"parents":[2147483647,0,0,1,1,2,2,3,3,4,4,6,6,8,8,9,9,11,11,13,13,16,16,20,20,23,23,24,24,26,26],"right_children":[2,4,6,8,10,-1,12,-1,14,16,-1,18,-1,20,-1,-1,22,-1,-1,-1,24,-1,-1,26,28,-1,30,-1,-1,-1,-1],"split_conditions":[2.3809524E-1,1.2486242E0,9.970096E-1,3.2110092E-1,1.6670475E0,1.4234288E0,3.2793083E1,7.438766E-1,1.4179105E0,4.829352E0,9.1051435E-1,7.6081914E-1,1.0721687E0,7.340487E-1,1.9141685E0,1.1273955E0,6.8853974E-1,5.250565E-1,1.2896374E0,4.134167E-1,3.875E0,1.0564766E0,8.545102E-1,3E0,1.0072706E0,1.158706E0,1.875E0,3.6571607E-1,1.0479981E0,1.778818E0,1.2704693E0],"split_indices":[0,1,1,4,1,0,5,0,4,9,0,2,0,2,0,0,4,0,0,0,3,0,0,6,2,0,3,0,0,0,0],"split_type":[0,0,0,0,0,0,0,0,0,0,0,0,0,0,0,0,0,0,0,0,0,0,0,0,0,0,0,0,0,0,0],"sum_hessian":[7.62E2,5.03E2,2.59E2,1.91E2,3.12E2,1.36E2,1.23E2,9E0,1.82E2,2.81E2,3.1E1,9.8E1,2.5E1,1.79E2,3E0,1.74E2,1.07E2,1E0,9.7E1,1E0,1.78E2,9E1,1.7E1,1.57E2,2.1E1,1.04E2,5.3E1,1E0,2E1,4E0,4.9E1],"tree_param":{"num_deleted":"0","num_feature":"10","num_nodes":"31","size_leaf_vector":"0"}},{"base_weights":[2.7861483E0,2.6649952E0,3.3140197E0,2.4366364E0,2.7735531E0,3.1472766E0,3.6615562E0,6.407126E-1,2.553893E0,2.7520862E0,1.1691667E0,2.8334384E0,9.936696E-1,1.1236874E0,6.933105E-1,2.6109865E0,4.9488288E-1,2.5074437E0,2.8099966E0,4.4918177E-1,2.9024334E0,3.474257E0,2.557029E0,2.9131258E0,7.0889175E-1,6.364774E-1,2.8386865E0,9.0538365E-1,5.806498E-1,6.389204E-1,1.4887317E0,-8.700696E-2,7.739934E-1,5.421266E-1,9.2370117E-1,8.7942857E-1,2.6180563E0,7.930693E-1,3.771709E-1],"categories":[],"categories_nodes":[],"categories_segments":[],"categories_sizes":[],"default_left":[0,0,0,0,1,0,0,0,0,0,0,0,0,0,0,0,0,0,0,0,0,0,0,0,0,0,0,0,0,0,0,0,0,0,0,0,0,0,0],"id":5,"left_children":[1,3,5,7,9,11,13,-1,15,17,-1,19,-1,-1,-1,21,-1,23,25,-1,27,29,31,33,-1,-1,35,-1,-1,-1,-1,-1,-1,-1,-1,-1,37,-1,-1],"loss_changes":[4.6518555E1,1.3694336E1,5.275635E0,5.7593994E0,7.4050293E0,2.664978E0,2.838501E0,0E0,6.3599854E0,4.0612793E0,0E0,2.152588E0,0E0,0E0,0E0,4.0568237E0,0E0,3.0239868E0,5.0214844E0,0E0,2.2390747E0,1.184285E1,8.568481E0,2.31073E0,0E0,0E0,4.553711E0,0E0,0E0,0E0,0E0,0E0,0E0,0E0,0E0,0E0,2.501892E0,0E0,0E0],"parents":[2147483647,0,0,1,1,2,2,3,3,4,4,5,5,6,6,8,8,9,9,11,11,15,15,17,17,18,18,20,20,21,21,22,22,23,23,26,26,36,36],"right_children":[2,4,6,8,10,12,14,-1,16,18,-1,20,-1,-1,-1,22,-1,24,26,-1,28,30,32,34,-1,-1,36,-1,-1,-1,-1,-1,-1,-1,-1,-1,38,-1,-1],"split_conditions":[3.6363637E-1,1.1158372E0,1.913148E0,2E0,4.111747E0,2E0,1.988426E0,6.407126E-1,3.7272727E0,2.2142856E0,1.1691667E0,5.465493E-1,9.936696E-1,1.1236874E0,6.933105E-1,9.166667E-1,4.9488288E-1,1.7017866E0,3.7276265E-1,4.4918177E-1,5.555556E-1,6.973181E-1,9.233747E-1,5.1119405E-1,7.0889175E-1,6.364774E-1,3.2793083E1,9.0538365E-1,5.806498E-1,6.389204E-1,1.4887317E0,-8.700696E-2,7.739934E-1,5.421266E-1,9.2370117E-1,8.7942857E-1,1.5417581E0,7.930693E-1,3.771709E-1],"split_indices":[0,2,2,6,2,6,9,0,3,3,0,4,0,0,0,1,0,9,4,0,0,1,1,4,0,0,5,0,0,0,0,0,0,0,0,0,2,0,0],"split_type":[0,0,0,0,0,0,0,0,0,0,0,0,0,0,0,0,0,0,0,0,0,0,0,0,0,0,0,0,0,0,0,0,0,0,0,0,0,0,0],"sum_hessian":[7.62E2,6.21E2,1.41E2,2.02E2,4.19E2,9.7E1,4.4E1,5.8E1,1.44E2,4.12E2,7E0,3.5E1,6.2E1,4.1E1,3E0,1.35E2,9E0,8.1E1,3.31E2,2E0,3.3E1,7E0,1.28E2,2E1,6.1E1,1.4E1,3.17E2,2.9E1,4E0,4E0,3E0,1E0,1.27E2,3E0,1.7E1,2.21E2,9.6E1,9.4E1,2E0],"tree_param":{"num_deleted":"0","num_feature":"10","num_nodes":"39","size_leaf_vector":"0"}},{"base_weights":[1.9551818E0,1.8209157E0,2.2007256E0,1.8058639E0,2.7687612E0,2.2724936E0,5.302232E-1,1.8249767E0,3.262471E-1,1.222097E0,6.228184E-1,7.320946E-1,6.406584E-1,1.8959075E0,1.6379323E0,1.9297327E0,4.6670517E-1,4.520853E-1,5.752932E-1,1.5458359E0,1.9576783E0,4.2020045E-2,5.0487417E-1,2.427433E0,5.743906E-1,8.001136E-1,4.4342497E-1],"categories":[],"categories_nodes":[],"categories_segments":[],"categories_sizes":[],"default_left":[0,1,0,1,0,0,0,0,0,0,0,0,0,0,0,0,0,0,0,0,1,0,0,1,0,0,0],"id":6,"left_children":[1,3,5,7,9,11,-1,13,-1,-1,-1,-1,-1,15,17,19,-1,-1,-1,21,23,-1,-1,25,-1,-1,-1],"loss_changes":[2.4118408E1,5.7888184E0,7.327881E0,6.188965E0,4.4200706E0,3.9536133E0,0E0,5.5078125E0,0E0,0E0,0E0,0E0,0E0,3.180664E0,4.115631E0,2.5644531E0,0E0,0E0,0E0,4.228531E0,4.654785E0,0E0,0E0,4.293991E0,0E0,0E0,0E0],"parents":[2147483647,0,0,1,1,2,2,3,3,4,4,5,5,7,7,13,13,14,14,15,15,19,19,20,20,23,23],"right_children":[2,4,6,8,10,12,-1,14,-1,-1,-1,-1,-1,16,18,20,-1,-1,-1,22,24,-1,-1,26,-1,-1,-1],"split_conditions":[2.0689656E-1,4.111747E0,1.3147033E0,1.75E0,2.0588236E0,5.02233E0,5.302232E-1,4.829352E0,3.262471E-1,1.222097E0,6.228184E-1,7.320946E-1,6.406584E-1,3.875E0,6.666667E-1,8.784355E-1,4.6670517E-1,4.520853E-1,5.752932E-1,9.233747E-1,4.187192E-1,4.2020045E-2,5.0487417E-1,1.2941177E0,5.743906E-1,8.001136E-1,4.4342497E-1],"split_indices":[0,2,1,1,3,5,0,9,0,0,0,0,0,3,8,2,0,0,0,1,4,0,0,8,0,0,0],"split_type":[0,0,0,0,0,0,0,0,0,0,0,0,0,0,0,0,0,0,0,0,0,0,0,0,0,0,0],"sum_hessian":[7.62E2,4.94E2,2.68E2,4.87E2,7E0,2.29E2,3.9E1,4.74E2,1.3E1,2E0,5E0,1.01E2,1.28E2,3.42E2,1.32E2,3.1E2,3.2E1,9.1E1,4.1E1,2.2E1,2.88E2,2E0,2E1,2.3E1,2.65E2,1.8E1,5E0],"tree_param":{"num_deleted":"0","num_feature":"10","num_nodes":"27","size_leaf_vector":"0"}},{"base_weights":[1.3712552E0,1.5052476E0,1.2412026E0,1.4255503E0,1.7520446E0,1.2497246E0,1.1923882E-1,1.4075868E0,8.604718E-1,5.1209605E-1,7.685718E-1,3.5892534E-1,1.4645971E0,1.2481003E0,1.5022526E0,4.5646685E-1,1.8970795E-1,1.4091239E0,1.0872039E0,5.315146E-1,1.3970948E0,1.6580458E-1,1.4772284E0,1.6870885E-1,1.1749122E0,3.154518E-1,4.400423E-1,1.5284127E0,7.8186974E-2,1.8363973E-1,3.865708E-1,4.1383925E-1,6.2591994E-1],"categories":[],"categories_nodes":[],"categories_segments":[],"categories_sizes":[],"default_left":[1,0,0,1,0,0,0,0,0,0,0,0,0,1,0,0,0,0,0,0,0,0,0,0,0,0,0,0,0,0,0,0,0],"id":7,"left_children":[1,3,5,7,9,11,-1,13,-1,-1,-1,-1,15,17,19,-1,-1,21,23,-1,25,-1,27,-1,29,-1,-1,31,-1,-1,-1,-1,-1],"loss_changes":[1.2811279E1,6.7304688E0,2.6662598E0,6.347229E0,2.1891174E0,3.9588013E0,0E0,3.7729492E0,0E0,0E0,0E0,0E0,3.3242798E0,2.3659668E0,4.3409424E0,0E0,0E0,2.8416061E0,2.3305664E0,0E0,2.6763153E0,0E0,2.904152E0,0E0,2.7593231E0,0E0,0E0,3.1173706E0,0E0,0E0,0E0,0E0,0E0],"parents":[2147483647,0,0,1,1,2,2,3,3,4,4,5,5,7,7,12,12,13,13,14,14,17,17,18,18,20,20,22,22,24,24,27,27],"right_children":[2,4,6,8,10,12,-1,14,-1,-1,-1,-1,16,18,20,-1,-1,22,24,-1,26,-1,28,-1,30,-1,-1,32,-1,-1,-1,-1,-1],"split_conditions":[1.1982284E0,4.2857143E-1,6.769231E0,1.4179105E0,4.8333335E0,2.8888888E0,1.1923882E-1,3.535534E0,8.604718E-1,5.1209605E-1,7.685718E-1,3.5892534E-1,7.1428573E-1,1.4418865E0,3.0327868E0,4.5646685E-1,1.8970795E-1,8.478066E-1,5.1119405E-1,5.315146E-1,4.3046358E-1,1.6580458E-1,3.3650439E0,1.6870885E-1,1.875E0,3.154518E-1,4.400423E-1,3E0,7.8186974E-2,1.8363973E-1,3.865708E-1,4.1383925E-1,6.2591994E-1],"split_indices":[1,0,3,4,3,3,0,7,0,0,0,0,4,2,3,0,0,2,4,0,4,0,7,0,3,0,0,6,0,0,0,0,0],"split_type":[0,0,0,0,0,0,0,0,0,0,0,0,0,0,0,0,0,0,0,0,0,0,0,0,0,0,0,0,0,0,0,0,0],"sum_hessian":[7.62E2,3.74E2,3.88E2,2.84E2,9E1,3.84E2,4E0,2.81E2,3E0,8.6E1,4E0,3.09E2,7.5E1,1.06E2,1.75E2,7E1,5E0,5.2E1,5.4E1,4.8E1,1.27E2,4E0,4.8E1,8E0,4.6E1,2.2E1,1.05E2,4.6E1,2E0,8E0,3.8E1,3.7E1,9E0],"tree_param":{"num_deleted":"0","num_feature":"10","num_nodes":"33","size_leaf_vector":"0"}},{"base_weights":[9.620565E-1,1.13932E0,9.075585E-1,1.155898E0,4.7284085E-2,8.0580676E-1,9.6453375E-1,3.4105712E-1,6.223708E-1,2.8356272E-1,1.981324E-1,1.7263782E-1,2.9619494E-1],"categories":[],"categories_nodes":[],"categories_segments":[],"categories_sizes":[],"default_left":[0,0,0,0,0,0,0,0,0,0,0,0,0],"id":8,"left_children":[1,3,5,7,-1,9,11,-1,-1,-1,-1,-1,-1],"loss_changes":[7.102661E0,2.8549805E0,3.190857E0,2.4700623E0,0E0,4.1232452E0,3.1651E0,0E0,0E0,0E0,0E0,0E0,0E0],"parents":[2147483647,0,0,1,1,2,2,3,3,5,5,6,6],"right_children":[2,4,6,8,-1,10,12,-1,-1,-1,-1,-1,-1],"split_conditions":[9.166667E-1,5.714286E0,2.3243244E0,1.4179105E0,4.7284085E-2,3.4228394E0,3.7276265E-1,3.4105712E-1,6.223708E-1,2.8356272E-1,1.981324E-1,1.7263782E-1,2.9619494E-1],"split_indices":[1,3,3,4,0,9,4,0,0,0,0,0,0],"split_type":[0,0,0,0,0,0,0,0,0,0,0,0,0],"sum_hessian":[7.62E2,1.78E2,5.84E2,1.75E2,3E0,2.11E2,3.73E2,1.72E2,3E0,1.07E2,1.04E2,2.1E1,3.52E2],"tree_param":{"num_deleted":"0","num_feature":"10","num_nodes":"13","size_leaf_vector":"0"}},{"base_weights":[6.740895E-1,6.4859265E-1,9.439257E-1,1.1209768E-1,6.6607124E-1,2.5164843E-1,3.9154115E-1,8.046102E-1,6.201587E-1,7.859073E-1,6.1350435E-1,4.5428586E-1,6.5539837E-1,2.5691795E-1,1.6421193E-1,-4.596323E-3,1.5662427E-1,7.2733104E-1,1.6727975E-1,2.444707E-1,1.7433563E-1],"categories":[],"categories_nodes":[],"categories_segments":[],"categories_sizes":[],"default_left":[0,0,0,0,0,0,0,0,0,0,0,0,0,0,0,0,0,0,0,0,0],"id":9,"left_children":[1,3,5,-1,7,-1,-1,9,11,13,-1,15,17,-1,-1,-1,-1,19,-1,-1,-1],"loss_changes":[5.089691E0,3.2877502E0,2.2007065E0,0E0,4.0418396E0,0E0,0E0,3.3582916E0,2.8080292E0,2.576004E0,0E0,2.7798824E0,2.7555695E0,0E0,0E0,0E0,0E0,2.8669968E0,0E0,0E0,0E0],"parents":[2147483647,0,0,1,1,2,2,4,4,7,7,8,8,9,9,11,11,12,12,17,17],"right_children":[2,4,6,-1,8,-1,-1,10,12,14,-1,16,18,-1,-1,-1,-1,20,-1,-1,-1],"split_conditions":[4.6153846E-1,1.75E0,4E0,1.1209768E-1,2.701804E0,2.5164843E-1,3.9154115E-1,5.7007E0,3.6944525E0,2.9755557E0,6.1350435E-1,4.3078586E-1,1.3866689E0,2.5691795E-1,1.6421193E-1,-4.596323E-3,1.5662427E-1,3.2857144E0,1.6727975E-1,2.444707E-1,1.7433563E-1],"split_indices":[0,3,6,0,5,0,0,2,7,9,0,4,1,0,0,0,0,3,0,0,0],"split_type":[0,0,0,0,0,0,0,0,0,0,0,0,0,0,0,0,0,0,0,0,0],"sum_hessian":[7.62E2,6.97E2,6.5E1,4.2E1,6.55E2,5.1E1,1.4E1,1.62E2,4.93E2,1.6E2,2E0,8.7E1,4.06E2,1.23E2,3.7E1,1.1E1,7.6E1,2.33E2,1.73E2,1.45E2,8.8E1],"tree_param":{"num_deleted":"0","num_feature":"10","num_nodes":"21","size_leaf_vector":"0"}},{"base_weights":[4.727001E-1,4.620726E-1,2.6984993E-1,4.9011433E-1,1.0511712E-1,4.0916973E-1,5.439006E-1,-9.019392E-3,1.303659E-1,1.7055565E-1,5.0382577E-2],"categories":[],"categories_nodes":[],"categories_segments":[],"categories_sizes":[],"default_left":[0,0,0,0,0,0,0,0,0,0,0],"id":10,"left_children":[1,3,-1,5,-1,7,9,-1,-1,-1,-1],"loss_changes":[3.352478E0,2.2874603E0,0E0,2.5310059E0,0E0,2.6596222E0,3.2731476E0,0E0,0E0,0E0,0E0],"parents":[2147483647,0,0,1,1,3,3,5,5,6,6],"right_children":[2,4,-1,6,-1,8,10,-1,-1,-1,-1],"split_conditions":[5.652174E-1,4.829352E0,2.6984993E-1,4.1307683E0,1.0511712E-1,1E0,1.1176556E1,-9.019392E-3,1.303659E-1,1.7055565E-1,5.0382577E-2],"split_indices":[0,9,0,7,0,6,7,0,0,0,0],"split_type":[0,0,0,0,0,0,0,0,0,0,0],"sum_hessian":[7.62E2,7.44E2,1.8E1,5.94E2,1.5E2,2.38E2,3.56E2,1.3E1,2.25E2,3.34E2,2.2E1],"tree_param":{"num_deleted":"0","num_feature":"10","num_nodes":"11","size_leaf_vector":"0"}},{"base_weights":[3.311278E-1],"categories":[],"categories_nodes":[],"categories_segments":[],"categories_sizes":[],"default_left":[0],"id":11,"left_children":[-1],"loss_changes":[0E0],"parents":[2147483647],"right_children":[-1],"split_conditions":[9.9338345E-2],"split_indices":[0],"split_type":[0],"sum_hessian":[7.62E2],"tree_param":{"num_deleted":"0","num_feature":"10","num_nodes":"1","size_leaf_vector":"0"}},{"base_weights":[2.318222E-1],"categories":[],"categories_nodes":[],"categories_segments":[],"categories_sizes":[],"default_left":[0],"id":12,"left_children":[-1],"loss_changes":[0E0],"parents":[2147483647],"right_children":[-1],"split_conditions":[6.954666E-2],"split_indices":[0],"split_type":[0],"sum_hessian":[7.62E2],"tree_param":{"num_deleted":"0","num_feature":"10","num_nodes":"1","size_leaf_vector":"0"}},{"base_weights":[1.6229908E-1],"categories":[],"categories_nodes":[],"categories_segments":[],"categories_sizes":[],"default_left":[0],"id":13,"left_children":[-1],"loss_changes":[0E0],"parents":[2147483647],"right_children":[-1],"split_conditions":[4.8689727E-2],"split_indices":[0],"split_type":[0],"sum_hessian":[7.62E2],"tree_param":{"num_deleted":"0","num_feature":"10","num_nodes":"1","size_leaf_vector":"0"}},{"base_weights":[1.1362594E-1],"categories":[],"categories_nodes":[],"categories_segments":[],"categories_sizes":[],"default_left":[0],"id":14,"left_children":[-1],"loss_changes":[0E0],"parents":[2147483647],"right_children":[-1],"split_conditions":[3.4087785E-2],"split_indices":[0],"split_type":[0],"sum_hessian":[7.62E2],"tree_param":{"num_deleted":"0","num_feature":"10","num_nodes":"1","size_leaf_vector":"0"}},{"base_weights":[7.9549104E-2],"categories":[],"categories_nodes":[],"categories_segments":[],"categories_sizes":[],"default_left":[0],"id":15,"left_children":[-1],"loss_changes":[0E0],"parents":[2147483647],"right_children":[-1],"split_conditions":[2.3864733E-2],"split_indices":[0],"split_type":[0],"sum_hessian":[7.62E2],"tree_param":{"num_deleted":"0","num_feature":"10","num_nodes":"1","size_leaf_vector":"0"}},{"base_weights":[5.5692267E-2],"categories":[],"categories_nodes":[],"categories_segments":[],"categories_sizes":[],"default_left":[0],"id":16,"left_children":[-1],"loss_changes":[0E0],"parents":[2147483647],"right_children":[-1],"split_conditions":[1.6707681E-2],"split_indices":[0],"split_type":[0],"sum_hessian":[7.62E2],"tree_param":{"num_deleted":"0","num_feature":"10","num_nodes":"1","size_leaf_vector":"0"}},{"base_weights":[3.8989794E-2],"categories":[],"categories_nodes":[],"categories_segments":[],"categories_sizes":[],"default_left":[0],"id":17,"left_children":[-1],"loss_changes":[0E0],"parents":[2147483647],"right_children":[-1],"split_conditions":[1.1696938E-2],"split_indices":[0],"split_type":[0],"sum_hessian":[7.62E2],"tree_param":{"num_deleted":"0","num_feature":"10","num_nodes":"1","size_leaf_vector":"0"}},{"base_weights":[2.729626E-2],"categories":[],"categories_nodes":[],"categories_segments":[],"categories_sizes":[],"default_left":[0],"id":18,"left_children":[-1],"loss_changes":[0E0],"parents":[2147483647],"right_children":[-1],"split_conditions":[8.188878E-3],"split_indices":[0],"split_type":[0],"sum_hessian":[7.62E2],"tree_param":{"num_deleted":"0","num_feature":"10","num_nodes":"1","size_leaf_vector":"0"}},{"base_weights":[1.9110365E-2],"categories":[],"categories_nodes":[],"categories_segments":[],"categories_sizes":[],"default_left":[0],"id":19,"left_children":[-1],"loss_changes":[0E0],"parents":[2147483647],"right_children":[-1],"split_conditions":[5.7331095E-3],"split_indices":[0],"split_type":[0],"sum_hessian":[7.62E2],"tree_param":{"num_deleted":"0","num_feature":"10","num_nodes":"1","size_leaf_vector":"0"}},{"base_weights":[1.3378774E-2],"categories":[],"categories_nodes":[],"categories_segments":[],"categories_sizes":[],"default_left":[0],"id":20,"left_children":[-1],"loss_changes":[0E0],"parents":[2147483647],"right_children":[-1],"split_conditions":[4.0136324E-3],"split_indices":[0],"split_type":[0],"sum_hessian":[7.62E2],"tree_param":{"num_deleted":"0","num_feature":"10","num_nodes":"1","size_leaf_vector":"0"}},{"base_weights":[9.366681E-3],"categories":[],"categories_nodes":[],"categories_segments":[],"categories_sizes":[],"default_left":[0],"id":21,"left_children":[-1],"loss_changes":[0E0],"parents":[2147483647],"right_children":[-1],"split_conditions":[2.8100044E-3],"split_indices":[0],"split_type":[0],"sum_hessian":[7.62E2],"tree_param":{"num_deleted":"0","num_feature":"10","num_nodes":"1","size_leaf_vector":"0"}},{"base_weights":[6.557727E-3],"categories":[],"categories_nodes":[],"categories_segments":[],"categories_sizes":[],"default_left":[0],"id":22,"left_children":[-1],"loss_changes":[0E0],"parents":[2147483647],"right_children":[-1],"split_conditions":[1.9673184E-3],"split_indices":[0],"split_type":[0],"sum_hessian":[7.62E2],"tree_param":{"num_deleted":"0","num_feature":"10","num_nodes":"1","size_leaf_vector":"0"}},{"base_weights":[4.5915456E-3],"categories":[],"categories_nodes":[],"categories_segments":[],"categories_sizes":[],"default_left":[0],"id":23,"left_children":[-1],"loss_changes":[0E0],"parents":[2147483647],"right_children":[-1],"split_conditions":[1.3774637E-3],"split_indices":[0],"split_type":[0],"sum_hessian":[7.62E2],"tree_param":{"num_deleted":"0","num_feature":"10","num_nodes":"1","size_leaf_vector":"0"}},{"base_weights":[3.214896E-3],"categories":[],"categories_nodes":[],"categories_segments":[],"categories_sizes":[],"default_left":[0],"id":24,"left_children":[-1],"loss_changes":[0E0],"parents":[2147483647],"right_children":[-1],"split_conditions":[9.644688E-4],"split_indices":[0],"split_type":[0],"sum_hessian":[7.62E2],"tree_param":{"num_deleted":"0","num_feature":"10","num_nodes":"1","size_leaf_vector":"0"}},{"base_weights":[2.2504537E-3],"categories":[],"categories_nodes":[],"categories_segments":[],"categories_sizes":[],"default_left":[0],"id":25,"left_children":[-1],"loss_changes":[0E0],"parents":[2147483647],"right_children":[-1],"split_conditions":[6.751361E-4],"split_indices":[0],"split_type":[0],"sum_hessian":[7.62E2],"tree_param":{"num_deleted":"0","num_feature":"10","num_nodes":"1","size_leaf_vector":"0"}},{"base_weights":[1.575476E-3],"categories":[],"categories_nodes":[],"categories_segments":[],"categories_sizes":[],"default_left":[0],"id":26,"left_children":[-1],"loss_changes":[0E0],"parents":[2147483647],"right_children":[-1],"split_conditions":[4.7264283E-4],"split_indices":[0],"split_type":[0],"sum_hessian":[7.62E2],"tree_param":{"num_deleted":"0","num_feature":"10","num_nodes":"1","size_leaf_vector":"0"}},{"base_weights":[1.1026103E-3],"categories":[],"categories_nodes":[],"categories_segments":[],"categories_sizes":[],"default_left":[0],"id":27,"left_children":[-1],"loss_changes":[0E0],"parents":[2147483647],"right_children":[-1],"split_conditions":[3.3078308E-4],"split_indices":[0],"split_type":[0],"sum_hessian":[7.62E2],"tree_param":{"num_deleted":"0","num_feature":"10","num_nodes":"1","size_leaf_vector":"0"}},{"base_weights":[7.7239174E-4],"categories":[],"categories_nodes":[],"categories_segments":[],"categories_sizes":[],"default_left":[0],"id":28,"left_children":[-1],"loss_changes":[0E0],"parents":[2147483647],"right_children":[-1],"split_conditions":[2.3171752E-4],"split_indices":[0],"split_type":[0],"sum_hessian":[7.62E2],"tree_param":{"num_deleted":"0","num_feature":"10","num_nodes":"1","size_leaf_vector":"0"}},{"base_weights":[5.413224E-4],"categories":[],"categories_nodes":[],"categories_segments":[],"categories_sizes":[],"default_left":[0],"id":29,"left_children":[-1],"loss_changes":[0E0],"parents":[2147483647],"right_children":[-1],"split_conditions":[1.6239673E-4],"split_indices":[0],"split_type":[0],"sum_hessian":[7.62E2],"tree_param":{"num_deleted":"0","num_feature":"10","num_nodes":"1","size_leaf_vector":"0"}},{"base_weights":[3.792515E-4],"categories":[],"categories_nodes":[],"categories_segments":[],"categories_sizes":[],"default_left":[0],"id":30,"left_children":[-1],"loss_changes":[0E0],"parents":[2147483647],"right_children":[-1],"split_conditions":[1.1377545E-4],"split_indices":[0],"split_type":[0],"sum_hessian":[7.62E2],"tree_param":{"num_deleted":"0","num_feature":"10","num_nodes":"1","size_leaf_vector":"0"}},{"base_weights":[2.6520505E-4],"categories":[],"categories_nodes":[],"categories_segments":[],"categories_sizes":[],"default_left":[0],"id":31,"left_children":[-1],"loss_changes":[0E0],"parents":[2147483647],"right_children":[-1],"split_conditions":[7.956152E-5],"split_indices":[0],"split_type":[0],"sum_hessian":[7.62E2],"tree_param":{"num_deleted":"0","num_feature":"10","num_nodes":"1","size_leaf_vector":"0"}},{"base_weights":[1.8547951E-4],"categories":[],"categories_nodes":[],"categories_segments":[],"categories_sizes":[],"default_left":[0],"id":32,"left_children":[-1],"loss_changes":[0E0],"parents":[2147483647],"right_children":[-1],"split_conditions":[5.5643857E-5],"split_indices":[0],"split_type":[0],"sum_hessian":[7.62E2],"tree_param":{"num_deleted":"0","num_feature":"10","num_nodes":"1","size_leaf_vector":"0"}},{"base_weights":[1.3018472E-4],"categories":[],"categories_nodes":[],"categories_segments":[],"categories_sizes":[],"default_left":[0],"id":33,"left_children":[-1],"loss_changes":[0E0],"parents":[2147483647],"right_children":[-1],"split_conditions":[3.905542E-5],"split_indices":[0],"split_type":[0],"sum_hessian":[7.62E2],"tree_param":{"num_deleted":"0","num_feature":"10","num_nodes":"1","size_leaf_vector":"0"}},{"base_weights":[9.169381E-5],"categories":[],"categories_nodes":[],"categories_segments":[],"categories_sizes":[],"default_left":[0],"id":34,"left_children":[-1],"loss_changes":[0E0],"parents":[2147483647],"right_children":[-1],"split_conditions":[2.7508144E-5],"split_indices":[0],"split_type":[0],"sum_hessian":[7.62E2],"tree_param":{"num_deleted":"0","num_feature":"10","num_nodes":"1","size_leaf_vector":"0"}},{"base_weights":[6.46432E-5],"categories":[],"categories_nodes":[],"categories_segments":[],"categories_sizes":[],"default_left":[0],"id":35,"left_children":[-1],"loss_changes":[0E0],"parents":[2147483647],"right_children":[-1],"split_conditions":[1.939296E-5],"split_indices":[0],"split_type":[0],"sum_hessian":[7.62E2],"tree_param":{"num_deleted":"0","num_feature":"10","num_nodes":"1","size_leaf_vector":"0"}},{"base_weights":[4.557604E-5],"categories":[],"categories_nodes":[],"categories_segments":[],"categories_sizes":[],"default_left":[0],"id":36,"left_children":[-1],"loss_changes":[0E0],"parents":[2147483647],"right_children":[-1],"split_conditions":[1.3672812E-5],"split_indices":[0],"split_type":[0],"sum_hessian":[7.62E2],"tree_param":{"num_deleted":"0","num_feature":"10","num_nodes":"1","size_leaf_vector":"0"}},{"base_weights":[3.2229018E-5],"categories":[],"categories_nodes":[],"categories_segments":[],"categories_sizes":[],"default_left":[0],"id":37,"left_children":[-1],"loss_changes":[0E0],"parents":[2147483647],"right_children":[-1],"split_conditions":[9.668705E-6],"split_indices":[0],"split_type":[0],"sum_hessian":[7.62E2],"tree_param":{"num_deleted":"0","num_feature":"10","num_nodes":"1","size_leaf_vector":"0"}},{"base_weights":[2.2695434E-5],"categories":[],"categories_nodes":[],"categories_segments":[],"categories_sizes":[],"default_left":[0],"id":38,"left_children":[-1],"loss_changes":[0E0],"parents":[2147483647],"right_children":[-1],"split_conditions":[6.8086306E-6],"split_indices":[0],"split_type":[0],"sum_hessian":[7.62E2],"tree_param":{"num_deleted":"0","num_feature":"10","num_nodes":"1","size_leaf_vector":"0"}},{"base_weights":[1.542514E-5],"categories":[],"categories_nodes":[],"categories_segments":[],"categories_sizes":[],"default_left":[0],"id":39,"left_children":[-1],"loss_changes":[0E0],"parents":[2147483647],"right_children":[-1],"split_conditions":[4.627542E-6],"split_indices":[0],"split_type":[0],"sum_hessian":[7.62E2],"tree_param":{"num_deleted":"0","num_feature":"10","num_nodes":"1","size_leaf_vector":"0"}},{"base_weights":[1.1255134E-5],"categories":[],"categories_nodes":[],"categories_segments":[],"categories_sizes":[],"default_left":[0],"id":40,"left_children":[-1],"loss_changes":[0E0],"parents":[2147483647],"right_children":[-1],"split_conditions":[3.3765405E-6],"split_indices":[0],"split_type":[0],"sum_hessian":[7.62E2],"tree_param":{"num_deleted":"0","num_feature":"10","num_nodes":"1","size_leaf_vector":"0"}},{"base_weights":[7.4417003E-6],"categories":[],"categories_nodes":[],"categories_segments":[],"categories_sizes":[],"default_left":[0],"id":41,"left_children":[-1],"loss_changes":[0E0],"parents":[2147483647],"right_children":[-1],"split_conditions":[2.2325103E-6],"split_indices":[0],"split_type":[0],"sum_hessian":[7.62E2],"tree_param":{"num_deleted":"0","num_feature":"10","num_nodes":"1","size_leaf_vector":"0"}},{"base_weights":[5.5349838E-6],"categories":[],"categories_nodes":[],"categories_segments":[],"categories_sizes":[],"default_left":[0],"id":42,"left_children":[-1],"loss_changes":[0E0],"parents":[2147483647],"right_children":[-1],"split_conditions":[1.6604952E-6],"split_indices":[0],"split_type":[0],"sum_hessian":[7.62E2],"tree_param":{"num_deleted":"0","num_feature":"10","num_nodes":"1","size_leaf_vector":"0"}},{"base_weights":[3.6282668E-6],"categories":[],"categories_nodes":[],"categories_segments":[],"categories_sizes":[],"default_left":[0],"id":43,"left_children":[-1],"loss_changes":[0E0],"parents":[2147483647],"right_children":[-1],"split_conditions":[1.0884801E-6],"split_indices":[0],"split_type":[0],"sum_hessian":[7.62E2],"tree_param":{"num_deleted":"0","num_feature":"10","num_nodes":"1","size_leaf_vector":"0"}},{"base_weights":[2.078121E-6],"categories":[],"categories_nodes":[],"categories_segments":[],"categories_sizes":[],"default_left":[0],"id":44,"left_children":[-1],"loss_changes":[0E0],"parents":[2147483647],"right_children":[-1],"split_conditions":[6.2343634E-7],"split_indices":[0],"split_type":[0],"sum_hessian":[7.62E2],"tree_param":{"num_deleted":"0","num_feature":"10","num_nodes":"1","size_leaf_vector":"0"}},{"base_weights":[1.7215501E-6],"categories":[],"categories_nodes":[],"categories_segments":[],"categories_sizes":[],"default_left":[0],"id":45,"left_children":[-1],"loss_changes":[0E0],"parents":[2147483647],"right_children":[-1],"split_conditions":[5.1646504E-7],"split_indices":[0],"split_type":[0],"sum_hessian":[7.62E2],"tree_param":{"num_deleted":"0","num_feature":"10","num_nodes":"1","size_leaf_vector":"0"}},{"base_weights":[1.364979E-6],"categories":[],"categories_nodes":[],"categories_segments":[],"categories_sizes":[],"default_left":[0],"id":46,"left_children":[-1],"loss_changes":[0E0],"parents":[2147483647],"right_children":[-1],"split_conditions":[4.094937E-7],"split_indices":[0],"split_type":[0],"sum_hessian":[7.62E2],"tree_param":{"num_deleted":"0","num_feature":"10","num_nodes":"1","size_leaf_vector":"0"}},{"base_weights":[1.364979E-6],"categories":[],"categories_nodes":[],"categories_segments":[],"categories_sizes":[],"default_left":[0],"id":47,"left_children":[-1],"loss_changes":[0E0],"parents":[2147483647],"right_children":[-1],"split_conditions":[4.094937E-7],"split_indices":[0],"split_type":[0],"sum_hessian":[7.62E2],"tree_param":{"num_deleted":"0","num_feature":"10","num_nodes":"1","size_leaf_vector":"0"}},{"base_weights":[1.364979E-6],"categories":[],"categories_nodes":[],"categories_segments":[],"categories_sizes":[],"default_left":[0],"id":48,"left_children":[-1],"loss_changes":[0E0],"parents":[2147483647],"right_children":[-1],"split_conditions":[4.094937E-7],"split_indices":[0],"split_type":[0],"sum_hessian":[7.62E2],"tree_param":{"num_deleted":"0","num_feature":"10","num_nodes":"1","size_leaf_vector":"0"}},{"base_weights":[1.364979E-6],"categories":[],"categories_nodes":[],"categories_segments":[],"categories_sizes":[],"default_left":[0],"id":49,"left_children":[-1],"loss_changes":[0E0],"parents":[2147483647],"right_children":[-1],"split_conditions":[4.094937E-7],"split_indices":[0],"split_type":[0],"sum_hessian":[7.62E2],"tree_param":{"num_deleted":"0","num_feature":"10","num_nodes":"1","size_leaf_vector":"0"}},{"base_weights":[1.364979E-6],"categories":[],"categories_nodes":[],"categories_segments":[],"categories_sizes":[],"default_left":[0],"id":50,"left_children":[-1],"loss_changes":[0E0],"parents":[2147483647],"right_children":[-1],"split_conditions":[4.094937E-7],"split_indices":[0],"split_type":[0],"sum_hessian":[7.62E2],"tree_param":{"num_deleted":"0","num_feature":"10","num_nodes":"1","size_leaf_vector":"0"}},{"base_weights":[1.364979E-6],"categories":[],"categories_nodes":[],"categories_segments":[],"categories_sizes":[],"default_left":[0],"id":51,"left_children":[-1],"loss_changes":[0E0],"parents":[2147483647],"right_children":[-1],"split_conditions":[4.094937E-7],"split_indices":[0],"split_type":[0],"sum_hessian":[7.62E2],"tree_param":{"num_deleted":"0","num_feature":"10","num_nodes":"1","size_leaf_vector":"0"}},{"base_weights":[1.364979E-6],"categories":[],"categories_nodes":[],"categories_segments":[],"categories_sizes":[],"default_left":[0],"id":52,"left_children":[-1],"loss_changes":[0E0],"parents":[2147483647],"right_children":[-1],"split_conditions":[4.094937E-7],"split_indices":[0],"split_type":[0],"sum_hessian":[7.62E2],"tree_param":{"num_deleted":"0","num_feature":"10","num_nodes":"1","size_leaf_vector":"0"}},{"base_weights":[1.364979E-6],"categories":[],"categories_nodes":[],"categories_segments":[],"categories_sizes":[],"default_left":[0],"id":53,"left_children":[-1],"loss_changes":[0E0],"parents":[2147483647],"right_children":[-1],"split_conditions":[4.094937E-7],"split_indices":[0],"split_type":[0],"sum_hessian":[7.62E2],"tree_param":{"num_deleted":"0","num_feature":"10","num_nodes":"1","size_leaf_vector":"0"}},{"base_weights":[1.364979E-6],"categories":[],"categories_nodes":[],"categories_segments":[],"categories_sizes":[],"default_left":[0],"id":54,"left_children":[-1],"loss_changes":[0E0],"parents":[2147483647],"right_children":[-1],"split_conditions":[4.094937E-7],"split_indices":[0],"split_type":[0],"sum_hessian":[7.62E2],"tree_param":{"num_deleted":"0","num_feature":"10","num_nodes":"1","size_leaf_vector":"0"}},{"base_weights":[1.364979E-6],"categories":[],"categories_nodes":[],"categories_segments":[],"categories_sizes":[],"default_left":[0],"id":55,"left_children":[-1],"loss_changes":[0E0],"parents":[2147483647],"right_children":[-1],"split_conditions":[4.094937E-7],"split_indices":[0],"split_type":[0],"sum_hessian":[7.62E2],"tree_param":{"num_deleted":"0","num_feature":"10","num_nodes":"1","size_leaf_vector":"0"}},{"base_weights":[1.364979E-6],"categories":[],"categories_nodes":[],"categories_segments":[],"categories_sizes":[],"default_left":[0],"id":56,"left_children":[-1],"loss_changes":[0E0],"parents":[2147483647],"right_children":[-1],"split_conditions":[4.094937E-7],"split_indices":[0],"split_type":[0],"sum_hessian":[7.62E2],"tree_param":{"num_deleted":"0","num_feature":"10","num_nodes":"1","size_leaf_vector":"0"}},{"base_weights":[1.364979E-6],"categories":[],"categories_nodes":[],"categories_segments":[],"categories_sizes":[],"default_left":[0],"id":57,"left_children":[-1],"loss_changes":[0E0],"parents":[2147483647],"right_children":[-1],"split_conditions":[4.094937E-7],"split_indices":[0],"split_type":[0],"sum_hessian":[7.62E2],"tree_param":{"num_deleted":"0","num_feature":"10","num_nodes":"1","size_leaf_vector":"0"}},{"base_weights":[1.364979E-6],"categories":[],"categories_nodes":[],"categories_segments":[],"categories_sizes":[],"default_left":[0],"id":58,"left_children":[-1],"loss_changes":[0E0],"parents":[2147483647],"right_children":[-1],"split_conditions":[4.094937E-7],"split_indices":[0],"split_type":[0],"sum_hessian":[7.62E2],"tree_param":{"num_deleted":"0","num_feature":"10","num_nodes":"1","size_leaf_vector":"0"}},{"base_weights":[1.364979E-6],"categories":[],"categories_nodes":[],"categories_segments":[],"categories_sizes":[],"default_left":[0],"id":59,"left_children":[-1],"loss_changes":[0E0],"parents":[2147483647],"right_children":[-1],"split_conditions":[4.094937E-7],"split_indices":[0],"split_type":[0],"sum_hessian":[7.62E2],"tree_param":{"num_deleted":"0","num_feature":"10","num_nodes":"1","size_leaf_vector":"0"}},{"base_weights":[1.364979E-6],"categories":[],"categories_nodes":[],"categories_segments":[],"categories_sizes":[],"default_left":[0],"id":60,"left_children":[-1],"loss_changes":[0E0],"parents":[2147483647],"right_children":[-1],"split_conditions":[4.094937E-7],"split_indices":[0],"split_type":[0],"sum_hessian":[7.62E2],"tree_param":{"num_deleted":"0","num_feature":"10","num_nodes":"1","size_leaf_vector":"0"}},{"base_weights":[1.364979E-6],"categories":[],"categories_nodes":[],"categories_segments":[],"categories_sizes":[],"default_left":[0],"id":61,"left_children":[-1],"loss_changes":[0E0],"parents":[2147483647],"right_children":[-1],"split_conditions":[4.094937E-7],"split_indices":[0],"split_type":[0],"sum_hessian":[7.62E2],"tree_param":{"num_deleted":"0","num_feature":"10","num_nodes":"1","size_leaf_vector":"0"}},{"base_weights":[1.364979E-6],"categories":[],"categories_nodes":[],"categories_segments":[],"categories_sizes":[],"default_left":[0],"id":62,"left_children":[-1],"loss_changes":[0E0],"parents":[2147483647],"right_children":[-1],"split_conditions":[4.094937E-7],"split_indices":[0],"split_type":[0],"sum_hessian":[7.62E2],"tree_param":{"num_deleted":"0","num_feature":"10","num_nodes":"1","size_leaf_vector":"0"}},{"base_weights":[1.364979E-6],"categories":[],"categories_nodes":[],"categories_segments":[],"categories_sizes":[],"default_left":[0],"id":63,"left_children":[-1],"loss_changes":[0E0],"parents":[2147483647],"right_children":[-1],"split_conditions":[4.094937E-7],"split_indices":[0],"split_type":[0],"sum_hessian":[7.62E2],"tree_param":{"num_deleted":"0","num_feature":"10","num_nodes":"1","size_leaf_vector":"0"}},{"base_weights":[1.364979E-6],"categories":[],"categories_nodes":[],"categories_segments":[],"categories_sizes":[],"default_left":[0],"id":64,"left_children":[-1],"loss_changes":[0E0],"parents":[2147483647],"right_children":[-1],"split_conditions":[4.094937E-7],"split_indices":[0],"split_type":[0],"sum_hessian":[7.62E2],"tree_param":{"num_deleted":"0","num_feature":"10","num_nodes":"1","size_leaf_vector":"0"}},{"base_weights":[1.364979E-6],"categories":[],"categories_nodes":[],"categories_segments":[],"categories_sizes":[],"default_left":[0],"id":65,"left_children":[-1],"loss_changes":[0E0],"parents":[2147483647],"right_children":[-1],"split_conditions":[4.094937E-7],"split_indices":[0],"split_type":[0],"sum_hessian":[7.62E2],"tree_param":{"num_deleted":"0","num_feature":"10","num_nodes":"1","size_leaf_vector":"0"}},{"base_weights":[1.364979E-6],"categories":[],"categories_nodes":[],"categories_segments":[],"categories_sizes":[],"default_left":[0],"id":66,"left_children":[-1],"loss_changes":[0E0],"parents":[2147483647],"right_children":[-1],"split_conditions":[4.094937E-7],"split_indices":[0],"split_type":[0],"sum_hessian":[7.62E2],"tree_param":{"num_deleted":"0","num_feature":"10","num_nodes":"1","size_leaf_vector":"0"}},{"base_weights":[1.364979E-6],"categories":[],"categories_nodes":[],"categories_segments":[],"categories_sizes":[],"default_left":[0],"id":67,"left_children":[-1],"loss_changes":[0E0],"parents":[2147483647],"right_children":[-1],"split_conditions":[4.094937E-7],"split_indices":[0],"split_type":[0],"sum_hessian":[7.62E2],"tree_param":{"num_deleted":"0","num_feature":"10","num_nodes":"1","size_leaf_vector":"0"}},{"base_weights":[1.364979E-6],"categories":[],"categories_nodes":[],"categories_segments":[],"categories_sizes":[],"default_left":[0],"id":68,"left_children":[-1],"loss_changes":[0E0],"parents":[2147483647],"right_children":[-1],"split_conditions":[4.094937E-7],"split_indices":[0],"split_type":[0],"sum_hessian":[7.62E2],"tree_param":{"num_deleted":"0","num_feature":"10","num_nodes":"1","size_leaf_vector":"0"}},{"base_weights":[1.364979E-6],"categories":[],"categories_nodes":[],"categories_segments":[],"categories_sizes":[],"default_left":[0],"id":69,"left_children":[-1],"loss_changes":[0E0],"parents":[2147483647],"right_children":[-1],"split_conditions":[4.094937E-7],"split_indices":[0],"split_type":[0],"sum_hessian":[7.62E2],"tree_param":{"num_deleted":"0","num_feature":"10","num_nodes":"1","size_leaf_vector":"0"}},{"base_weights":[1.364979E-6],"categories":[],"categories_nodes":[],"categories_segments":[],"categories_sizes":[],"default_left":[0],"id":70,"left_children":[-1],"loss_changes":[0E0],"parents":[2147483647],"right_children":[-1],"split_conditions":[4.094937E-7],"split_indices":[0],"split_type":[0],"sum_hessian":[7.62E2],"tree_param":{"num_deleted":"0","num_feature":"10","num_nodes":"1","size_leaf_vector":"0"}},{"base_weights":[1.364979E-6],"categories":[],"categories_nodes":[],"categories_segments":[],"categories_sizes":[],"default_left":[0],"id":71,"left_children":[-1],"loss_changes":[0E0],"parents":[2147483647],"right_children":[-1],"split_conditions":[4.094937E-7],"split_indices":[0],"split_type":[0],"sum_hessian":[7.62E2],"tree_param":{"num_deleted":"0","num_feature":"10","num_nodes":"1","size_leaf_vector":"0"}},{"base_weights":[1.364979E-6],"categories":[],"categories_nodes":[],"categories_segments":[],"categories_sizes":[],"default_left":[0],"id":72,"left_children":[-1],"loss_changes":[0E0],"parents":[2147483647],"right_children":[-1],"split_conditions":[4.094937E-7],"split_indices":[0],"split_type":[0],"sum_hessian":[7.62E2],"tree_param":{"num_deleted":"0","num_feature":"10","num_nodes":"1","size_leaf_vector":"0"}},{"base_weights":[1.364979E-6],"categories":[],"categories_nodes":[],"categories_segments":[],"categories_sizes":[],"default_left":[0],"id":73,"left_children":[-1],"loss_changes":[0E0],"parents":[2147483647],"right_children":[-1],"split_conditions":[4.094937E-7],"split_indices":[0],"split_type":[0],"sum_hessian":[7.62E2],"tree_param":{"num_deleted":"0","num_feature":"10","num_nodes":"1","size_leaf_vector":"0"}},{"base_weights":[1.364979E-6],"categories":[],"categories_nodes":[],"categories_segments":[],"categories_sizes":[],"default_left":[0],"id":74,"left_children":[-1],"loss_changes":[0E0],"parents":[2147483647],"right_children":[-1],"split_conditions":[4.094937E-7],"split_indices":[0],"split_type":[0],"sum_hessian":[7.62E2],"tree_param":{"num_deleted":"0","num_feature":"10","num_nodes":"1","size_leaf_vector":"0"}},{"base_weights":[1.364979E-6],"categories":[],"categories_nodes":[],"categories_segments":[],"categories_sizes":[],"default_left":[0],"id":75,"left_children":[-1],"loss_changes":[0E0],"parents":[2147483647],"right_children":[-1],"split_conditions":[4.094937E-7],"split_indices":[0],"split_type":[0],"sum_hessian":[7.62E2],"tree_param":{"num_deleted":"0","num_feature":"10","num_nodes":"1","size_leaf_vector":"0"}},{"base_weights":[1.364979E-6],"categories":[],"categories_nodes":[],"categories_segments":[],"categories_sizes":[],"default_left":[0],"id":76,"left_children":[-1],"loss_changes":[0E0],"parents":[2147483647],"right_children":[-1],"split_conditions":[4.094937E-7],"split_indices":[0],"split_type":[0],"sum_hessian":[7.62E2],"tree_param":{"num_deleted":"0","num_feature":"10","num_nodes":"1","size_leaf_vector":"0"}},{"base_weights":[1.364979E-6],"categories":[],"categories_nodes":[],"categories_segments":[],"categories_sizes":[],"default_left":[0],"id":77,"left_children":[-1],"loss_changes":[0E0],"parents":[2147483647],"right_children":[-1],"split_conditions":[4.094937E-7],"split_indices":[0],"split_type":[0],"sum_hessian":[7.62E2],"tree_param":{"num_deleted":"0","num_feature":"10","num_nodes":"1","size_leaf_vector":"0"}},{"base_weights":[1.364979E-6],"categories":[],"categories_nodes":[],"categories_segments":[],"categories_sizes":[],"default_left":[0],"id":78,"left_children":[-1],"loss_changes":[0E0],"parents":[2147483647],"right_children":[-1],"split_conditions":[4.094937E-7],"split_indices":[0],"split_type":[0],"sum_hessian":[7.62E2],"tree_param":{"num_deleted":"0","num_feature":"10","num_nodes":"1","size_leaf_vector":"0"}},{"base_weights":[1.364979E-6],"categories":[],"categories_nodes":[],"categories_segments":[],"categories_sizes":[],"default_left":[0],"id":79,"left_children":[-1],"loss_changes":[0E0],"parents":[2147483647],"right_children":[-1],"split_conditions":[4.094937E-7],"split_indices":[0],"split_type":[0],"sum_hessian":[7.62E2],"tree_param":{"num_deleted":"0","num_feature":"10","num_nodes":"1","size_leaf_vector":"0"}},{"base_weights":[1.364979E-6],"categories":[],"categories_nodes":[],"categories_segments":[],"categories_sizes":[],"default_left":[0],"id":80,"left_children":[-1],"loss_changes":[0E0],"parents":[2147483647],"right_children":[-1],"split_conditions":[4.094937E-7],"split_indices":[0],"split_type":[0],"sum_hessian":[7.62E2],"tree_param":{"num_deleted":"0","num_feature":"10","num_nodes":"1","size_leaf_vector":"0"}},{"base_weights":[1.364979E-6],"categories":[],"categories_nodes":[],"categories_segments":[],"categories_sizes":[],"default_left":[0],"id":81,"left_children":[-1],"loss_changes":[0E0],"parents":[2147483647],"right_children":[-1],"split_conditions":[4.094937E-7],"split_indices":[0],"split_type":[0],"sum_hessian":[7.62E2],"tree_param":{"num_deleted":"0","num_feature":"10","num_nodes":"1","size_leaf_vector":"0"}},{"base_weights":[1.364979E-6],"categories":[],"categories_nodes":[],"categories_segments":[],"categories_sizes":[],"default_left":[0],"id":82,"left_children":[-1],"loss_changes":[0E0],"parents":[2147483647],"right_children":[-1],"split_conditions":[4.094937E-7],"split_indices":[0],"split_type":[0],"sum_hessian":[7.62E2],"tree_param":{"num_deleted":"0","num_feature":"10","num_nodes":"1","size_leaf_vector":"0"}},{"base_weights":[1.364979E-6],"categories":[],"categories_nodes":[],"categories_segments":[],"categories_sizes":[],"default_left":[0],"id":83,"left_children":[-1],"loss_changes":[0E0],"parents":[2147483647],"right_children":[-1],"split_conditions":[4.094937E-7],"split_indices":[0],"split_type":[0],"sum_hessian":[7.62E2],"tree_param":{"num_deleted":"0","num_feature":"10","num_nodes":"1","size_leaf_vector":"0"}},{"base_weights":[1.364979E-6],"categories":[],"categories_nodes":[],"categories_segments":[],"categories_sizes":[],"default_left":[0],"id":84,"left_children":[-1],"loss_changes":[0E0],"parents":[2147483647],"right_children":[-1],"split_conditions":[4.094937E-7],"split_indices":[0],"split_type":[0],"sum_hessian":[7.62E2],"tree_param":{"num_deleted":"0","num_feature":"10","num_nodes":"1","size_leaf_vector":"0"}},{"base_weights":[1.364979E-6],"categories":[],"categories_nodes":[],"categories_segments":[],"categories_sizes":[],"default_left":[0],"id":85,"left_children":[-1],"loss_changes":[0E0],"parents":[2147483647],"right_children":[-1],"split_conditions":[4.094937E-7],"split_indices":[0],"split_type":[0],"sum_hessian":[7.62E2],"tree_param":{"num_deleted":"0","num_feature":"10","num_nodes":"1","size_leaf_vector":"0"}},{"base_weights":[1.364979E-6],"categories":[],"categories_nodes":[],"categories_segments":[],"categories_sizes":[],"default_left":[0],"id":86,"left_children":[-1],"loss_changes":[0E0],"parents":[2147483647],"right_children":[-1],"split_conditions":[4.094937E-7],"split_indices":[0],"split_type":[0],"sum_hessian":[7.62E2],"tree_param":{"num_deleted":"0","num_feature":"10","num_nodes":"1","size_leaf_vector":"0"}},{"base_weights":[1.364979E-6],"categories":[],"categories_nodes":[],"categories_segments":[],"categories_sizes":[],"default_left":[0],"id":87,"left_children":[-1],"loss_changes":[0E0],"parents":[2147483647],"right_children":[-1],"split_conditions":[4.094937E-7],"split_indices":[0],"split_type":[0],"sum_hessian":[7.62E2],"tree_param":{"num_deleted":"0","num_feature":"10","num_nodes":"1","size_leaf_vector":"0"}},{"base_weights":[1.364979E-6],"categories":[],"categories_nodes":[],"categories_segments":[],"categories_sizes":[],"default_left":[0],"id":88,"left_children":[-1],"loss_changes":[0E0],"parents":[2147483647],"right_children":[-1],"split_conditions":[4.094937E-7],"split_indices":[0],"split_type":[0],"sum_hessian":[7.62E2],"tree_param":{"num_deleted":"0","num_feature":"10","num_nodes":"1","size_leaf_vector":"0"}},{"base_weights":[1.364979E-6],"categories":[],"categories_nodes":[],"categories_segments":[],"categories_sizes":[],"default_left":[0],"id":89,"left_children":[-1],"loss_changes":[0E0],"parents":[2147483647],"right_children":[-1],"split_conditions":[4.094937E-7],"split_indices":[0],"split_type":[0],"sum_hessian":[7.62E2],"tree_param":{"num_deleted":"0","num_feature":"10","num_nodes":"1","size_leaf_vector":"0"}},{"base_weights":[1.364979E-6],"categories":[],"categories_nodes":[],"categories_segments":[],"categories_sizes":[],"default_left":[0],"id":90,"left_children":[-1],"loss_changes":[0E0],"parents":[2147483647],"right_children":[-1],"split_conditions":[4.094937E-7],"split_indices":[0],"split_type":[0],"sum_hessian":[7.62E2],"tree_param":{"num_deleted":"0","num_feature":"10","num_nodes":"1","size_leaf_vector":"0"}},{"base_weights":[1.364979E-6],"categories":[],"categories_nodes":[],"categories_segments":[],"categories_sizes":[],"default_left":[0],"id":91,"left_children":[-1],"loss_changes":[0E0],"parents":[2147483647],"right_children":[-1],"split_conditions":[4.094937E-7],"split_indices":[0],"split_type":[0],"sum_hessian":[7.62E2],"tree_param":{"num_deleted":"0","num_feature":"10","num_nodes":"1","size_leaf_vector":"0"}},{"base_weights":[1.364979E-6],"categories":[],"categories_nodes":[],"categories_segments":[],"categories_sizes":[],"default_left":[0],"id":92,"left_children":[-1],"loss_changes":[0E0],"parents":[2147483647],"right_children":[-1],"split_conditions":[4.094937E-7],"split_indices":[0],"split_type":[0],"sum_hessian":[7.62E2],"tree_param":{"num_deleted":"0","num_feature":"10","num_nodes":"1","size_leaf_vector":"0"}},{"base_weights":[1.364979E-6],"categories":[],"categories_nodes":[],"categories_segments":[],"categories_sizes":[],"default_left":[0],"id":93,"left_children":[-1],"loss_changes":[0E0],"parents":[2147483647],"right_children":[-1],"split_conditions":[4.094937E-7],"split_indices":[0],"split_type":[0],"sum_hessian":[7.62E2],"tree_param":{"num_deleted":"0","num_feature":"10","num_nodes":"1","size_leaf_vector":"0"}},{"base_weights":[1.364979E-6],"categories":[],"categories_nodes":[],"categories_segments":[],"categories_sizes":[],"default_left":[0],"id":94,"left_children":[-1],"loss_changes":[0E0],"parents":[2147483647],"right_children":[-1],"split_conditions":[4.094937E-7],"split_indices":[0],"split_type":[0],"sum_hessian":[7.62E2],"tree_param":{"num_deleted":"0","num_feature":"10","num_nodes":"1","size_leaf_vector":"0"}},{"base_weights":[1.364979E-6],"categories":[],"categories_nodes":[],"categories_segments":[],"categories_sizes":[],"default_left":[0],"id":95,"left_children":[-1],"loss_changes":[0E0],"parents":[2147483647],"right_children":[-1],"split_conditions":[4.094937E-7],"split_indices":[0],"split_type":[0],"sum_hessian":[7.62E2],"tree_param":{"num_deleted":"0","num_feature":"10","num_nodes":"1","size_leaf_vector":"0"}},{"base_weights":[1.364979E-6],"categories":[],"categories_nodes":[],"categories_segments":[],"categories_sizes":[],"default_left":[0],"id":96,"left_children":[-1],"loss_changes":[0E0],"parents":[2147483647],"right_children":[-1],"split_conditions":[4.094937E-7],"split_indices":[0],"split_type":[0],"sum_hessian":[7.62E2],"tree_param":{"num_deleted":"0","num_feature":"10","num_nodes":"1","size_leaf_vector":"0"}},{"base_weights":[1.364979E-6],"categories":[],"categories_nodes":[],"categories_segments":[],"categories_sizes":[],"default_left":[0],"id":97,"left_children":[-1],"loss_changes":[0E0],"parents":[2147483647],"right_children":[-1],"split_conditions":[4.094937E-7],"split_indices":[0],"split_type":[0],"sum_hessian":[7.62E2],"tree_param":{"num_deleted":"0","num_feature":"10","num_nodes":"1","size_leaf_vector":"0"}},{"base_weights":[1.364979E-6],"categories":[],"categories_nodes":[],"categories_segments":[],"categories_sizes":[],"default_left":[0],"id":98,"left_children":[-1],"loss_changes":[0E0],"parents":[2147483647],"right_children":[-1],"split_conditions":[4.094937E-7],"split_indices":[0],"split_type":[0],"sum_hessian":[7.62E2],"tree_param":{"num_deleted":"0","num_feature":"10","num_nodes":"1","size_leaf_vector":"0"}},{"base_weights":[1.364979E-6],"categories":[],"categories_nodes":[],"categories_segments":[],"categories_sizes":[],"default_left":[0],"id":99,"left_children":[-1],"loss_changes":[0E0],"parents":[2147483647],"right_children":[-1],"split_conditions":[4.094937E-7],"split_indices":[0],"split_type":[0],"sum_hessian":[7.62E2],"tree_param":{"num_deleted":"0","num_feature":"10","num_nodes":"1","size_leaf_vector":"0"}}]},"name":"gbtree"},"learner_model_param":{"base_score":"5E-1","num_class":"0","num_feature":"10","num_target":"1"},"objective":{"name":"reg:squarederror","reg_loss_param":{"scale_pos_weight":"1"}}},"version":[1,6,1]}