{"learner":{"attributes":{"best_iteration":"46","best_ntree_limit":"47","best_score":"0.7432005101027731","scikit_learn":"{\"n_estimators\": 100, \"objective\": \"reg:squarederror\", \"max_depth\": 12, \"max_leaves\": null, \"max_bin\": null, \"grow_policy\": null, \"learning_rate\": null, \"verbosity\": null, \"booster\": null, \"tree_method\": \"gpu_hist\", \"gamma\": 0.7294483043264607, \"min_child_weight\": 5.0, \"max_delta_step\": null, \"subsample\": null, \"sampling_method\": null, \"colsample_bytree\": 0.9338168962250009, \"colsample_bylevel\": null, \"colsample_bynode\": null, \"reg_alpha\": 0.0, \"reg_lambda\": 0.2153215010675396, \"scale_pos_weight\": null, \"base_score\": null, \"missing\": NaN, \"num_parallel_tree\": null, \"random_state\": null, \"n_jobs\": null, \"monotone_constraints\": null, \"interaction_constraints\": null, \"importance_type\": null, \"gpu_id\": null, \"validate_parameters\": null, \"predictor\": null, \"enable_categorical\": false, \"max_cat_to_onehot\": null, \"eval_metric\": \"rmse\", \"early_stopping_rounds\": 100, \"callbacks\": null, \"evals_result_\": {\"validation_0\": {\"rmse\": [11.630398747992002, 8.171675589423392, 5.751915504739799, 4.060574578576166, 2.8776297187705917, 2.0549168197332546, 1.4829226632009638, 1.0864126909985896, 0.8151932036568387, 0.6330643178739789, 0.519269380865441, 0.44559494008567846, 0.4067547833299148, 0.3886697318602604, 0.3798178690316918, 0.37540316874150637, 0.3732202726076587, 0.3721457561777452, 0.3716179756798623, 0.3713591066382913, 0.3712321885685752, 0.3711699361047211, 0.37113942057728827, 0.3711244564763929, 0.3711170700730094, 0.37111342221705984, 0.371111606611358, 0.37111074616965756, 0.37111037802169244, 0.37111022517434955, 0.37111006949866626, 0.37111007386178624, 0.3711099944961522, 0.37110992867818404, 0.3711099769340731, 0.37110997353734504, 0.3711099726145668, 0.3711099719887079, 0.37110991733241894, 0.3711099718664538, 0.37110997115115885, 0.3711099711053859, 0.37110997111177974, 0.37110991754007594, 0.3711099714415042, 0.3711100259069296, 0.37111007999475926, 0.37111007999475926, 0.37111007999475926, 0.37111007999475926, 0.37111007999475926, 0.37111007999475926, 0.37111007999475926, 0.37111007999475926, 0.37111007999475926, 0.37111007999475926, 0.37111007999475926, 0.37111007999475926, 0.37111007999475926, 0.37111007999475926, 0.37111007999475926, 0.37111007999475926, 0.37111007999475926, 0.37111007999475926, 0.37111007999475926, 0.37111007999475926, 0.37111007999475926, 0.37111007999475926, 0.37111007999475926, 0.37111007999475926, 0.37111007999475926, 0.37111007999475926, 0.37111007999475926, 0.37111007999475926, 0.37111007999475926, 0.37111007999475926, 0.37111007999475926, 0.37111007999475926, 0.37111007999475926, 0.37111007999475926, 0.37111007999475926, 0.37111007999475926, 0.37111007999475926, 0.37111007999475926, 0.37111007999475926, 0.37111007999475926, 0.37111007999475926, 0.37111007999475926, 0.37111007999475926, 0.37111007999475926, 0.37111007999475926, 0.37111007999475926, 0.37111007999475926, 0.37111007999475926, 0.37111007999475926, 0.37111007999475926, 0.37111007999475926, 0.37111007999475926, 0.37111007999475926, 0.37111007999475926]}, \"validation_1\": {\"rmse\": [11.73396497339538, 8.261498106999777, 5.825687106586041, 4.127989160736245, 2.9563541631299626, 2.1356916770642917, 1.599601264025221, 1.2452132656126158, 1.0329011820012388, 0.9023875252006228, 0.8299979927879532, 0.7943351995855066, 0.7707866962718979, 0.7579680686068986, 0.7517085184760917, 0.7482500788558955, 0.7462885019777913, 0.7451424586384906, 0.7444520241948999, 0.7440236293061718, 0.7437506960548911, 0.7435729211116877, 0.7434549670318619, 0.7433755405885376, 0.7433215955033248, 0.7432846109342836, 0.7432591277238884, 0.743241441170267, 0.7432290659129633, 0.7432204234626568, 0.7432144945520206, 0.7432102491656595, 0.7432073990161778, 0.7432054370448979, 0.7432039590717102, 0.7432029736234533, 0.7432022906055078, 0.743201795455242, 0.743201511062803, 0.7432012099146039, 0.7432010141737115, 0.7432009133002574, 0.7432008187785965, 0.7432008227173788, 0.7432007208185468, 0.7432006139930084, 0.7432005101027731, 0.7432005101027731, 0.7432005101027731, 0.7432005101027731, 0.7432005101027731, 0.7432005101027731, 0.7432005101027731, 0.7432005101027731, 0.7432005101027731, 0.7432005101027731, 0.7432005101027731, 0.7432005101027731, 0.7432005101027731, 0.7432005101027731, 0.7432005101027731, 0.7432005101027731, 0.7432005101027731, 0.7432005101027731, 0.7432005101027731, 0.7432005101027731, 0.7432005101027731, 0.7432005101027731, 0.7432005101027731, 0.7432005101027731, 0.7432005101027731, 0.7432005101027731, 0.7432005101027731, 0.7432005101027731, 0.7432005101027731, 0.7432005101027731, 0.7432005101027731, 0.7432005101027731, 0.7432005101027731, 0.7432005101027731, 0.7432005101027731, 0.7432005101027731, 0.7432005101027731, 0.7432005101027731, 0.7432005101027731, 0.7432005101027731, 0.7432005101027731, 0.7432005101027731, 0.7432005101027731, 0.7432005101027731, 0.7432005101027731, 0.7432005101027731, 0.7432005101027731, 0.7432005101027731, 0.7432005101027731, 0.7432005101027731, 0.7432005101027731, 0.7432005101027731, 0.7432005101027731, 0.7432005101027731]}}, \"_estimator_type\": \"regressor\"}"},"feature_names":["naRing","nAromAtom","ETA_epsilon_3","fMF","AMID","BCUTp-1h","AATS2p","Mv","Xch-6d","nHRing","GATS1v","AMID_X","NsCH3","MIC0","AATS0i","AATS2s","AATSC0i","AXp-2dv","MID_h","Xp-0dv","AATS2i","GATS1p","IC0","ETA_shape_p","AATS2d","SpMAD_A","AATS3d","TopoPSA(NO)","AETA_eta_F","TopoPSA","Xc-5d","NdCH2","AATS1se","RotRatio","Xp-2d","Kier2","ATS5d","ATS4i","MATS1v","BCUTse-1h","ATSC0d","ATSC1p","MZ","SpMAD_Dzp","ETA_dEpsilon_D","NsOH","ETA_beta_s","ATSC0s","VSA_EState9","VE1_DzZ"],"feature_types":["int","int","float","float","float","float","float","float","float","int","float","float","int","float","float","float","float","float","float","float","float","float","float","float","float","float","float","float","float","float","float","int","float","float","float","float","float","float","float","float","float","float","float","float","float","int","float","float","float","float"],"gradient_booster":{"model":{"gbtree_model_param":{"num_parallel_tree":"1","num_trees":"100","size_leaf_vector":"0"},"tree_info":[0,0,0,0,0,0,0,0,0,0,0,0,0,0,0,0,0,0,0,0,0,0,0,0,0,0,0,0,0,0,0,0,0,0,0,0,0,0,0,0,0,0,0,0,0,0,0,0,0,0,0,0,0,0,0,0,0,0,0,0,0,0,0,0,0,0,0,0,0,0,0,0,0,0,0,0,0,0,0,0,0,0,0,0,0,0,0,0,0,0,0,0,0,0,0,0,0,0,0,0],"trees":[{"base_weights":[1.647146E1,1.5510851E1,1.8228266E1,1.517981E1,1.6374435E1,5.726889E0,5.193347E0,4.573358E0,3.467621E0,4.970643E0,4.0997243E0],"categories":[],"categories_nodes":[],"categories_segments":[],"categories_sizes":[],"default_left":[0,0,0,1,0,0,0,0,0,0,0],"id":0,"left_children":[1,3,5,7,9,-1,-1,-1,-1,-1,-1],"loss_changes":[1.2254375E3,8.7765625E1,1.4071875E2,4.646875E1,2.1910156E1,0E0,0E0,0E0,0E0,0E0,0E0],"parents":[2147483647,0,0,1,1,2,2,3,3,4,4],"right_children":[2,4,6,8,10,-1,-1,-1,-1,-1,-1],"split_conditions":[2.0689656E-1,1.3263241E0,9.970096E-1,1.1236705E0,3.0393484E0,5.726889E0,5.193347E0,4.573358E0,3.467621E0,4.970643E0,4.0997243E0],"split_indices":[3,6,10,11,16,0,0,0,0,0,0],"split_type":[0,0,0,0,0,0,0,0,0,0,0],"sum_hessian":[7.62E2,4.94E2,2.68E2,3.6E2,1.34E2,1.36E2,1.32E2,3.53E2,7E0,1.24E2,1E1],"tree_param":{"num_deleted":"0","num_feature":"50","num_nodes":"11","size_leaf_vector":"0"}},{"base_weights":[1.1537941E1,1.0883573E1,1.2813577E1,1.1506047E1,1.0595801E1,1.2218711E1,4.0440316E0,1.1195094E1,3.7913291E0,2.6627197E0,1.067289E1,2.9890451E0,3.7022371E0,3.3983648E0,2.8384364E0,2.6193557E0,1.0721141E1,3.1556199E0,3.337426E0],"categories":[],"categories_nodes":[],"categories_segments":[],"categories_sizes":[],"default_left":[0,1,0,1,1,0,0,0,0,0,0,0,0,0,0,0,0,0,0],"id":1,"left_children":[1,3,5,7,9,11,-1,13,-1,-1,15,-1,-1,-1,-1,-1,17,-1,-1],"loss_changes":[6.0621875E2,6.425E1,6.651953E1,2.4861328E1,2.5773438E1,1.1578125E1,0E0,5.748047E0,0E0,0E0,1.096875E1,0E0,0E0,0E0,0E0,0E0,1.2070312E0,0E0,0E0],"parents":[2147483647,0,0,1,1,2,2,3,3,4,4,5,5,7,7,10,10,16,16],"right_children":[2,4,6,8,10,12,-1,14,-1,-1,16,-1,-1,-1,-1,-1,18,-1,-1],"split_conditions":[2.4E-1,1.2390679E0,1.5530833E0,-2.2614773E-2,1.069726E-1,9.54434E-1,4.0440316E0,1.9050232E2,3.7913291E0,2.6627197E0,7.238456E0,2.9890451E0,3.7022371E0,3.3983648E0,2.8384364E0,2.6193557E0,3.73E1,3.1556199E0,3.337426E0],"split_indices":[3,21,6,38,17,22,0,14,0,0,32,0,0,0,0,0,29,0,0],"split_type":[0,0,0,0,0,0,0,0,0,0,0,0,0,0,0,0,0,0,0],"sum_hessian":[7.62E2,5.05E2,2.57E2,1.57E2,3.48E2,1.38E2,1.19E2,1.25E2,3.2E1,1.6E1,3.32E2,8E0,1.3E2,1.15E2,1E1,9E0,3.23E2,2.19E2,1.04E2],"tree_param":{"num_deleted":"0","num_feature":"50","num_nodes":"19","size_leaf_vector":"0"}},{"base_weights":[8.085751E0,7.6700773E0,9.101317E0,7.4610915E0,8.299649E0,2.517571E0,2.816028E0,7.501321E0,1.2105213E0,2.7756758E0,8.050059E0,7.333206E0,2.3552682E0,1.8903064E0,8.122343E0,2.2331705E0,2.024289E0,2.3098438E0,2.568467E0],"categories":[],"categories_nodes":[],"categories_segments":[],"categories_sizes":[],"default_left":[0,0,0,0,0,0,0,0,0,0,0,1,0,0,0,0,0,0,0],"id":2,"left_children":[1,3,5,7,9,-1,-1,11,-1,-1,13,15,-1,-1,17,-1,-1,-1,-1],"loss_changes":[3.0673047E2,5.8007812E1,2.7632812E1,4.988086E1,1.5635742E1,0E0,0E0,1.1359375E1,0E0,0E0,2.534668E0,7.0898438E0,0E0,0E0,4.790039E0,0E0,0E0,0E0,0E0],"parents":[2147483647,0,0,1,1,2,2,3,3,4,4,7,7,10,10,11,11,14,14],"right_children":[2,4,6,8,10,-1,-1,12,-1,-1,14,16,-1,-1,18,-1,-1,-1,-1],"split_conditions":[2.9166666E-1,1.3825032E0,2.8E0,2.532692E0,1E0,2.517571E0,2.816028E0,3.73E1,1.2105213E0,2.7756758E0,1.4789563E2,6E-1,2.3552682E0,1.8903064E0,-4.8794E-2,2.2331705E0,2.024289E0,2.3098438E0,2.568467E0],"split_indices":[3,6,24,30,47,0,0,29,0,0,20,23,0,0,38,0,0,0,0],"split_type":[0,0,0,0,0,0,0,0,0,0,0,0,0,0,0,0,0,0,0],"sum_hessian":[7.62E2,5.42E2,2.2E2,4.09E2,1.33E2,6.5E1,1.55E2,4.04E2,5E0,2.6E1,1.07E2,2.76E2,1.28E2,5E0,1.02E2,2.3E2,4.6E1,5.4E1,4.8E1],"tree_param":{"num_deleted":"0","num_feature":"50","num_nodes":"19","size_leaf_vector":"0"}},{"base_weights":[5.666438E0,5.339823E0,6.3223224E0,5.1252375E0,5.77339E0,1.751791E0,6.564673E0,5.1821747E0,3.7289917E0,5.919482E0,1.3943992E0,2.0761926E0,1.9140288E0,5.0477057E0,1.6518127E0,1.3518472E0,9.12987E-1,5.826332E0,2.265907E0,1.40588E0,1.5557004E0,5.7172894E0,2.0604508E0,1.6405538E0,1.8074616E0],"categories":[],"categories_nodes":[],"categories_segments":[],"categories_sizes":[],"default_left":[0,0,0,1,0,0,0,0,0,0,0,0,0,0,0,0,0,0,0,0,0,0,0,0,0],"id":3,"left_children":[1,3,5,7,9,-1,11,13,15,17,-1,-1,-1,19,-1,-1,-1,21,-1,-1,-1,23,-1,-1,-1],"loss_changes":[1.5601367E2,4.109668E1,2.1270508E1,2.3125E1,2.1567871E1,0E0,1.4135742E0,8.352539E0,4.622574E0,1.2925781E1,0E0,0E0,0E0,6.496582E0,0E0,0E0,0E0,7.473633E0,0E0,0E0,0E0,2.7167969E0,0E0,0E0,0E0],"parents":[2147483647,0,0,1,1,2,2,3,3,4,4,6,6,7,7,8,8,9,9,13,13,17,17,21,21],"right_children":[2,4,6,8,10,-1,12,14,16,18,-1,-1,-1,20,-1,-1,-1,22,-1,-1,-1,24,-1,-1,-1],"split_conditions":[5.103104E-2,1.6730585E1,5.958131E-1,1.8847282E2,3.0393484E0,1.751791E0,7.881699E-1,-8.833515E-2,2.2631578E0,4.111747E0,1.3943992E0,2.0761926E0,1.9140288E0,1.579E1,1.6518127E0,1.3518472E0,9.12987E-1,3.9650675E-2,2.265907E0,1.40588E0,1.5557004E0,2.75E0,2.0604508E0,1.6405538E0,1.8074616E0],"split_indices":[8,13,7,20,16,0,10,38,26,6,0,0,0,29,0,0,0,38,0,0,0,46,0,0,0],"split_type":[0,0,0,0,0,0,0,0,0,0,0,0,0,0,0,0,0,0,0,0,0,0,0,0,0],"sum_hessian":[7.62E2,5.1E2,2.52E2,3.43E2,1.67E2,8.6E1,1.66E2,3.29E2,1.4E1,1.47E2,2E1,5.4E1,1.12E2,2.35E2,9.4E1,6E0,8E0,1.4E2,7E0,6.7E1,1.68E2,1.28E2,1.2E1,7.3E1,5.5E1],"tree_param":{"num_deleted":"0","num_feature":"50","num_nodes":"25","size_leaf_vector":"0"}},{"base_weights":[3.972662E0,3.7726142E0,4.530134E0,3.9472609E0,3.5297544E0,4.100325E0,4.7494216E0,4.0170145E0,9.547089E-1,3.5767946E0,6.847017E-1,1.1597291E0,1.3883113E0,1.601559E0,4.651674E0,4.900442E0,3.9663208E0,3.5131865E0,4.1325746E0,4.418487E0,1.4578931E0,1.7623369E0,1.289963E0,3.7277734E0,4.170598E0,3.2852628E0,1.099216E0,1.328668E0,1.0153162E0,1.0289829E0,1.3501728E0,3.644347E0,4.239488E0,4.4175887E0,3.8429034E0,7.82535E-1,1.0046808E0,9.644518E-1,3.7272952E0,1.3581867E0,1.0171103E0,4.307272E0,1.6398966E0,1.1967185E0,8.872765E-1,8.4732705E-1,1.1311783E0,4.3990955E0,1.0580759E0,1.1275325E0,1.3564371E0],"categories":[],"categories_nodes":[],"categories_segments":[],"categories_sizes":[],"default_left":[0,1,1,1,1,0,0,0,0,0,0,0,0,0,0,0,0,0,0,0,0,0,0,0,1,0,0,0,0,0,0,0,0,1,0,0,0,0,0,0,0,0,0,0,0,0,0,0,0,0,0],"id":4,"left_children":[1,3,5,7,9,11,13,15,-1,17,-1,-1,-1,-1,19,21,23,25,27,29,-1,-1,-1,31,33,35,-1,-1,-1,-1,-1,37,39,41,43,-1,-1,-1,45,-1,-1,47,-1,-1,-1,-1,-1,49,-1,-1,-1],"loss_changes":[8.132324E1,2.084668E1,1.4677246E1,1.4599121E1,1.2161621E1,4.710205E0,2.2089844E0,9.125488E0,0E0,4.9418945E0,0E0,0E0,0E0,0E0,9.1552734E-1,3.4614563E0,1.0404785E1,4.4990234E0,1.6976929E0,1.237915E0,0E0,0E0,0E0,2.317505E0,8.502686E0,1.748291E0,0E0,0E0,0E0,0E0,0E0,1.5246582E0,9.020386E-1,4.67334E0,6.027588E0,0E0,0E0,0E0,1.4290771E0,0E0,0E0,2.1920166E0,0E0,0E0,0E0,0E0,0E0,1.6883545E0,0E0,0E0,0E0],"parents":[2147483647,0,0,1,1,2,2,3,3,4,4,5,5,6,6,7,7,9,9,14,14,15,15,16,16,17,17,18,18,19,19,23,23,24,24,25,25,31,31,32,32,33,33,34,34,38,38,41,41,47,47],"right_children":[2,4,6,8,10,12,14,16,-1,18,-1,-1,-1,-1,20,22,24,26,28,30,-1,-1,-1,32,34,36,-1,-1,-1,-1,-1,38,40,42,44,-1,-1,-1,46,-1,-1,48,-1,-1,-1,-1,-1,50,-1,-1,-1],"split_conditions":[3.1578946E-1,1.3866689E0,2.0270407E0,1.795657E2,2.36E0,2.079389E-1,1.42768E2,5E-1,9.547089E-1,1.496245E1,6.847017E-1,1.1597291E0,1.3883113E0,1.601559E0,1.51998E0,3.2803905E0,3.3475704E0,3.75E0,4.75E0,1.1807338E0,1.4578931E0,1.7623369E0,1.289963E0,2.1E0,3.7139037E0,2.9867156E0,1.099216E0,1.328668E0,1.0153162E0,1.0289829E0,1.3501728E0,1.6508883E0,3E0,2.2777778E-1,3E0,7.82535E-1,1.0046808E0,9.644518E-1,1.8358499E0,1.3581867E0,1.0171103E0,2.8116113E-1,1.6398966E0,1.1967185E0,8.872765E-1,8.4732705E-1,1.1311783E0,1.3E0,1.0580759E0,1.1275325E0,1.3564371E0],"split_indices":[3,10,18,20,26,41,20,47,0,13,0,0,0,0,22,39,18,46,15,25,0,0,0,26,39,39,0,0,0,0,0,18,24,44,45,0,0,0,5,0,0,41,0,0,0,0,0,26,0,0,0],"split_type":[0,0,0,0,0,0,0,0,0,0,0,0,0,0,0,0,0,0,0,0,0,0,0,0,0,0,0,0,0,0,0,0,0,0,0,0,0,0,0,0,0,0,0,0,0,0,0,0,0,0,0],"sum_hessian":[7.62E2,5.62E2,2E2,3.25E2,2.37E2,6.9E1,1.31E2,2.97E2,2.8E1,2.28E2,9E0,4.9E1,2E1,1.7E1,1.14E2,1.5E1,2.82E2,2.06E2,2.2E1,5.6E1,5.8E1,5E0,1E1,1.32E2,1.5E2,8.4E1,1.22E2,1.5E1,7E0,5E0,5.1E1,1.15E2,1.7E1,8.4E1,6.6E1,8E0,7.6E1,2E1,9.5E1,1.2E1,5E0,7.7E1,7E0,5.6E1,1E1,5E0,9E1,6.8E1,9E0,1.2E1,5.6E1],"tree_param":{"num_deleted":"0","num_feature":"50","num_nodes":"51","size_leaf_vector":"0"}},{"base_weights":[2.7894776E0,2.6501482E0,3.205458E0,2.4934473E0,2.8196723E0,3.427557E0,3.0111008E0,2.5129366E0,3.8730896E-1,5.5271095E-1,2.8669727E0,1.2670196E0,3.3575647E0,8.805516E-1,1.013852E0,2.384103E0,7.975818E-1,2.9337068E0,2.2724276E0,9.47202E-1,3.5760243E0,6.5195376E-1,2.4950826E0,2.8422163E0,3.3707082E0,7.322924E-1,4.8551553E-1,1.1058964E0,8.2412237E-1,9.3114555E-1,7.329933E-1,2.9073908E0,2.540587E0,3.5312128E0,7.660472E-1,2.5942414E0,2.985459E0,6.0604477E-1,7.951186E-1,3.9107885E0,9.6917707E-1,8.3333737E-1,6.5425783E-1,9.1001457E-1,7.58967E-1,9.5748526E-1,1.324074E0],"categories":[],"categories_nodes":[],"categories_segments":[],"categories_sizes":[],"default_left":[0,0,0,0,0,0,1,0,0,0,1,0,0,0,0,0,0,0,0,0,0,0,0,0,0,0,0,0,0,0,0,0,0,0,0,0,0,0,0,0,0,0,0,0,0,0,0],"id":5,"left_children":[1,3,5,7,9,11,13,15,-1,-1,17,-1,19,-1,-1,21,-1,23,25,-1,27,-1,29,31,33,-1,-1,-1,-1,-1,-1,35,37,39,-1,41,43,-1,-1,45,-1,-1,-1,-1,-1,-1,-1],"loss_changes":[4.2347656E1,1.3686768E1,5.9887695E0,6.3132324E0,1.1492676E1,1.8048096E0,7.513428E-1,4.1567383E0,0E0,0E0,8.888916E0,0E0,1.1212769E0,0E0,0E0,2.5360107E0,0E0,7.2613525E0,2.1495209E0,0E0,1.2221375E0,0E0,1.588501E0,2.227539E0,3.20224E0,0E0,0E0,0E0,0E0,0E0,0E0,2.2001953E0,9.167633E-1,9.5565796E-1,0E0,1.2158508E0,1.0812988E0,0E0,0E0,1.7454529E0,0E0,0E0,0E0,0E0,0E0,0E0,0E0],"parents":[2147483647,0,0,1,1,2,2,3,3,4,4,5,5,6,6,7,7,10,10,12,12,15,15,17,17,18,18,20,20,22,22,23,23,24,24,31,31,32,32,33,33,35,35,36,36,39,39],"right_children":[2,4,6,8,10,12,14,16,-1,-1,18,-1,20,-1,-1,22,-1,24,26,-1,28,-1,30,32,34,-1,-1,-1,-1,-1,-1,36,38,40,-1,42,44,-1,-1,46,-1,-1,-1,-1,-1,-1,-1],"split_conditions":[1E0,1.3609641E0,8.791816E-1,1.2904385E2,2.0412414E0,5.8925565E-2,2.580645E-1,-1.15832835E-1,3.8730896E-1,5.5271095E-1,9.261092E0,1.2670196E0,1.3666421E0,8.805516E-1,1.013852E0,1.1079685E1,7.975818E-1,-2.2614773E-2,1.3499902E0,9.47202E-1,1E0,6.5195376E-1,5.0621622E2,1E0,8.835059E0,7.322924E-1,4.8551553E-1,1.1058964E0,8.2412237E-1,9.3114555E-1,7.329933E-1,3.1254573E0,1.4285715E-1,1.012899E0,7.660472E-1,3.7047498E0,1E0,6.0604477E-1,7.951186E-1,5.6045854E-1,9.6917707E-1,8.3333737E-1,6.5425783E-1,9.1001457E-1,7.58967E-1,9.5748526E-1,1.324074E0],"split_indices":[0,22,10,47,19,8,23,38,0,0,18,0,16,0,0,13,0,38,6,0,45,0,37,31,32,0,0,0,0,0,0,19,33,25,0,39,45,0,0,21,0,0,0,0,0,0,0],"split_type":[0,0,0,0,0,0,0,0,0,0,0,0,0,0,0,0,0,0,0,0,0,0,0,0,0,0,0,0,0,0,0,0,0,0,0,0,0,0,0,0,0,0,0,0,0,0,0],"sum_hessian":[7.62E2,5.72E2,1.9E2,2.99E2,2.73E2,8.7E1,1.03E2,2.94E2,5E0,1.3E1,2.6E2,6E0,8.1E1,8.7E1,1.6E1,1.58E2,1.36E2,2.33E2,2.7E1,4.4E1,3.7E1,5.6E1,1.02E2,1.94E2,3.9E1,2.1E1,6E0,3.2E1,5E0,7E0,9.5E1,1.58E2,3.6E1,3.2E1,7E0,3.3E1,1.25E2,7E0,2.9E1,1.3E1,1.9E1,2.2E1,1.1E1,1.12E2,1.3E1,6E0,7E0],"tree_param":{"num_deleted":"0","num_feature":"50","num_nodes":"47","size_leaf_vector":"0"}},{"base_weights":[1.9582516E0,1.8274677E0,2.1908882E0,1.8005724E0,2.5880904E0,1.9149023E0,2.3176148E0,1.7346466E0,1.9592836E0,9.152666E-1,6.755871E-1,2.0459037E0,1.4589306E0,2.4055235E0,1.9748771E0,1.7484522E0,3.4128746E-1,2.0628755E0,1.5611327E0,5.8087325E-1,7.6688373E-1,1.6456578E0,2.9439494E-1,2.2801812E0,2.5887144E0,5.117245E-1,6.5577173E-1,1.7167559E0,6.1145586E-1,2.005276E0,7.90443E-1,1.34424E0,6.001338E-1,3.2672238E-1,5.766597E-1,2.1506574E0,7.424556E-1,7.9886955E-1,5.9546804E-1,1.7025121E0,6.366376E-1,1.6319562E0,2.1070905E0,4.610043E-1,2.1819258E-1,6.8699616E-1,5.5217206E-1,4.442946E-1,1.7348813E0,3.8122365E-1,5.5717385E-1,2.0443287E0,8.2596576E-1,5.2477324E-1,3.9551866E-1,2.099342E0,4.481132E-1,5.1384574E-1,6.4915013E-1],"categories":[],"categories_nodes":[],"categories_segments":[],"categories_sizes":[],"default_left":[0,0,0,0,0,0,0,0,0,0,0,0,0,0,0,0,0,0,0,0,0,0,0,0,0,0,0,0,0,0,0,0,0,0,0,0,0,0,0,0,0,0,1,0,0,0,0,0,0,0,0,0,0,0,0,0,0,0,0],"id":6,"left_children":[1,3,5,7,9,11,13,15,17,-1,-1,19,21,23,25,27,-1,29,31,-1,-1,33,-1,35,37,-1,-1,39,-1,41,-1,43,-1,-1,-1,45,-1,-1,-1,47,-1,49,51,-1,-1,-1,-1,-1,53,-1,-1,55,-1,-1,-1,57,-1,-1,-1],"loss_changes":[2.2328125E1,9.004517E0,8.600098E0,4.2194824E0,1.043129E0,4.566925E0,4.5877075E0,2.3428955E0,4.9660645E0,0E0,0E0,2.6961365E0,1.4551506E0,2.109314E0,1.4243469E0,2.2607422E0,0E0,2.4273071E0,2.2047272E0,0E0,0E0,1.737236E0,0E0,1.1034546E0,1.4696045E0,0E0,0E0,9.381714E-1,0E0,3.0306702E0,0E0,2.1593704E0,0E0,0E0,0E0,1.4779663E0,0E0,0E0,0E0,1.5134888E0,0E0,1.2996407E0,1.9193115E0,0E0,0E0,0E0,0E0,0E0,1.0001221E0,0E0,0E0,1.4820251E0,0E0,0E0,0E0,8.0267334E-1,0E0,0E0,0E0],"parents":[2147483647,0,0,1,1,2,2,3,3,4,4,5,5,6,6,7,7,8,8,11,11,12,12,13,13,14,14,15,15,17,17,18,18,21,21,23,23,24,24,27,27,29,29,31,31,35,35,39,39,41,41,42,42,48,48,51,51,55,55],"right_children":[2,4,6,8,10,12,14,16,18,-1,-1,20,22,24,26,28,-1,30,32,-1,-1,34,-1,36,38,-1,-1,40,-1,42,-1,44,-1,-1,-1,46,-1,-1,-1,48,-1,50,52,-1,-1,-1,-1,-1,54,-1,-1,56,-1,-1,-1,58,-1,-1,-1],"split_conditions":[1.8518518E-1,2.1111112E0,1.579E1,1.4832262E0,1.1240938E0,3.676539E0,8.201623E3,2.0018518E1,2.1666667E0,9.152666E-1,6.755871E-1,2.7666667E0,4.4654556E3,1.4057839E0,5.379378E0,5.232E1,3.4128746E-1,4.303476E-2,2.2078555E0,5.8087325E-1,7.6688373E-1,5.076923E0,2.9439494E-1,2.3364486E-1,6.110888E0,5.117245E-1,6.5577173E-1,8.064516E-1,6.1145586E-1,9.616858E-1,7.90443E-1,6.5817094E-1,6.001338E-1,3.2672238E-1,5.766597E-1,1.4509083E0,7.424556E-1,7.9886955E-1,5.9546804E-1,1.0906528E0,6.366376E-1,1.5709506E0,1.8262479E0,4.610043E-1,2.1819258E-1,6.8699616E-1,5.5217206E-1,4.442946E-1,8.565143E0,3.8122365E-1,5.5717385E-1,4.792E1,8.2596576E-1,5.2477324E-1,3.9551866E-1,1.6764754E-1,4.481132E-1,5.1384574E-1,6.4915013E-1],"split_indices":[3,42,29,22,43,39,37,15,26,0,0,26,37,16,43,29,0,38,5,0,0,40,0,23,43,0,0,33,0,25,0,7,0,0,0,22,0,0,0,22,0,22,4,0,0,0,0,0,19,0,0,29,0,0,0,17,0,0,0],"split_type":[0,0,0,0,0,0,0,0,0,0,0,0,0,0,0,0,0,0,0,0,0,0,0,0,0,0,0,0,0,0,0,0,0,0,0,0,0,0,0,0,0,0,0,0,0,0,0,0,0,0,0,0,0,0,0,0,0,0,0],"sum_hessian":[7.62E2,4.89E2,2.73E2,4.73E2,1.6E1,8.7E1,1.86E2,3.36E2,1.37E2,6E0,1E1,6.7E1,2E1,1.47E2,3.9E1,3.28E2,8E0,1.08E2,2.9E1,5.6E1,1.1E1,1.4E1,6E0,8.9E1,5.8E1,1.8E1,2.1E1,2.97E2,3.1E1,9.9E1,9E0,2E1,9E0,5E0,9E0,5.5E1,3.4E1,5.1E1,7E0,2.88E2,9E0,2.2E1,7.7E1,1.5E1,5E0,3.7E1,1.8E1,3.8E1,2.5E2,9E0,1.3E1,7.1E1,6E0,2.41E2,9E0,6.4E1,7E0,1E1,5.4E1],"tree_param":{"num_deleted":"0","num_feature":"50","num_nodes":"59","size_leaf_vector":"0"}},{"base_weights":[1.3756006E0,1.2413365E0,1.4895542E0,1.1681598E0,1.352287E0,1.4422684E0,1.8562894E0,1.1944594E0,7.5068223E-1,2.6923832E-1,1.3824707E0,1.4697539E0,1.0237296E0,8.096254E-1,1.6910903E0,1.2253776E0,2.6684773E-1,1.0134375E-1,3.2517862E-1,1.290483E0,1.61102E0,1.3351551E0,1.6009518E0,3.6384225E-1,1.940139E-1,3.7046918E-1,5.345886E-1,1.1981108E0,4.5826694E-1,1.2460726E0,4.9985382E-1,1.7834426E0,3.7224483E-1,2.8342697E-1,1.3556877E0,3.2338473E-1,1.6317621E0,2.305137E-1,3.6392343E-1,1.2750204E0,2.5158557E-1,4.9222037E-1,6.706813E-1,3.466282E-1,4.23383E-1,1.6960678E0,3.9795494E-1,3.6336204E-1,4.707466E-1,1.1981571E0,1.7477654E0,1.8391648E-1,5.507668E-1,1.8167421E0,1.485515E0,2.1092143E0,1.7159067E0,4.76455E-1,3.019623E-1,5.662286E-1,7.3940825E-1,6.637754E-1,4.9365452E-1],"categories":[],"categories_nodes":[],"categories_segments":[],"categories_sizes":[],"default_left":[1,0,0,0,0,1,0,0,0,0,0,0,0,0,0,0,0,0,0,0,0,0,0,0,0,0,0,0,0,0,0,0,0,0,0,0,0,0,0,0,0,0,0,0,0,0,0,0,0,0,0,0,0,0,0,0,0,0,0,0,0,0,0],"id":7,"left_children":[1,3,5,7,9,11,13,15,17,-1,19,21,23,-1,25,27,-1,-1,-1,29,31,33,35,-1,-1,-1,-1,37,-1,39,-1,41,-1,-1,43,-1,45,-1,-1,47,-1,-1,-1,-1,-1,49,-1,-1,-1,51,53,-1,-1,55,57,59,61,-1,-1,-1,-1,-1,-1],"loss_changes":[1.1263672E1,2.5113525E0,6.5545654E0,2.1479187E0,1.63031E0,3.8773804E0,5.44928E0,1.6531372E0,1.7394185E0,0E0,2.2689362E0,5.582947E0,1.4860325E0,0E0,1.1518478E0,1.0990295E0,0E0,0E0,0E0,1.1082306E0,1.8351898E0,1.088623E0,2.3963013E0,0E0,0E0,0E0,0E0,8.748169E-1,0E0,7.630768E-1,0E0,7.727356E-1,0E0,0E0,1.4436035E0,0E0,2.6996765E0,0E0,0E0,1.0588531E0,0E0,0E0,0E0,0E0,0E0,2.97818E0,0E0,0E0,0E0,4.688801E0,1.5934753E0,0E0,0E0,1.9992676E0,9.449425E-1,8.286438E-1,1.7058868E0,0E0,0E0,0E0,0E0,0E0,0E0],"parents":[2147483647,0,0,1,1,2,2,3,3,4,4,5,5,6,6,7,7,8,8,10,10,11,11,12,12,14,14,15,15,19,19,20,20,21,21,22,22,27,27,29,29,31,31,34,34,36,36,39,39,45,45,49,49,50,50,53,53,54,54,55,55,56,56],"right_children":[2,4,6,8,10,12,14,16,18,-1,20,22,24,-1,26,28,-1,-1,-1,30,32,34,36,-1,-1,-1,-1,38,-1,40,-1,42,-1,-1,44,-1,46,-1,-1,48,-1,-1,-1,-1,-1,50,-1,-1,-1,52,54,-1,-1,56,58,60,62,-1,-1,-1,-1,-1,-1],"split_conditions":[1.2372954E0,2.688E1,3.08E0,2.4166667E0,3.0242434E0,9.261092E0,3.308005E0,1.6670475E0,2.0018518E1,2.6923832E-1,1.4832262E0,3.3883252E0,1.2551585E0,8.096254E-1,3.508408E0,-5.0821133E-2,2.6684773E-1,1.0134375E-1,3.2517862E-1,7.306173E1,3.7256486E0,1.669974E-1,1.8636364E0,3.6384225E-1,1.940139E-1,3.7046918E-1,5.345886E-1,1.5659052E2,4.5826694E-1,-3.4207474E-2,4.9985382E-1,1.753033E2,3.7224483E-1,2.8342697E-1,1.0706483E0,3.2338473E-1,1.2153846E1,2.305137E-1,3.6392343E-1,1.1833333E-1,2.5158557E-1,4.9222037E-1,6.706813E-1,3.466282E-1,4.23383E-1,1.4608982E-1,3.9795494E-1,3.6336204E-1,4.707466E-1,8.213229E0,1E0,1.8391648E-1,5.507668E-1,1.4313778E1,4.758E1,-4.2883143E-1,-7.2901535E-1,4.76455E-1,3.019623E-1,5.662286E-1,7.3940825E-1,6.637754E-1,4.9365452E-1],"split_indices":[6,29,26,26,43,18,39,10,15,0,22,18,16,0,39,38,0,0,0,47,39,17,24,0,0,0,0,20,0,41,0,20,0,0,25,0,40,0,0,44,0,0,0,0,0,17,0,0,0,32,45,0,0,13,29,41,41,0,0,0,0,0,0],"split_type":[0,0,0,0,0,0,0,0,0,0,0,0,0,0,0,0,0,0,0,0,0,0,0,0,0,0,0,0,0,0,0,0,0,0,0,0,0,0,0,0,0,0,0,0,0,0,0,0,0,0,0,0,0,0,0,0,0,0,0,0,0,0,0],"sum_hessian":[7.62E2,3.51E2,4.11E2,2.13E2,1.38E2,3.65E2,4.6E1,2E2,1.3E1,9E0,1.29E2,3.42E2,2.3E1,7E0,3.9E1,1.81E2,1.9E1,6E0,7E0,9.3E1,3.6E1,1.7E2,1.72E2,1.5E1,8E0,7E0,3.2E1,1.67E2,1.4E1,8.4E1,9E0,2.4E1,1.2E1,9E0,1.61E2,1E1,1.62E2,6E0,1.61E2,7.8E1,6E0,1.9E1,5E0,3.6E1,1.25E2,1.33E2,2.9E1,6.5E1,1.3E1,1.3E1,1.2E2,7E0,6E0,9.4E1,2.6E1,2.3E1,7.1E1,2.1E1,5E0,1.5E1,8E0,8E0,6.3E1],"tree_param":{"num_deleted":"0","num_feature":"50","num_nodes":"63","size_leaf_vector":"0"}},{"base_weights":[9.666379E-1,9.2175454E-1,1.1626089E0,5.2521837E-1,9.130571E-1,1.0901589E0,1.4714746E0,8.6128134E-1,9.8159266E-1,1.0188347E0,1.3491323E0,5.463223E-1,1.2659303E0,7.6626146E-1,9.4902575E-1,9.109778E-1,1.0778399E0,1.5600088E-1,1.0526434E0,3.3843806E-1,4.8847178E-1,4.6270102E-1,2.9698166E-1,6.386504E-2,7.8620136E-1,9.288392E-1,4.4654176E-1,2.3977251E-1,9.892045E-1,1.2337575E0,9.118898E-1,1.2752347E0,9.6594155E-1,8.080904E-1,8.5739195E-2,1.5500239E-1,9.477796E-1,2.7921507E-1,1.2221775E0,2.66005E-1,1.3139713E0,3.8379088E-1,8.2256347E-1,3.381107E-1,4.9246225E-1,1.8815604E-1,3.1081867E-1,2.3690526E-1,3.9358023E-1,9.287871E-1,4.5090738E-1,4.1705653E-1,2.3346111E-1,4.997076E-1,3.6861786E-1,7.4088895E-1,4.208202E-1,2.1136528E-1,9.608319E-1,1.4042546E-1,2.4924487E-1,9.271091E-1,3.6316848E-1,6.746661E-1,9.677568E-1,2.704503E-1,1.296202E-1,2.8100872E-1,3.9638805E-1],"categories":[],"categories_nodes":[],"categories_segments":[],"categories_sizes":[],"default_left":[0,0,0,0,1,1,0,0,0,0,0,0,0,0,0,0,0,0,1,0,0,0,0,0,0,0,0,0,0,0,0,1,0,0,0,0,1,0,0,0,0,0,0,0,0,0,0,0,0,0,0,0,0,0,0,0,0,0,0,0,0,1,0,0,1,0,0,0,0],"id":8,"left_children":[1,3,5,-1,7,9,11,13,15,17,19,-1,21,23,25,27,29,-1,31,-1,-1,-1,-1,-1,33,35,-1,-1,37,39,41,43,45,47,-1,-1,49,-1,51,-1,53,-1,55,-1,-1,-1,-1,-1,-1,57,-1,-1,-1,-1,-1,59,-1,-1,61,-1,-1,63,-1,65,67,-1,-1,-1,-1],"loss_changes":[6.473572E0,4.1347046E0,2.814621E0,0E0,2.0010376E0,1.8321838E0,1.387394E0,2.7799988E0,1.5775299E0,1.4204712E0,1.0981865E0,0E0,9.845295E-1,1.8421631E0,1.686554E0,1.1689758E0,2.6095123E0,0E0,1.3793411E0,0E0,0E0,0E0,0E0,0E0,1.7489853E0,1.2701874E0,0E0,0E0,9.707184E-1,1.3141785E0,1.5527458E0,8.619118E-1,1.3379288E0,1.234909E0,0E0,0E0,1.4733276E0,0E0,1.0511856E0,0E0,9.14978E-1,0E0,1.8713703E0,0E0,0E0,0E0,0E0,0E0,0E0,1.0270386E0,0E0,0E0,0E0,0E0,0E0,8.7831306E-1,0E0,0E0,9.560089E-1,0E0,0E0,1.1545334E0,0E0,9.185171E-1,9.218521E-1,0E0,0E0,0E0,0E0],"parents":[2147483647,0,0,1,1,2,2,4,4,5,5,6,6,7,7,8,8,9,9,10,10,12,12,13,13,14,14,15,15,16,16,18,18,24,24,25,25,28,28,29,29,30,30,31,31,32,32,33,33,36,36,38,38,40,40,42,42,49,49,55,55,58,58,61,61,63,63,64,64],"right_children":[2,4,6,-1,8,10,12,14,16,18,20,-1,22,24,26,28,30,-1,32,-1,-1,-1,-1,-1,34,36,-1,-1,38,40,42,44,46,48,-1,-1,50,-1,52,-1,54,-1,56,-1,-1,-1,-1,-1,-1,58,-1,-1,-1,-1,-1,60,-1,-1,62,-1,-1,64,-1,66,68,-1,-1,-1,-1],"split_conditions":[3.6363637E-1,-2.546968E-1,6.1361123E-2,5.2521837E-1,1.1506684E0,2.2237837E0,1E0,1.4509E1,1.3221793E0,2.2727273E0,4.7368422E-1,5.463223E-1,1.9416198E0,1.06765494E-1,1.0259935E0,-4.7434103E-1,1.3754407E1,1.5600088E-1,1.9322988E0,3.3843806E-1,4.8847178E-1,4.6270102E-1,2.9698166E-1,6.386504E-2,1.8847282E2,-1.6041666E0,4.4654176E-1,2.3977251E-1,3.0487806E-1,2.8536932E1,6.231884E-1,1.5E-2,6.3636365E0,2E0,8.5739195E-2,1.5500239E-1,2.3809524E-1,2.7921507E-1,2.9439408E-1,2.66005E-1,7.6638746E0,3.8379088E-1,8.055556E-1,3.381107E-1,4.9246225E-1,1.8815604E-1,3.1081867E-1,2.3690526E-1,3.9358023E-1,8.8180417E-1,4.5090738E-1,4.1705653E-1,2.3346111E-1,4.997076E-1,3.6861786E-1,2.4056605E-1,4.208202E-1,2.1136528E-1,1.7367135E0,1.4042546E-1,2.4924487E-1,1.6764754E-1,3.6316848E-1,1.7578125E0,1.7953216E0,2.704503E-1,1.296202E-1,2.8100872E-1,3.9638805E-1],"split_indices":[3,28,38,0,25,5,45,13,22,24,3,0,4,28,7,41,13,0,5,0,0,0,0,0,20,48,0,0,23,47,42,44,40,45,0,0,44,0,17,0,32,0,42,0,0,0,0,0,0,25,0,0,0,0,0,23,0,0,21,0,0,17,0,4,26,0,0,0,0],"split_type":[0,0,0,0,0,0,0,0,0,0,0,0,0,0,0,0,0,0,0,0,0,0,0,0,0,0,0,0,0,0,0,0,0,0,0,0,0,0,0,0,0,0,0,0,0,0,0,0,0,0,0,0,0,0,0,0,0,0,0,0,0,0,0,0,0,0,0,0,0],"sum_hessian":[7.62E2,6.21E2,1.41E2,6E0,6.15E2,1.15E2,2.6E1,3.52E2,2.63E2,9.1E1,2.4E1,9E0,1.7E1,1.7E2,1.82E2,1.53E2,1.1E2,6E0,8.5E1,1.4E1,1E1,8E0,9E0,6E0,1.64E2,1.76E2,6E0,6.4E1,8.9E1,5.6E1,5.4E1,2.3E1,6.2E1,1.57E2,7E0,8E0,1.68E2,7.2E1,1.7E1,1.1E1,4.5E1,1E1,4.4E1,1.7E1,6E0,1.1E1,5.1E1,1.52E2,5E0,1.63E2,5E0,1.2E1,5E0,8E0,3.7E1,3.9E1,5E0,2.1E1,1.42E2,1E1,2.9E1,1.26E2,1.6E1,1.8E1,1.08E2,9E0,9E0,1E2,8E0],"tree_param":{"num_deleted":"0","num_feature":"50","num_nodes":"69","size_leaf_vector":"0"}},{"base_weights":[6.7978966E-1,8.291924E-1,6.485003E-1,7.927534E-1,4.2952865E-1,5.7940096E-1,6.9289285E-1,7.5790626E-1,3.6297303E-1,4.8909062E-1,6.186442E-1,7.505115E-1,6.1081415E-1,6.731944E-1,8.726154E-1,2.5690275E-1,4.3084267E-1,1.895867E-1,7.236789E-2,4.115719E-2,7.6436573E-1,7.094948E-1,5.211176E-1,7.1102995E-1,1.0120473E-1,3.329757E-1,7.782265E-1,2.5223726E-3,1.3959514E-1,1.1768787E0,7.371317E-1,6.4734644E-1,3.1551456E-1,4.728965E-1,2.707565E-1,1.7516322E-1,2.6134348E-1,1.4518583E-1,2.5827E-1,4.2852268E-1,2.1962163E-1,7.534479E-1,9.724301E-2,6.872943E-1,9.3376055E-2,4.431436E-1,2.5618315E-1,7.1104044E-1,9.453901E-1,1.6147286E-1,2.542015E-1,3.278496E-2,1.4570853E-1,7.3054135E-1,1.21070236E-1,1.7794052E-1,3.1327304E-1,1.552293E-1,7.6354736E-1,2.1917352E-1,9.746458E-1,3.5729223E-1,1.9178596E-1],"categories":[],"categories_nodes":[],"categories_segments":[],"categories_sizes":[],"default_left":[0,0,0,0,0,0,1,0,0,0,1,0,0,0,0,0,0,0,0,0,0,0,0,0,0,0,0,0,0,0,1,0,0,0,0,0,0,0,0,0,0,0,0,0,0,0,0,0,0,0,0,0,0,1,0,0,0,0,0,0,0,0,0],"id":9,"left_children":[1,3,5,7,-1,9,11,13,-1,15,17,19,21,23,25,-1,27,-1,-1,-1,29,31,33,35,-1,-1,37,-1,-1,39,41,43,-1,45,-1,-1,-1,-1,-1,-1,-1,47,-1,49,-1,51,-1,53,55,-1,-1,-1,-1,57,-1,-1,-1,-1,59,-1,61,-1,-1],"loss_changes":[3.4473572E0,2.6366959E0,1.849823E0,1.6082306E0,0E0,8.1453705E-1,1.713623E0,9.9308777E-1,0E0,1.55093E0,8.323822E-1,1.8826065E0,1.3296547E0,8.024483E-1,8.939781E-1,0E0,9.6346474E-1,0E0,0E0,0E0,2.2759552E0,1.4531174E0,1.4569664E0,1.1164036E0,0E0,0E0,7.670307E-1,0E0,0E0,1.2534008E0,1.3369675E0,8.161049E-1,0E0,7.712536E-1,0E0,0E0,0E0,0E0,0E0,0E0,0E0,1.468689E0,0E0,1.2666569E0,0E0,9.860668E-1,0E0,9.151535E-1,1.0928879E0,0E0,0E0,0E0,0E0,9.9263E-1,0E0,0E0,0E0,0E0,7.6686096E-1,0E0,1.0849915E0,0E0,0E0],"parents":[2147483647,0,0,1,1,2,2,3,3,5,5,6,6,7,7,9,9,10,10,11,11,12,12,13,13,14,14,16,16,20,20,21,21,22,22,23,23,26,26,29,29,30,30,31,31,33,33,41,41,43,43,45,45,47,47,48,48,53,53,58,58,60,60],"right_children":[2,4,6,8,-1,10,12,14,-1,16,18,20,22,24,26,-1,28,-1,-1,-1,30,32,34,36,-1,-1,38,-1,-1,40,42,44,-1,46,-1,-1,-1,-1,-1,-1,-1,48,-1,50,-1,52,-1,54,56,-1,-1,-1,-1,58,-1,-1,-1,-1,60,-1,62,-1,-1],"split_conditions":[1.5133405E2,8.949642E-1,1.2957377E0,2.7216554E-1,4.2952865E-1,-1.4093502E-1,3.7058327E0,2.079389E-1,3.6297303E-1,-3.918541E-1,3.2083333E0,1.8618073E0,1.6764075E2,1.6047278E2,1.9816381E0,2.5690275E-1,2.9867156E0,1.895867E-1,7.236789E-2,4.115719E-2,1.507313E-1,3.7232685E0,4.030529E0,3.4077415E0,1.0120473E-1,3.329757E-1,5.4799585E0,2.5223726E-3,1.3959514E-1,1.3608277E-1,8E0,7.347034E-1,3.1551456E-1,3.3435184E1,2.707565E-1,1.7516322E-1,2.6134348E-1,1.4518583E-1,2.5827E-1,4.2852268E-1,2.1962163E-1,8.222222E0,9.724301E-2,-1.2136128E-1,9.3376055E-2,9.2308074E-1,2.5618315E-1,7.3333335E0,9.5E-1,1.6147286E-1,2.542015E-1,3.278496E-2,1.4570853E-1,1.6737852E0,1.21070236E-1,1.7794052E-1,3.1327304E-1,1.552293E-1,-2.2614773E-2,2.1917352E-1,2.079389E-1,3.5729223E-1,1.9178596E-1],"split_indices":[20,7,22,8,0,38,39,41,0,38,24,19,14,14,5,0,39,0,0,0,17,39,39,18,0,0,19,0,0,8,46,28,0,13,0,0,0,0,0,0,0,40,0,38,0,25,0,40,10,0,0,0,0,18,0,0,0,0,38,0,41,0,0],"split_type":[0,0,0,0,0,0,0,0,0,0,0,0,0,0,0,0,0,0,0,0,0,0,0,0,0,0,0,0,0,0,0,0,0,0,0,0,0,0,0,0,0,0,0,0,0,0,0,0,0,0,0,0,0,0,0,0,0,0,0,0,0,0,0],"sum_hessian":[7.62E2,1.31E2,6.31E2,1.24E2,7E0,2.48E2,3.83E2,1.15E2,9E0,7.6E1,1.72E2,2.24E2,1.59E2,6.7E1,4.8E1,1E1,6.6E1,1.66E2,6E0,5E0,2.19E2,7.5E1,8.4E1,6E1,7E0,1.3E1,3.5E1,5E0,6.1E1,1.3E1,2.06E2,6.4E1,1.1E1,7.5E1,9E0,3.4E1,2.6E1,8E0,2.7E1,8E0,5E0,1.98E2,8E0,5.7E1,7E0,7E1,5E0,1.63E2,3.5E1,3E1,2.7E1,8E0,6.2E1,1.53E2,1E1,8E0,2.7E1,2.1E1,1.32E2,1.15E2,1.7E1,1E1,7E0],"tree_param":{"num_deleted":"0","num_feature":"50","num_nodes":"63","size_leaf_vector":"0"}},{"base_weights":[4.7771162E-1,4.2291963E-1,5.235249E-1,4.6025535E-1,3.5808367E-1,5.1513064E-1,2.9449624E-1,2.81448E-1,1.3446414E-1,4.0058172E-1,5.1600274E-2,4.0380085E-1,5.4599464E-1,9.580369E-2,5.2308744E-1,1.313742E-1,4.7443304E-2,5.6669265E-1,8.689775E-2,2.4092267E-1,1.06885955E-1,1.5809669E-1,6.849883E-1,8.5545766E-1,6.0816514E-1,2.1039002E-1,3.6840227E-1,3.2130122E-1,7.1422124E-1,-1.5458446E-2,1.5743789E-1,2.833635E-1,5.965442E-1,3.5083613E-1,2.3440863E-1,1.833571E-1,7.822866E-3],"categories":[],"categories_nodes":[],"categories_segments":[],"categories_sizes":[],"default_left":[0,0,1,0,0,0,0,0,0,0,0,0,0,0,0,0,0,0,0,0,0,0,0,0,0,0,0,0,0,0,0,0,1,0,0,0,0],"id":10,"left_children":[1,3,5,7,9,11,-1,-1,-1,13,-1,15,17,-1,19,-1,-1,21,-1,-1,-1,-1,23,25,27,-1,-1,29,31,-1,-1,-1,33,35,-1,-1,-1],"loss_changes":[1.8656311E0,8.074379E-1,1.4840393E0,1.1767387E0,9.991112E-1,1.3517532E0,0E0,0E0,0E0,1.0011711E0,0E0,7.3272324E-1,1.6529922E0,0E0,1.8632412E0,0E0,0E0,1.3041382E0,0E0,0E0,0E0,0E0,8.468056E-1,1.0904217E0,1.5087452E0,0E0,0E0,1.0843062E0,8.87352E-1,0E0,0E0,0E0,1.0860329E0,9.448528E-1,0E0,0E0,0E0],"parents":[2147483647,0,0,1,1,2,2,3,3,4,4,5,5,9,9,11,11,12,12,14,14,17,17,22,22,23,23,24,24,27,27,28,28,32,32,33,33],"right_children":[2,4,6,8,10,12,-1,-1,-1,14,-1,16,18,-1,20,-1,-1,22,-1,-1,-1,-1,24,26,28,-1,-1,30,32,-1,-1,-1,34,36,-1,-1,-1],"split_conditions":[5.738262E-1,4.074074E-1,1.1730129E0,9.953584E-1,6.110888E0,2.5860956E0,2.9449624E-1,2.81448E-1,1.3446414E-1,3.7008855E0,5.1600274E-2,1.6638223E2,2.08E1,9.580369E-2,3.7020195E0,1.313742E-1,4.7443304E-2,6.604448E0,8.689775E-2,2.4092267E-1,1.06885955E-1,1.5809669E-1,4.180852E0,2.892857E0,8.654457E-1,2.1039002E-1,3.6840227E-1,2.9811509E0,3.6855721E0,-1.5458446E-2,1.5743789E-1,2.833635E-1,3.7144392E0,8.375511E3,2.3440863E-1,1.833571E-1,7.822866E-3],"split_indices":[7,23,17,16,43,43,0,0,0,39,0,14,40,0,39,0,0,19,0,0,0,0,43,26,21,0,0,15,39,0,0,0,39,37,0,0,0],"split_type":[0,0,0,0,0,0,0,0,0,0,0,0,0,0,0,0,0,0,0,0,0,0,0,0,0,0,0,0,0,0,0,0,0,0,0,0,0],"sum_hessian":[7.62E2,3.48E2,4.14E2,2.2E2,1.28E2,4.07E2,7E0,5E0,2.15E2,1.04E2,2.4E1,8.9E1,3.18E2,6.3E1,4.1E1,7.8E1,1.1E1,2.94E2,2.4E1,1.5E1,2.6E1,2.21E2,7.3E1,2.2E1,5.1E1,1.6E1,6E0,1.4E1,3.7E1,5E0,9E0,1.2E1,2.5E1,1.1E1,1.4E1,6E0,5E0],"tree_param":{"num_deleted":"0","num_feature":"50","num_nodes":"37","size_leaf_vector":"0"}},{"base_weights":[3.3526242E-1,1.9741671E-1,3.2991034E-1,4.094523E-1,3.118367E-1,3.7517342E-1,2.1083507E-1,2.5329116E-1,3.370614E-1,2.5240225E-1,4.5995048E-1,7.263449E-2,1.8870814E-1,1.8511747E-1,3.535244E-1,4.496026E-1,4.5477957E-2,1.6079323E-1,9.319451E-2,-5.1405713E-2,7.020053E-2,4.0936464E-1,3.0806485E-1,1.8943803E-1,3.1761467E-2,1.1316898E-1,7.135085E-1,4.7885153E-1,2.7621922E-1,3.0192873E-1,1.4024667E-1,1.0677133E-1,2.1395761E-1,3.446486E-1,1.9189131E-1,2.9309455E-1,1.5614942E-1,-4.010481E-3,7.15299E-2,1.0661612E-1,3.751809E-2],"categories":[],"categories_nodes":[],"categories_segments":[],"categories_sizes":[],"default_left":[0,0,0,0,0,0,0,0,1,0,0,0,0,0,0,0,0,0,0,0,0,0,0,0,0,0,0,0,0,0,0,0,0,0,0,0,0,0,0,0,0],"id":11,"left_children":[1,-1,3,5,7,9,-1,11,13,15,17,-1,-1,19,21,23,-1,-1,-1,-1,-1,25,27,-1,-1,-1,29,31,33,-1,-1,-1,-1,35,37,39,-1,-1,-1,-1,-1],"loss_changes":[1.2700653E0,0E0,1.0510254E0,1.3329906E0,8.857384E-1,1.2678585E0,0E0,7.4498177E-1,1.0545654E0,1.0034637E0,7.952137E-1,0E0,0E0,7.4426866E-1,9.5070267E-1,1.0617356E0,0E0,0E0,0E0,0E0,0E0,1.625206E0,1.131155E0,0E0,0E0,0E0,1.0672369E0,9.023285E-1,1.0256939E0,0E0,0E0,0E0,0E0,8.6661243E-1,7.765465E-1,7.986636E-1,0E0,0E0,0E0,0E0,0E0],"parents":[2147483647,0,0,2,2,3,3,4,4,5,5,7,7,8,8,9,9,10,10,13,13,14,14,15,15,21,21,22,22,26,26,27,27,28,28,33,33,34,34,35,35],"right_children":[2,-1,4,6,8,10,-1,12,14,16,18,-1,-1,20,22,24,-1,-1,-1,-1,-1,26,28,-1,-1,-1,30,32,34,-1,-1,-1,-1,36,38,40,-1,-1,-1,-1,-1],"split_conditions":[1.5042596E2,1.9741671E-1,1.764706E-1,4.1349206E0,5.4320985E-1,4.833965E0,2.1083507E-1,3.047619E0,1.6326531E0,1.6127904E3,2.926E1,7.263449E-2,1.8870814E-1,1.8224618E0,3.6942773E0,7.866466E0,4.5477957E-2,1.6079323E-1,9.319451E-2,-5.1405713E-2,7.020053E-2,6.1593475E0,1.8339809E0,1.8943803E-1,3.1761467E-2,1.1316898E-1,7.359105E0,1.1393976E0,1.6675412E2,3.0192873E-1,1.4024667E-1,1.0677133E-1,2.1395761E-1,6.640444E1,3.713634E0,3.805E1,1.5614942E-1,-4.010481E-3,7.15299E-2,1.0661612E-1,3.751809E-2],"split_indices":[14,0,23,15,42,19,0,15,35,37,27,0,0,19,39,32,0,0,0,0,0,43,5,0,0,0,43,16,14,0,0,0,0,47,39,29,0,0,0,0,0],"split_type":[0,0,0,0,0,0,0,0,0,0,0,0,0,0,0,0,0,0,0,0,0,0,0,0,0,0,0,0,0,0,0,0,0,0,0,0,0,0,0,0,0],"sum_hessian":[7.62E2,1.2E1,7.5E2,1.38E2,6.12E2,1.24E2,1.4E1,1.85E2,4.27E2,5.1E1,7.3E1,1.8E2,5E0,4.2E1,3.85E2,1.7E1,3.4E1,4.8E1,2.5E1,5E0,3.7E1,1.72E2,2.13E2,1.1E1,6E0,1.56E2,1.6E1,3.3E1,1.8E2,7E0,9E0,2.2E1,1.1E1,9.9E1,8.1E1,7.7E1,2.2E1,1.5E1,6.6E1,5.6E1,2.1E1],"tree_param":{"num_deleted":"0","num_feature":"50","num_nodes":"41","size_leaf_vector":"0"}},{"base_weights":[2.353766E-1,2.4959467E-1,1.4801423E-1,4.6863902E-1,2.4430494E-1,7.5296424E-2,6.674234E-2,4.558932E-2,2.0138155E-1,7.646274E-2,7.634806E-2,-5.186316E-2,3.6316648E-2,8.6738154E-2,-2.3425832E-2,-7.861485E-2,3.8163986E-2],"categories":[],"categories_nodes":[],"categories_segments":[],"categories_sizes":[],"default_left":[0,0,0,1,0,0,0,0,0,0,0,0,0,0,0,0,0],"id":12,"left_children":[1,3,5,7,9,-1,11,-1,-1,-1,13,-1,-1,-1,15,-1,-1],"loss_changes":[9.3881226E-1,7.3453903E-1,8.936653E-1,9.5438194E-1,1.1324768E0,0E0,7.8817797E-1,0E0,0E0,0E0,8.12762E-1,0E0,0E0,0E0,9.4951546E-1,0E0,0E0],"parents":[2147483647,0,0,1,1,2,2,3,3,4,4,6,6,10,10,14,14],"right_children":[2,4,6,8,10,-1,12,-1,-1,-1,14,-1,-1,-1,16,-1,-1],"split_conditions":[1E0,3.8140145E-1,1E0,5.113375E-1,5.163091E-1,7.5296424E-2,1.8378378E0,4.558932E-2,2.0138155E-1,7.646274E-2,1.4605888E0,-5.186316E-2,3.6316648E-2,8.6738154E-2,1.6609733E0,-7.861485E-2,3.8163986E-2],"split_indices":[31,47,12,21,17,0,24,0,0,0,15,0,0,0,15,0,0],"split_type":[0,0,0,0,0,0,0,0,0,0,0,0,0,0,0,0,0],"sum_hessian":[7.62E2,6.55E2,1.07E2,1.5E1,6.4E2,4.7E1,6E1,6E0,9E0,6.02E2,3.8E1,1.1E1,4.9E1,1.2E1,2.6E1,1E1,1.6E1],"tree_param":{"num_deleted":"0","num_feature":"50","num_nodes":"17","size_leaf_vector":"0"}},{"base_weights":[1.6488539E-1,4.84583E-2,1.4064664E-1],"categories":[],"categories_nodes":[],"categories_segments":[],"categories_sizes":[],"default_left":[1,0,0],"id":13,"left_children":[1,-1,-1],"loss_changes":[7.6156044E-1,0E0,0E0],"parents":[2147483647,0,0],"right_children":[2,-1,-1],"split_conditions":[2.0658424E0,4.84583E-2,1.4064664E-1],"split_indices":[4,0,0],"split_type":[0,0,0],"sum_hessian":[7.62E2,7.54E2,8E0],"tree_param":{"num_deleted":"0","num_feature":"50","num_nodes":"3","size_leaf_vector":"0"}},{"base_weights":[1.1547339E-1],"categories":[],"categories_nodes":[],"categories_segments":[],"categories_sizes":[],"default_left":[0],"id":14,"left_children":[-1],"loss_changes":[0E0],"parents":[2147483647],"right_children":[-1],"split_conditions":[3.464202E-2],"split_indices":[0],"split_type":[0],"sum_hessian":[7.62E2],"tree_param":{"num_deleted":"0","num_feature":"50","num_nodes":"1","size_leaf_vector":"0"}},{"base_weights":[8.0841534E-2],"categories":[],"categories_nodes":[],"categories_segments":[],"categories_sizes":[],"default_left":[0],"id":15,"left_children":[-1],"loss_changes":[0E0],"parents":[2147483647],"right_children":[-1],"split_conditions":[2.4252461E-2],"split_indices":[0],"split_type":[0],"sum_hessian":[7.62E2],"tree_param":{"num_deleted":"0","num_feature":"50","num_nodes":"1","size_leaf_vector":"0"}},{"base_weights":[5.6596093E-2],"categories":[],"categories_nodes":[],"categories_segments":[],"categories_sizes":[],"default_left":[0],"id":16,"left_children":[-1],"loss_changes":[0E0],"parents":[2147483647],"right_children":[-1],"split_conditions":[1.6978828E-2],"split_indices":[0],"split_type":[0],"sum_hessian":[7.62E2],"tree_param":{"num_deleted":"0","num_feature":"50","num_nodes":"1","size_leaf_vector":"0"}},{"base_weights":[3.9621677E-2],"categories":[],"categories_nodes":[],"categories_segments":[],"categories_sizes":[],"default_left":[0],"id":17,"left_children":[-1],"loss_changes":[0E0],"parents":[2147483647],"right_children":[-1],"split_conditions":[1.1886504E-2],"split_indices":[0],"split_type":[0],"sum_hessian":[7.62E2],"tree_param":{"num_deleted":"0","num_feature":"50","num_nodes":"1","size_leaf_vector":"0"}},{"base_weights":[2.773844E-2],"categories":[],"categories_nodes":[],"categories_segments":[],"categories_sizes":[],"default_left":[0],"id":18,"left_children":[-1],"loss_changes":[0E0],"parents":[2147483647],"right_children":[-1],"split_conditions":[8.321533E-3],"split_indices":[0],"split_type":[0],"sum_hessian":[7.62E2],"tree_param":{"num_deleted":"0","num_feature":"50","num_nodes":"1","size_leaf_vector":"0"}},{"base_weights":[1.941903E-2],"categories":[],"categories_nodes":[],"categories_segments":[],"categories_sizes":[],"default_left":[0],"id":19,"left_children":[-1],"loss_changes":[0E0],"parents":[2147483647],"right_children":[-1],"split_conditions":[5.825709E-3],"split_indices":[0],"split_type":[0],"sum_hessian":[7.62E2],"tree_param":{"num_deleted":"0","num_feature":"50","num_nodes":"1","size_leaf_vector":"0"}},{"base_weights":[1.3595298E-2],"categories":[],"categories_nodes":[],"categories_segments":[],"categories_sizes":[],"default_left":[0],"id":20,"left_children":[-1],"loss_changes":[0E0],"parents":[2147483647],"right_children":[-1],"split_conditions":[4.0785894E-3],"split_indices":[0],"split_type":[0],"sum_hessian":[7.62E2],"tree_param":{"num_deleted":"0","num_feature":"50","num_nodes":"1","size_leaf_vector":"0"}},{"base_weights":[9.518204E-3],"categories":[],"categories_nodes":[],"categories_segments":[],"categories_sizes":[],"default_left":[0],"id":21,"left_children":[-1],"loss_changes":[0E0],"parents":[2147483647],"right_children":[-1],"split_conditions":[2.8554613E-3],"split_indices":[0],"split_type":[0],"sum_hessian":[7.62E2],"tree_param":{"num_deleted":"0","num_feature":"50","num_nodes":"1","size_leaf_vector":"0"}},{"base_weights":[6.6637085E-3],"categories":[],"categories_nodes":[],"categories_segments":[],"categories_sizes":[],"default_left":[0],"id":22,"left_children":[-1],"loss_changes":[0E0],"parents":[2147483647],"right_children":[-1],"split_conditions":[1.9991125E-3],"split_indices":[0],"split_type":[0],"sum_hessian":[7.62E2],"tree_param":{"num_deleted":"0","num_feature":"50","num_nodes":"1","size_leaf_vector":"0"}},{"base_weights":[4.665372E-3],"categories":[],"categories_nodes":[],"categories_segments":[],"categories_sizes":[],"default_left":[0],"id":23,"left_children":[-1],"loss_changes":[0E0],"parents":[2147483647],"right_children":[-1],"split_conditions":[1.3996116E-3],"split_indices":[0],"split_type":[0],"sum_hessian":[7.62E2],"tree_param":{"num_deleted":"0","num_feature":"50","num_nodes":"1","size_leaf_vector":"0"}},{"base_weights":[3.2657734E-3],"categories":[],"categories_nodes":[],"categories_segments":[],"categories_sizes":[],"default_left":[0],"id":24,"left_children":[-1],"loss_changes":[0E0],"parents":[2147483647],"right_children":[-1],"split_conditions":[9.79732E-4],"split_indices":[0],"split_type":[0],"sum_hessian":[7.62E2],"tree_param":{"num_deleted":"0","num_feature":"50","num_nodes":"1","size_leaf_vector":"0"}},{"base_weights":[2.2860048E-3],"categories":[],"categories_nodes":[],"categories_segments":[],"categories_sizes":[],"default_left":[0],"id":25,"left_children":[-1],"loss_changes":[0E0],"parents":[2147483647],"right_children":[-1],"split_conditions":[6.858015E-4],"split_indices":[0],"split_type":[0],"sum_hessian":[7.62E2],"tree_param":{"num_deleted":"0","num_feature":"50","num_nodes":"1","size_leaf_vector":"0"}},{"base_weights":[1.5998847E-3],"categories":[],"categories_nodes":[],"categories_segments":[],"categories_sizes":[],"default_left":[0],"id":26,"left_children":[-1],"loss_changes":[0E0],"parents":[2147483647],"right_children":[-1],"split_conditions":[4.7996544E-4],"split_indices":[0],"split_type":[0],"sum_hessian":[7.62E2],"tree_param":{"num_deleted":"0","num_feature":"50","num_nodes":"1","size_leaf_vector":"0"}},{"base_weights":[1.1197003E-3],"categories":[],"categories_nodes":[],"categories_segments":[],"categories_sizes":[],"default_left":[0],"id":27,"left_children":[-1],"loss_changes":[0E0],"parents":[2147483647],"right_children":[-1],"split_conditions":[3.359101E-4],"split_indices":[0],"split_type":[0],"sum_hessian":[7.62E2],"tree_param":{"num_deleted":"0","num_feature":"50","num_nodes":"1","size_leaf_vector":"0"}},{"base_weights":[7.841017E-4],"categories":[],"categories_nodes":[],"categories_segments":[],"categories_sizes":[],"default_left":[0],"id":28,"left_children":[-1],"loss_changes":[0E0],"parents":[2147483647],"right_children":[-1],"split_conditions":[2.3523053E-4],"split_indices":[0],"split_type":[0],"sum_hessian":[7.62E2],"tree_param":{"num_deleted":"0","num_feature":"50","num_nodes":"1","size_leaf_vector":"0"}},{"base_weights":[5.492325E-4],"categories":[],"categories_nodes":[],"categories_segments":[],"categories_sizes":[],"default_left":[0],"id":29,"left_children":[-1],"loss_changes":[0E0],"parents":[2147483647],"right_children":[-1],"split_conditions":[1.6476976E-4],"split_indices":[0],"split_type":[0],"sum_hessian":[7.62E2],"tree_param":{"num_deleted":"0","num_feature":"50","num_nodes":"1","size_leaf_vector":"0"}},{"base_weights":[3.8491533E-4],"categories":[],"categories_nodes":[],"categories_segments":[],"categories_sizes":[],"default_left":[0],"id":30,"left_children":[-1],"loss_changes":[0E0],"parents":[2147483647],"right_children":[-1],"split_conditions":[1.15474606E-4],"split_indices":[0],"split_type":[0],"sum_hessian":[7.62E2],"tree_param":{"num_deleted":"0","num_feature":"50","num_nodes":"1","size_leaf_vector":"0"}},{"base_weights":[2.689315E-4],"categories":[],"categories_nodes":[],"categories_segments":[],"categories_sizes":[],"default_left":[0],"id":31,"left_children":[-1],"loss_changes":[0E0],"parents":[2147483647],"right_children":[-1],"split_conditions":[8.0679456E-5],"split_indices":[0],"split_type":[0],"sum_hessian":[7.62E2],"tree_param":{"num_deleted":"0","num_feature":"50","num_nodes":"1","size_leaf_vector":"0"}},{"base_weights":[1.8851392E-4],"categories":[],"categories_nodes":[],"categories_segments":[],"categories_sizes":[],"default_left":[0],"id":32,"left_children":[-1],"loss_changes":[0E0],"parents":[2147483647],"right_children":[-1],"split_conditions":[5.6554178E-5],"split_indices":[0],"split_type":[0],"sum_hessian":[7.62E2],"tree_param":{"num_deleted":"0","num_feature":"50","num_nodes":"1","size_leaf_vector":"0"}},{"base_weights":[1.316412E-4],"categories":[],"categories_nodes":[],"categories_segments":[],"categories_sizes":[],"default_left":[0],"id":33,"left_children":[-1],"loss_changes":[0E0],"parents":[2147483647],"right_children":[-1],"split_conditions":[3.949236E-5],"split_indices":[0],"split_type":[0],"sum_hessian":[7.62E2],"tree_param":{"num_deleted":"0","num_feature":"50","num_nodes":"1","size_leaf_vector":"0"}},{"base_weights":[9.192975E-5],"categories":[],"categories_nodes":[],"categories_segments":[],"categories_sizes":[],"default_left":[0],"id":34,"left_children":[-1],"loss_changes":[0E0],"parents":[2147483647],"right_children":[-1],"split_conditions":[2.7578926E-5],"split_indices":[0],"split_type":[0],"sum_hessian":[7.62E2],"tree_param":{"num_deleted":"0","num_feature":"50","num_nodes":"1","size_leaf_vector":"0"}},{"base_weights":[6.490285E-5],"categories":[],"categories_nodes":[],"categories_segments":[],"categories_sizes":[],"default_left":[0],"id":35,"left_children":[-1],"loss_changes":[0E0],"parents":[2147483647],"right_children":[-1],"split_conditions":[1.9470855E-5],"split_indices":[0],"split_type":[0],"sum_hessian":[7.62E2],"tree_param":{"num_deleted":"0","num_feature":"50","num_nodes":"1","size_leaf_vector":"0"}},{"base_weights":[4.5834753E-5],"categories":[],"categories_nodes":[],"categories_segments":[],"categories_sizes":[],"default_left":[0],"id":36,"left_children":[-1],"loss_changes":[0E0],"parents":[2147483647],"right_children":[-1],"split_conditions":[1.3750427E-5],"split_indices":[0],"split_type":[0],"sum_hessian":[7.62E2],"tree_param":{"num_deleted":"0","num_feature":"50","num_nodes":"1","size_leaf_vector":"0"}},{"base_weights":[3.2487085E-5],"categories":[],"categories_nodes":[],"categories_segments":[],"categories_sizes":[],"default_left":[0],"id":37,"left_children":[-1],"loss_changes":[0E0],"parents":[2147483647],"right_children":[-1],"split_conditions":[9.746126E-6],"split_indices":[0],"split_type":[0],"sum_hessian":[7.62E2],"tree_param":{"num_deleted":"0","num_feature":"50","num_nodes":"1","size_leaf_vector":"0"}},{"base_weights":[2.2953036E-5],"categories":[],"categories_nodes":[],"categories_segments":[],"categories_sizes":[],"default_left":[0],"id":38,"left_children":[-1],"loss_changes":[0E0],"parents":[2147483647],"right_children":[-1],"split_conditions":[6.8859113E-6],"split_indices":[0],"split_type":[0],"sum_hessian":[7.62E2],"tree_param":{"num_deleted":"0","num_feature":"50","num_nodes":"1","size_leaf_vector":"0"}},{"base_weights":[1.565736E-5],"categories":[],"categories_nodes":[],"categories_segments":[],"categories_sizes":[],"default_left":[0],"id":39,"left_children":[-1],"loss_changes":[0E0],"parents":[2147483647],"right_children":[-1],"split_conditions":[4.697208E-6],"split_indices":[0],"split_type":[0],"sum_hessian":[7.62E2],"tree_param":{"num_deleted":"0","num_feature":"50","num_nodes":"1","size_leaf_vector":"0"}},{"base_weights":[1.1512177E-5],"categories":[],"categories_nodes":[],"categories_segments":[],"categories_sizes":[],"default_left":[0],"id":40,"left_children":[-1],"loss_changes":[0E0],"parents":[2147483647],"right_children":[-1],"split_conditions":[3.453653E-6],"split_indices":[0],"split_type":[0],"sum_hessian":[7.62E2],"tree_param":{"num_deleted":"0","num_feature":"50","num_nodes":"1","size_leaf_vector":"0"}},{"base_weights":[7.698557E-6],"categories":[],"categories_nodes":[],"categories_segments":[],"categories_sizes":[],"default_left":[0],"id":41,"left_children":[-1],"loss_changes":[0E0],"parents":[2147483647],"right_children":[-1],"split_conditions":[2.3095672E-6],"split_indices":[0],"split_type":[0],"sum_hessian":[7.62E2],"tree_param":{"num_deleted":"0","num_feature":"50","num_nodes":"1","size_leaf_vector":"0"}},{"base_weights":[5.7917473E-6],"categories":[],"categories_nodes":[],"categories_segments":[],"categories_sizes":[],"default_left":[0],"id":42,"left_children":[-1],"loss_changes":[0E0],"parents":[2147483647],"right_children":[-1],"split_conditions":[1.7375243E-6],"split_indices":[0],"split_type":[0],"sum_hessian":[7.62E2],"tree_param":{"num_deleted":"0","num_feature":"50","num_nodes":"1","size_leaf_vector":"0"}},{"base_weights":[3.8849375E-6],"categories":[],"categories_nodes":[],"categories_segments":[],"categories_sizes":[],"default_left":[0],"id":43,"left_children":[-1],"loss_changes":[0E0],"parents":[2147483647],"right_children":[-1],"split_conditions":[1.1654813E-6],"split_indices":[0],"split_type":[0],"sum_hessian":[7.62E2],"tree_param":{"num_deleted":"0","num_feature":"50","num_nodes":"1","size_leaf_vector":"0"}},{"base_weights":[2.3096923E-6],"categories":[],"categories_nodes":[],"categories_segments":[],"categories_sizes":[],"default_left":[0],"id":44,"left_children":[-1],"loss_changes":[0E0],"parents":[2147483647],"right_children":[-1],"split_conditions":[6.929077E-7],"split_indices":[0],"split_type":[0],"sum_hessian":[7.62E2],"tree_param":{"num_deleted":"0","num_feature":"50","num_nodes":"1","size_leaf_vector":"0"}},{"base_weights":[1.9781276E-6],"categories":[],"categories_nodes":[],"categories_segments":[],"categories_sizes":[],"default_left":[0],"id":45,"left_children":[-1],"loss_changes":[0E0],"parents":[2147483647],"right_children":[-1],"split_conditions":[5.934383E-7],"split_indices":[0],"split_type":[0],"sum_hessian":[7.62E2],"tree_param":{"num_deleted":"0","num_feature":"50","num_nodes":"1","size_leaf_vector":"0"}},{"base_weights":[1.6465629E-6],"categories":[],"categories_nodes":[],"categories_segments":[],"categories_sizes":[],"default_left":[0],"id":46,"left_children":[-1],"loss_changes":[0E0],"parents":[2147483647],"right_children":[-1],"split_conditions":[4.9396886E-7],"split_indices":[0],"split_type":[0],"sum_hessian":[7.62E2],"tree_param":{"num_deleted":"0","num_feature":"50","num_nodes":"1","size_leaf_vector":"0"}},{"base_weights":[1.3149981E-6],"categories":[],"categories_nodes":[],"categories_segments":[],"categories_sizes":[],"default_left":[0],"id":47,"left_children":[-1],"loss_changes":[0E0],"parents":[2147483647],"right_children":[-1],"split_conditions":[3.9449947E-7],"split_indices":[0],"split_type":[0],"sum_hessian":[7.62E2],"tree_param":{"num_deleted":"0","num_feature":"50","num_nodes":"1","size_leaf_vector":"0"}},{"base_weights":[1.3149981E-6],"categories":[],"categories_nodes":[],"categories_segments":[],"categories_sizes":[],"default_left":[0],"id":48,"left_children":[-1],"loss_changes":[0E0],"parents":[2147483647],"right_children":[-1],"split_conditions":[3.9449947E-7],"split_indices":[0],"split_type":[0],"sum_hessian":[7.62E2],"tree_param":{"num_deleted":"0","num_feature":"50","num_nodes":"1","size_leaf_vector":"0"}},{"base_weights":[1.3149981E-6],"categories":[],"categories_nodes":[],"categories_segments":[],"categories_sizes":[],"default_left":[0],"id":49,"left_children":[-1],"loss_changes":[0E0],"parents":[2147483647],"right_children":[-1],"split_conditions":[3.9449947E-7],"split_indices":[0],"split_type":[0],"sum_hessian":[7.62E2],"tree_param":{"num_deleted":"0","num_feature":"50","num_nodes":"1","size_leaf_vector":"0"}},{"base_weights":[1.3149981E-6],"categories":[],"categories_nodes":[],"categories_segments":[],"categories_sizes":[],"default_left":[0],"id":50,"left_children":[-1],"loss_changes":[0E0],"parents":[2147483647],"right_children":[-1],"split_conditions":[3.9449947E-7],"split_indices":[0],"split_type":[0],"sum_hessian":[7.62E2],"tree_param":{"num_deleted":"0","num_feature":"50","num_nodes":"1","size_leaf_vector":"0"}},{"base_weights":[1.3149981E-6],"categories":[],"categories_nodes":[],"categories_segments":[],"categories_sizes":[],"default_left":[0],"id":51,"left_children":[-1],"loss_changes":[0E0],"parents":[2147483647],"right_children":[-1],"split_conditions":[3.9449947E-7],"split_indices":[0],"split_type":[0],"sum_hessian":[7.62E2],"tree_param":{"num_deleted":"0","num_feature":"50","num_nodes":"1","size_leaf_vector":"0"}},{"base_weights":[1.3149981E-6],"categories":[],"categories_nodes":[],"categories_segments":[],"categories_sizes":[],"default_left":[0],"id":52,"left_children":[-1],"loss_changes":[0E0],"parents":[2147483647],"right_children":[-1],"split_conditions":[3.9449947E-7],"split_indices":[0],"split_type":[0],"sum_hessian":[7.62E2],"tree_param":{"num_deleted":"0","num_feature":"50","num_nodes":"1","size_leaf_vector":"0"}},{"base_weights":[1.3149981E-6],"categories":[],"categories_nodes":[],"categories_segments":[],"categories_sizes":[],"default_left":[0],"id":53,"left_children":[-1],"loss_changes":[0E0],"parents":[2147483647],"right_children":[-1],"split_conditions":[3.9449947E-7],"split_indices":[0],"split_type":[0],"sum_hessian":[7.62E2],"tree_param":{"num_deleted":"0","num_feature":"50","num_nodes":"1","size_leaf_vector":"0"}},{"base_weights":[1.3149981E-6],"categories":[],"categories_nodes":[],"categories_segments":[],"categories_sizes":[],"default_left":[0],"id":54,"left_children":[-1],"loss_changes":[0E0],"parents":[2147483647],"right_children":[-1],"split_conditions":[3.9449947E-7],"split_indices":[0],"split_type":[0],"sum_hessian":[7.62E2],"tree_param":{"num_deleted":"0","num_feature":"50","num_nodes":"1","size_leaf_vector":"0"}},{"base_weights":[1.3149981E-6],"categories":[],"categories_nodes":[],"categories_segments":[],"categories_sizes":[],"default_left":[0],"id":55,"left_children":[-1],"loss_changes":[0E0],"parents":[2147483647],"right_children":[-1],"split_conditions":[3.9449947E-7],"split_indices":[0],"split_type":[0],"sum_hessian":[7.62E2],"tree_param":{"num_deleted":"0","num_feature":"50","num_nodes":"1","size_leaf_vector":"0"}},{"base_weights":[1.3149981E-6],"categories":[],"categories_nodes":[],"categories_segments":[],"categories_sizes":[],"default_left":[0],"id":56,"left_children":[-1],"loss_changes":[0E0],"parents":[2147483647],"right_children":[-1],"split_conditions":[3.9449947E-7],"split_indices":[0],"split_type":[0],"sum_hessian":[7.62E2],"tree_param":{"num_deleted":"0","num_feature":"50","num_nodes":"1","size_leaf_vector":"0"}},{"base_weights":[1.3149981E-6],"categories":[],"categories_nodes":[],"categories_segments":[],"categories_sizes":[],"default_left":[0],"id":57,"left_children":[-1],"loss_changes":[0E0],"parents":[2147483647],"right_children":[-1],"split_conditions":[3.9449947E-7],"split_indices":[0],"split_type":[0],"sum_hessian":[7.62E2],"tree_param":{"num_deleted":"0","num_feature":"50","num_nodes":"1","size_leaf_vector":"0"}},{"base_weights":[1.3149981E-6],"categories":[],"categories_nodes":[],"categories_segments":[],"categories_sizes":[],"default_left":[0],"id":58,"left_children":[-1],"loss_changes":[0E0],"parents":[2147483647],"right_children":[-1],"split_conditions":[3.9449947E-7],"split_indices":[0],"split_type":[0],"sum_hessian":[7.62E2],"tree_param":{"num_deleted":"0","num_feature":"50","num_nodes":"1","size_leaf_vector":"0"}},{"base_weights":[1.3149981E-6],"categories":[],"categories_nodes":[],"categories_segments":[],"categories_sizes":[],"default_left":[0],"id":59,"left_children":[-1],"loss_changes":[0E0],"parents":[2147483647],"right_children":[-1],"split_conditions":[3.9449947E-7],"split_indices":[0],"split_type":[0],"sum_hessian":[7.62E2],"tree_param":{"num_deleted":"0","num_feature":"50","num_nodes":"1","size_leaf_vector":"0"}},{"base_weights":[1.3149981E-6],"categories":[],"categories_nodes":[],"categories_segments":[],"categories_sizes":[],"default_left":[0],"id":60,"left_children":[-1],"loss_changes":[0E0],"parents":[2147483647],"right_children":[-1],"split_conditions":[3.9449947E-7],"split_indices":[0],"split_type":[0],"sum_hessian":[7.62E2],"tree_param":{"num_deleted":"0","num_feature":"50","num_nodes":"1","size_leaf_vector":"0"}},{"base_weights":[1.3149981E-6],"categories":[],"categories_nodes":[],"categories_segments":[],"categories_sizes":[],"default_left":[0],"id":61,"left_children":[-1],"loss_changes":[0E0],"parents":[2147483647],"right_children":[-1],"split_conditions":[3.9449947E-7],"split_indices":[0],"split_type":[0],"sum_hessian":[7.62E2],"tree_param":{"num_deleted":"0","num_feature":"50","num_nodes":"1","size_leaf_vector":"0"}},{"base_weights":[1.3149981E-6],"categories":[],"categories_nodes":[],"categories_segments":[],"categories_sizes":[],"default_left":[0],"id":62,"left_children":[-1],"loss_changes":[0E0],"parents":[2147483647],"right_children":[-1],"split_conditions":[3.9449947E-7],"split_indices":[0],"split_type":[0],"sum_hessian":[7.62E2],"tree_param":{"num_deleted":"0","num_feature":"50","num_nodes":"1","size_leaf_vector":"0"}},{"base_weights":[1.3149981E-6],"categories":[],"categories_nodes":[],"categories_segments":[],"categories_sizes":[],"default_left":[0],"id":63,"left_children":[-1],"loss_changes":[0E0],"parents":[2147483647],"right_children":[-1],"split_conditions":[3.9449947E-7],"split_indices":[0],"split_type":[0],"sum_hessian":[7.62E2],"tree_param":{"num_deleted":"0","num_feature":"50","num_nodes":"1","size_leaf_vector":"0"}},{"base_weights":[1.3149981E-6],"categories":[],"categories_nodes":[],"categories_segments":[],"categories_sizes":[],"default_left":[0],"id":64,"left_children":[-1],"loss_changes":[0E0],"parents":[2147483647],"right_children":[-1],"split_conditions":[3.9449947E-7],"split_indices":[0],"split_type":[0],"sum_hessian":[7.62E2],"tree_param":{"num_deleted":"0","num_feature":"50","num_nodes":"1","size_leaf_vector":"0"}},{"base_weights":[1.3149981E-6],"categories":[],"categories_nodes":[],"categories_segments":[],"categories_sizes":[],"default_left":[0],"id":65,"left_children":[-1],"loss_changes":[0E0],"parents":[2147483647],"right_children":[-1],"split_conditions":[3.9449947E-7],"split_indices":[0],"split_type":[0],"sum_hessian":[7.62E2],"tree_param":{"num_deleted":"0","num_feature":"50","num_nodes":"1","size_leaf_vector":"0"}},{"base_weights":[1.3149981E-6],"categories":[],"categories_nodes":[],"categories_segments":[],"categories_sizes":[],"default_left":[0],"id":66,"left_children":[-1],"loss_changes":[0E0],"parents":[2147483647],"right_children":[-1],"split_conditions":[3.9449947E-7],"split_indices":[0],"split_type":[0],"sum_hessian":[7.62E2],"tree_param":{"num_deleted":"0","num_feature":"50","num_nodes":"1","size_leaf_vector":"0"}},{"base_weights":[1.3149981E-6],"categories":[],"categories_nodes":[],"categories_segments":[],"categories_sizes":[],"default_left":[0],"id":67,"left_children":[-1],"loss_changes":[0E0],"parents":[2147483647],"right_children":[-1],"split_conditions":[3.9449947E-7],"split_indices":[0],"split_type":[0],"sum_hessian":[7.62E2],"tree_param":{"num_deleted":"0","num_feature":"50","num_nodes":"1","size_leaf_vector":"0"}},{"base_weights":[1.3149981E-6],"categories":[],"categories_nodes":[],"categories_segments":[],"categories_sizes":[],"default_left":[0],"id":68,"left_children":[-1],"loss_changes":[0E0],"parents":[2147483647],"right_children":[-1],"split_conditions":[3.9449947E-7],"split_indices":[0],"split_type":[0],"sum_hessian":[7.62E2],"tree_param":{"num_deleted":"0","num_feature":"50","num_nodes":"1","size_leaf_vector":"0"}},{"base_weights":[1.3149981E-6],"categories":[],"categories_nodes":[],"categories_segments":[],"categories_sizes":[],"default_left":[0],"id":69,"left_children":[-1],"loss_changes":[0E0],"parents":[2147483647],"right_children":[-1],"split_conditions":[3.9449947E-7],"split_indices":[0],"split_type":[0],"sum_hessian":[7.62E2],"tree_param":{"num_deleted":"0","num_feature":"50","num_nodes":"1","size_leaf_vector":"0"}},{"base_weights":[1.3149981E-6],"categories":[],"categories_nodes":[],"categories_segments":[],"categories_sizes":[],"default_left":[0],"id":70,"left_children":[-1],"loss_changes":[0E0],"parents":[2147483647],"right_children":[-1],"split_conditions":[3.9449947E-7],"split_indices":[0],"split_type":[0],"sum_hessian":[7.62E2],"tree_param":{"num_deleted":"0","num_feature":"50","num_nodes":"1","size_leaf_vector":"0"}},{"base_weights":[1.3149981E-6],"categories":[],"categories_nodes":[],"categories_segments":[],"categories_sizes":[],"default_left":[0],"id":71,"left_children":[-1],"loss_changes":[0E0],"parents":[2147483647],"right_children":[-1],"split_conditions":[3.9449947E-7],"split_indices":[0],"split_type":[0],"sum_hessian":[7.62E2],"tree_param":{"num_deleted":"0","num_feature":"50","num_nodes":"1","size_leaf_vector":"0"}},{"base_weights":[1.3149981E-6],"categories":[],"categories_nodes":[],"categories_segments":[],"categories_sizes":[],"default_left":[0],"id":72,"left_children":[-1],"loss_changes":[0E0],"parents":[2147483647],"right_children":[-1],"split_conditions":[3.9449947E-7],"split_indices":[0],"split_type":[0],"sum_hessian":[7.62E2],"tree_param":{"num_deleted":"0","num_feature":"50","num_nodes":"1","size_leaf_vector":"0"}},{"base_weights":[1.3149981E-6],"categories":[],"categories_nodes":[],"categories_segments":[],"categories_sizes":[],"default_left":[0],"id":73,"left_children":[-1],"loss_changes":[0E0],"parents":[2147483647],"right_children":[-1],"split_conditions":[3.9449947E-7],"split_indices":[0],"split_type":[0],"sum_hessian":[7.62E2],"tree_param":{"num_deleted":"0","num_feature":"50","num_nodes":"1","size_leaf_vector":"0"}},{"base_weights":[1.3149981E-6],"categories":[],"categories_nodes":[],"categories_segments":[],"categories_sizes":[],"default_left":[0],"id":74,"left_children":[-1],"loss_changes":[0E0],"parents":[2147483647],"right_children":[-1],"split_conditions":[3.9449947E-7],"split_indices":[0],"split_type":[0],"sum_hessian":[7.62E2],"tree_param":{"num_deleted":"0","num_feature":"50","num_nodes":"1","size_leaf_vector":"0"}},{"base_weights":[1.3149981E-6],"categories":[],"categories_nodes":[],"categories_segments":[],"categories_sizes":[],"default_left":[0],"id":75,"left_children":[-1],"loss_changes":[0E0],"parents":[2147483647],"right_children":[-1],"split_conditions":[3.9449947E-7],"split_indices":[0],"split_type":[0],"sum_hessian":[7.62E2],"tree_param":{"num_deleted":"0","num_feature":"50","num_nodes":"1","size_leaf_vector":"0"}},{"base_weights":[1.3149981E-6],"categories":[],"categories_nodes":[],"categories_segments":[],"categories_sizes":[],"default_left":[0],"id":76,"left_children":[-1],"loss_changes":[0E0],"parents":[2147483647],"right_children":[-1],"split_conditions":[3.9449947E-7],"split_indices":[0],"split_type":[0],"sum_hessian":[7.62E2],"tree_param":{"num_deleted":"0","num_feature":"50","num_nodes":"1","size_leaf_vector":"0"}},{"base_weights":[1.3149981E-6],"categories":[],"categories_nodes":[],"categories_segments":[],"categories_sizes":[],"default_left":[0],"id":77,"left_children":[-1],"loss_changes":[0E0],"parents":[2147483647],"right_children":[-1],"split_conditions":[3.9449947E-7],"split_indices":[0],"split_type":[0],"sum_hessian":[7.62E2],"tree_param":{"num_deleted":"0","num_feature":"50","num_nodes":"1","size_leaf_vector":"0"}},{"base_weights":[1.3149981E-6],"categories":[],"categories_nodes":[],"categories_segments":[],"categories_sizes":[],"default_left":[0],"id":78,"left_children":[-1],"loss_changes":[0E0],"parents":[2147483647],"right_children":[-1],"split_conditions":[3.9449947E-7],"split_indices":[0],"split_type":[0],"sum_hessian":[7.62E2],"tree_param":{"num_deleted":"0","num_feature":"50","num_nodes":"1","size_leaf_vector":"0"}},{"base_weights":[1.3149981E-6],"categories":[],"categories_nodes":[],"categories_segments":[],"categories_sizes":[],"default_left":[0],"id":79,"left_children":[-1],"loss_changes":[0E0],"parents":[2147483647],"right_children":[-1],"split_conditions":[3.9449947E-7],"split_indices":[0],"split_type":[0],"sum_hessian":[7.62E2],"tree_param":{"num_deleted":"0","num_feature":"50","num_nodes":"1","size_leaf_vector":"0"}},{"base_weights":[1.3149981E-6],"categories":[],"categories_nodes":[],"categories_segments":[],"categories_sizes":[],"default_left":[0],"id":80,"left_children":[-1],"loss_changes":[0E0],"parents":[2147483647],"right_children":[-1],"split_conditions":[3.9449947E-7],"split_indices":[0],"split_type":[0],"sum_hessian":[7.62E2],"tree_param":{"num_deleted":"0","num_feature":"50","num_nodes":"1","size_leaf_vector":"0"}},{"base_weights":[1.3149981E-6],"categories":[],"categories_nodes":[],"categories_segments":[],"categories_sizes":[],"default_left":[0],"id":81,"left_children":[-1],"loss_changes":[0E0],"parents":[2147483647],"right_children":[-1],"split_conditions":[3.9449947E-7],"split_indices":[0],"split_type":[0],"sum_hessian":[7.62E2],"tree_param":{"num_deleted":"0","num_feature":"50","num_nodes":"1","size_leaf_vector":"0"}},{"base_weights":[1.3149981E-6],"categories":[],"categories_nodes":[],"categories_segments":[],"categories_sizes":[],"default_left":[0],"id":82,"left_children":[-1],"loss_changes":[0E0],"parents":[2147483647],"right_children":[-1],"split_conditions":[3.9449947E-7],"split_indices":[0],"split_type":[0],"sum_hessian":[7.62E2],"tree_param":{"num_deleted":"0","num_feature":"50","num_nodes":"1","size_leaf_vector":"0"}},{"base_weights":[1.3149981E-6],"categories":[],"categories_nodes":[],"categories_segments":[],"categories_sizes":[],"default_left":[0],"id":83,"left_children":[-1],"loss_changes":[0E0],"parents":[2147483647],"right_children":[-1],"split_conditions":[3.9449947E-7],"split_indices":[0],"split_type":[0],"sum_hessian":[7.62E2],"tree_param":{"num_deleted":"0","num_feature":"50","num_nodes":"1","size_leaf_vector":"0"}},{"base_weights":[1.3149981E-6],"categories":[],"categories_nodes":[],"categories_segments":[],"categories_sizes":[],"default_left":[0],"id":84,"left_children":[-1],"loss_changes":[0E0],"parents":[2147483647],"right_children":[-1],"split_conditions":[3.9449947E-7],"split_indices":[0],"split_type":[0],"sum_hessian":[7.62E2],"tree_param":{"num_deleted":"0","num_feature":"50","num_nodes":"1","size_leaf_vector":"0"}},{"base_weights":[1.3149981E-6],"categories":[],"categories_nodes":[],"categories_segments":[],"categories_sizes":[],"default_left":[0],"id":85,"left_children":[-1],"loss_changes":[0E0],"parents":[2147483647],"right_children":[-1],"split_conditions":[3.9449947E-7],"split_indices":[0],"split_type":[0],"sum_hessian":[7.62E2],"tree_param":{"num_deleted":"0","num_feature":"50","num_nodes":"1","size_leaf_vector":"0"}},{"base_weights":[1.3149981E-6],"categories":[],"categories_nodes":[],"categories_segments":[],"categories_sizes":[],"default_left":[0],"id":86,"left_children":[-1],"loss_changes":[0E0],"parents":[2147483647],"right_children":[-1],"split_conditions":[3.9449947E-7],"split_indices":[0],"split_type":[0],"sum_hessian":[7.62E2],"tree_param":{"num_deleted":"0","num_feature":"50","num_nodes":"1","size_leaf_vector":"0"}},{"base_weights":[1.3149981E-6],"categories":[],"categories_nodes":[],"categories_segments":[],"categories_sizes":[],"default_left":[0],"id":87,"left_children":[-1],"loss_changes":[0E0],"parents":[2147483647],"right_children":[-1],"split_conditions":[3.9449947E-7],"split_indices":[0],"split_type":[0],"sum_hessian":[7.62E2],"tree_param":{"num_deleted":"0","num_feature":"50","num_nodes":"1","size_leaf_vector":"0"}},{"base_weights":[1.3149981E-6],"categories":[],"categories_nodes":[],"categories_segments":[],"categories_sizes":[],"default_left":[0],"id":88,"left_children":[-1],"loss_changes":[0E0],"parents":[2147483647],"right_children":[-1],"split_conditions":[3.9449947E-7],"split_indices":[0],"split_type":[0],"sum_hessian":[7.62E2],"tree_param":{"num_deleted":"0","num_feature":"50","num_nodes":"1","size_leaf_vector":"0"}},{"base_weights":[1.3149981E-6],"categories":[],"categories_nodes":[],"categories_segments":[],"categories_sizes":[],"default_left":[0],"id":89,"left_children":[-1],"loss_changes":[0E0],"parents":[2147483647],"right_children":[-1],"split_conditions":[3.9449947E-7],"split_indices":[0],"split_type":[0],"sum_hessian":[7.62E2],"tree_param":{"num_deleted":"0","num_feature":"50","num_nodes":"1","size_leaf_vector":"0"}},{"base_weights":[1.3149981E-6],"categories":[],"categories_nodes":[],"categories_segments":[],"categories_sizes":[],"default_left":[0],"id":90,"left_children":[-1],"loss_changes":[0E0],"parents":[2147483647],"right_children":[-1],"split_conditions":[3.9449947E-7],"split_indices":[0],"split_type":[0],"sum_hessian":[7.62E2],"tree_param":{"num_deleted":"0","num_feature":"50","num_nodes":"1","size_leaf_vector":"0"}},{"base_weights":[1.3149981E-6],"categories":[],"categories_nodes":[],"categories_segments":[],"categories_sizes":[],"default_left":[0],"id":91,"left_children":[-1],"loss_changes":[0E0],"parents":[2147483647],"right_children":[-1],"split_conditions":[3.9449947E-7],"split_indices":[0],"split_type":[0],"sum_hessian":[7.62E2],"tree_param":{"num_deleted":"0","num_feature":"50","num_nodes":"1","size_leaf_vector":"0"}},{"base_weights":[1.3149981E-6],"categories":[],"categories_nodes":[],"categories_segments":[],"categories_sizes":[],"default_left":[0],"id":92,"left_children":[-1],"loss_changes":[0E0],"parents":[2147483647],"right_children":[-1],"split_conditions":[3.9449947E-7],"split_indices":[0],"split_type":[0],"sum_hessian":[7.62E2],"tree_param":{"num_deleted":"0","num_feature":"50","num_nodes":"1","size_leaf_vector":"0"}},{"base_weights":[1.3149981E-6],"categories":[],"categories_nodes":[],"categories_segments":[],"categories_sizes":[],"default_left":[0],"id":93,"left_children":[-1],"loss_changes":[0E0],"parents":[2147483647],"right_children":[-1],"split_conditions":[3.9449947E-7],"split_indices":[0],"split_type":[0],"sum_hessian":[7.62E2],"tree_param":{"num_deleted":"0","num_feature":"50","num_nodes":"1","size_leaf_vector":"0"}},{"base_weights":[1.3149981E-6],"categories":[],"categories_nodes":[],"categories_segments":[],"categories_sizes":[],"default_left":[0],"id":94,"left_children":[-1],"loss_changes":[0E0],"parents":[2147483647],"right_children":[-1],"split_conditions":[3.9449947E-7],"split_indices":[0],"split_type":[0],"sum_hessian":[7.62E2],"tree_param":{"num_deleted":"0","num_feature":"50","num_nodes":"1","size_leaf_vector":"0"}},{"base_weights":[1.3149981E-6],"categories":[],"categories_nodes":[],"categories_segments":[],"categories_sizes":[],"default_left":[0],"id":95,"left_children":[-1],"loss_changes":[0E0],"parents":[2147483647],"right_children":[-1],"split_conditions":[3.9449947E-7],"split_indices":[0],"split_type":[0],"sum_hessian":[7.62E2],"tree_param":{"num_deleted":"0","num_feature":"50","num_nodes":"1","size_leaf_vector":"0"}},{"base_weights":[1.3149981E-6],"categories":[],"categories_nodes":[],"categories_segments":[],"categories_sizes":[],"default_left":[0],"id":96,"left_children":[-1],"loss_changes":[0E0],"parents":[2147483647],"right_children":[-1],"split_conditions":[3.9449947E-7],"split_indices":[0],"split_type":[0],"sum_hessian":[7.62E2],"tree_param":{"num_deleted":"0","num_feature":"50","num_nodes":"1","size_leaf_vector":"0"}},{"base_weights":[1.3149981E-6],"categories":[],"categories_nodes":[],"categories_segments":[],"categories_sizes":[],"default_left":[0],"id":97,"left_children":[-1],"loss_changes":[0E0],"parents":[2147483647],"right_children":[-1],"split_conditions":[3.9449947E-7],"split_indices":[0],"split_type":[0],"sum_hessian":[7.62E2],"tree_param":{"num_deleted":"0","num_feature":"50","num_nodes":"1","size_leaf_vector":"0"}},{"base_weights":[1.3149981E-6],"categories":[],"categories_nodes":[],"categories_segments":[],"categories_sizes":[],"default_left":[0],"id":98,"left_children":[-1],"loss_changes":[0E0],"parents":[2147483647],"right_children":[-1],"split_conditions":[3.9449947E-7],"split_indices":[0],"split_type":[0],"sum_hessian":[7.62E2],"tree_param":{"num_deleted":"0","num_feature":"50","num_nodes":"1","size_leaf_vector":"0"}},{"base_weights":[1.3149981E-6],"categories":[],"categories_nodes":[],"categories_segments":[],"categories_sizes":[],"default_left":[0],"id":99,"left_children":[-1],"loss_changes":[0E0],"parents":[2147483647],"right_children":[-1],"split_conditions":[3.9449947E-7],"split_indices":[0],"split_type":[0],"sum_hessian":[7.62E2],"tree_param":{"num_deleted":"0","num_feature":"50","num_nodes":"1","size_leaf_vector":"0"}}]},"name":"gbtree"},"learner_model_param":{"base_score":"5E-1","num_class":"0","num_feature":"50","num_target":"1"},"objective":{"name":"reg:squarederror","reg_loss_param":{"scale_pos_weight":"1"}}},"version":[1,6,1]}